{"model_data": {"model": "SimpleRNN", "input_size": 1, "skip": 1, "output_size": 1, "unit_type": "LSTM", "num_layers": 1, "hidden_size": 64, "bias_fl": true}, "state_dict": {"rec.weight_ih_l0": [[1.007441759109497], [-0.36568841338157654], [0.5275904536247253], [0.10452547669410706], [-0.18886026740074158], [-0.13981707394123077], [-0.07070700824260712], [-0.46059656143188477], [-0.23917143046855927], [0.7899719476699829], [-0.5523571372032166], [0.2188854217529297], [0.12555161118507385], [0.43080630898475647], [-0.1878860890865326], [-0.15978853404521942], [0.46694374084472656], [-0.38772058486938477], [-4.8888936042785645], [0.2808108329772949], [0.45702123641967773], [0.9334591627120972], [-0.7208583354949951], [-0.0007720557041466236], [1.2954785823822021], [-0.49937036633491516], [0.28126826882362366], [0.9968969821929932], [-7.163358688354492], [1.1016075611114502], [-0.5358246564865112], [1.4413526058197021], [-0.3514038324356079], [0.04009316861629486], [0.06946851313114166], [0.6169541478157043], [0.32868725061416626], [-0.1803596466779709], [-0.06846002489328384], [-0.06618619710206985], [0.029924996197223663], [-0.011593567207455635], [-0.04713768512010574], [-0.3753652274608612], [-0.10936323553323746], [-0.14294135570526123], [0.059220269322395325], [0.8886995315551758], [-1.2707411050796509], [-0.5824320912361145], [0.27082687616348267], [0.1394781768321991], [-0.11442198604345322], [-0.4213330149650574], [0.3283011317253113], [-0.11722678691148758], [0.26206767559051514], [-1.3151867389678955], [0.35378479957580566], [-0.10004740208387375], [0.19626227021217346], [0.3323984444141388], [-0.4312243163585663], [0.21924042701721191], [0.08371896296739578], [-0.6471072435379028], [0.0915565937757492], [0.12983672320842743], [-0.3045467138290405], [-0.20338138937950134], [-0.09563993662595749], [0.20202377438545227], [-0.5660783648490906], [0.5227826833724976], [0.0003820355050265789], [0.31925806403160095], [-0.15395474433898926], [0.917905330657959], [-0.1032758429646492], [0.30869898200035095], [0.08091650158166885], [-0.619850218296051], [-0.13893866539001465], [0.19319939613342285], [0.12788185477256775], [0.6991147398948669], [-0.06297117471694946], [-0.06319461762905121], [-0.26380011439323425], [0.3590763509273529], [0.4170896112918854], [0.8494928479194641], [-1.8264838457107544], [1.0379810333251953], [0.22681646049022675], [0.7081897258758545], [-0.4836052656173706], [-0.007746733725070953], [-0.08904150873422623], [0.6580648422241211], [0.3652903139591217], [0.11714225262403488], [0.02334628440439701], [-0.1461188942193985], [0.020586438477039337], [0.23751790821552277], [-0.15068674087524414], [-0.5740163922309875], [-0.37097904086112976], [-0.08093514293432236], [0.21754324436187744], [0.14599886536598206], [-2.0526695251464844], [-1.7415969371795654], [0.4510227143764496], [0.027074037119746208], [0.1739102602005005], [-0.23169447481632233], [0.40148329734802246], [-0.03160855174064636], [0.43299493193626404], [-0.2969824969768524], [-0.026663675904273987], [-0.126677468419075], [-0.00718056270852685], [0.3086693584918976], [-0.5282148718833923], [0.38956013321876526], [-0.9639912247657776], [-0.0793667733669281], [-0.19607259333133698], [0.10704652220010757], [-0.12283450365066528], [0.358437180519104], [-0.3092990517616272], [0.6277117133140564], [-0.5599828958511353], [1.166469931602478], [1.2186071872711182], [-0.5950838327407837], [0.8314905762672424], [-1.6764942407608032], [0.2742500603199005], [-0.8355003595352173], [-1.4712594747543335], [-1.4309515953063965], [2.776308298110962], [-0.9469960927963257], [1.5624217987060547], [-0.16930606961250305], [0.25533097982406616], [0.4445135295391083], [-1.0718170404434204], [-0.03642536327242851], [0.06560461223125458], [-1.2537575960159302], [2.9201695919036865], [0.9184978604316711], [-2.5843911170959473], [-1.4620317220687866], [-0.3041059970855713], [-0.10242389142513275], [-0.03812416270375252], [0.758698046207428], [0.2960500419139862], [-0.37098047137260437], [0.14356757700443268], [-0.7121849060058594], [0.2901575565338135], [0.7170332670211792], [0.6848674416542053], [0.11872708052396774], [0.25202545523643494], [-0.1770048886537552], [-0.43477392196655273], [1.2306139469146729], [5.739311695098877], [1.0360416173934937], [0.24070832133293152], [1.255088210105896], [0.22028125822544098], [-0.7174123525619507], [-0.3157893419265747], [0.36259394884109497], [0.03478690981864929], [0.7252088785171509], [-0.6452487111091614], [0.10753121972084045], [0.8209754824638367], [0.39817801117897034], [0.942861020565033], [0.7792468070983887], [1.1354361772537231], [0.4382646977901459], [-0.3058224320411682], [0.08538366854190826], [-0.33424830436706543], [-0.22432971000671387], [-0.1271245926618576], [-0.8580155968666077], [-0.45392826199531555], [0.9269965887069702], [-0.537318766117096], [0.054147422313690186], [2.4386513233184814], [0.6479564905166626], [-0.2996583580970764], [-1.2835904359817505], [0.1915469765663147], [-0.4957094192504883], [-4.690576553344727], [0.6494799852371216], [0.5973597764968872], [0.18645288050174713], [1.329343557357788], [0.020578639581799507], [0.7144922018051147], [-0.037701789289712906], [0.07312537729740143], [-2.324472665786743], [-0.9386175870895386], [1.263556718826294], [-0.73656165599823], [5.613680362701416], [-0.4512668550014496], [0.00503057986497879], [-0.010782545432448387], [0.7546449303627014], [0.41966673731803894], [-0.27034565806388855], [-0.23801766335964203], [0.7462165355682373], [0.08025142550468445], [-1.2381887435913086], [0.2736361026763916], [-0.3688180446624756], [-0.3676872253417969], [-0.19166608154773712], [-2.7317135334014893], [1.027400016784668], [1.5249848365783691], [-1.1082690954208374], [0.07159630954265594], [0.16215583682060242], [0.20863229036331177], [-0.4060809314250946], [0.49633193016052246], [0.09189025312662125], [0.1806047409772873], [-0.26753491163253784], [0.3188440501689911], [-0.09067615866661072], [0.29585278034210205], [0.35115331411361694], [-0.5262994766235352], [-1.7900450229644775]], "rec.weight_hh_l0": [[0.06599724292755127, 0.1378035694360733, -0.23360325396060944, 0.09674874693155289, 0.007005156949162483, -0.06628795713186264, 0.04080723971128464, -0.31595301628112793, -0.07851430773735046, -0.12918493151664734, -0.8320849537849426, -0.05443570017814636, -0.10126809030771255, 0.15044623613357544, -0.014475561678409576, 0.03297141566872597, 0.23921513557434082, 1.0904146432876587, -0.2276785671710968, 0.034900035709142685, -0.38253816962242126, -0.0376470647752285, 0.16930462419986725, 0.04111892357468605, 0.10390122979879379, 0.3587380051612854, -0.2716861665248871, -0.1252785474061966, -0.2269492745399475, -0.4543578624725342, 0.7768234014511108, 0.21420957148075104, 0.09615380316972733, 0.0471363365650177, -0.13993753492832184, -0.27787086367607117, -0.033182594925165176, 0.34761202335357666, 0.022920461371541023, -0.20602025091648102, -0.020660266280174255, -0.2364766001701355, -0.13529792428016663, 0.3072528541088104, -0.2858830392360687, -0.01592210680246353, 0.4558241665363312, 0.10306677222251892, -0.6049327254295349, 0.12982796132564545, 0.07668963074684143, -0.34278926253318787, 0.14530713856220245, 0.36941269040107727, 0.003372502513229847, -0.15182887017726898, -0.18148548901081085, -0.11414215713739395, 0.292264848947525, 0.21557454764842987, -0.7144284248352051, -0.04318556189537048, -0.19810271263122559, -0.11395572125911713], [0.5933887958526611, -0.0761132463812828, -0.14336279034614563, -0.09141474217176437, 0.4472258985042572, 0.015800023451447487, 0.01990971714258194, -0.3249242603778839, 0.10899678617715836, -0.14697259664535522, -0.057537294924259186, -0.020495731383562088, -0.1746128648519516, 0.5368708968162537, 0.046276118606328964, -0.0499989315867424, 0.30767950415611267, -0.02277197130024433, -0.2919866442680359, 0.19551120698451996, -0.2655138671398163, -0.2748101055622101, -0.07629860937595367, -0.10848359763622284, 0.06136799231171608, 0.34359419345855713, -0.02266586199402809, 0.012492337264120579, -1.1135088205337524, -0.036375921219587326, 0.6898391246795654, 0.1379949450492859, -0.08317610621452332, 0.12230990082025528, -0.007730744779109955, -0.18600118160247803, -0.16990607976913452, 0.2592064440250397, 0.1274719536304474, 0.17911025881767273, -0.06356395035982132, -0.042160965502262115, -0.12818916141986847, 0.16315948963165283, 0.037450190633535385, -0.07968654483556747, 0.1932276487350464, -0.277825266122818, -0.20037004351615906, -0.029970912262797356, -0.1900085061788559, -0.23506785929203033, 0.24681463837623596, 0.5491275787353516, -0.10127444565296173, -0.16383114457130432, 0.019297460094094276, -0.08055704087018967, 0.1842677742242813, 0.09371450543403625, 0.8799164295196533, 0.12972676753997803, -0.0109608955681324, -0.2806507647037506], [0.1792583465576172, -0.01083588507026434, -0.8569062352180481, 0.04454251751303673, 0.19427819550037384, 0.3852451741695404, -0.22817757725715637, 0.44661661982536316, -0.0996832326054573, -0.4214187264442444, 0.06019701436161995, -0.24930506944656372, -0.17373037338256836, 0.04419915750622749, 0.35683944821357727, -0.1618371307849884, 0.46979644894599915, -0.4050074517726898, 0.7776659727096558, 0.20436230301856995, 0.01226088311523199, 0.008536336943507195, -0.17329919338226318, -0.08456111699342728, 0.023454587906599045, 0.12054234743118286, -0.4165641963481903, -0.29497721791267395, 0.6746021509170532, -0.08125334233045578, 0.05475134029984474, 0.17001201212406158, -0.2925083041191101, 0.06767209619283676, -0.07811293751001358, -0.3243579864501953, -0.0382377952337265, 0.2625545859336853, 0.2730841636657715, 0.3665565550327301, 0.015841707587242126, -0.0015371678164228797, 0.02755509875714779, 0.41079020500183105, -0.09397271275520325, -0.3463137447834015, -0.1432827264070511, 0.18004411458969116, -1.2865300178527832, 0.3242938220500946, 0.32234400510787964, -0.12592968344688416, 0.19429145753383636, -0.05165286734700203, 0.03135138005018234, 0.02746741846203804, -0.12139438092708588, 0.10504813492298126, 0.038588717579841614, 0.05128214880824089, 0.07504495233297348, 0.08385995775461197, 0.08075032383203506, -0.29304027557373047], [-0.08439801633358002, 0.20184236764907837, -0.022620974108576775, 0.12119390815496445, 0.01697717420756817, -0.02466617524623871, -0.0209665410220623, 0.09300727397203445, -0.3506513237953186, 0.12030888348817825, 0.08358987420797348, -0.1295822560787201, 0.01955951750278473, -0.02170749381184578, 0.04366082698106766, 0.1880139261484146, -0.07826980948448181, 0.10054365545511246, 0.1417698860168457, -0.059456467628479004, 0.10546036809682846, 0.010403583757579327, 0.320468008518219, 0.08208750188350677, -0.11751840263605118, -0.04671135172247887, 0.42556238174438477, -0.09397663176059723, 0.17601491510868073, 0.13602600991725922, -0.061634134501218796, -0.15295805037021637, 0.10940354317426682, 0.016535622999072075, 0.06021712347865105, 0.036103472113609314, -0.02466180920600891, -0.1960507333278656, 0.04792371764779091, -0.09655917435884476, 0.004763400182127953, -0.026112765073776245, -0.008290957659482956, 0.1215578243136406, 0.08016619831323624, -0.06721346825361252, 0.08620387315750122, 0.188826784491539, 0.18477842211723328, 0.23939022421836853, -0.12563326954841614, 0.08179666846990585, 0.05918766185641289, -0.1739085614681244, 0.04796551167964935, -0.008030281402170658, -0.16123022139072418, 0.05436760559678078, 0.026494145393371582, 0.005917417351156473, -0.10402074456214905, -0.028583696112036705, 0.004033296834677458, -0.07848547399044037], [-0.04198800399899483, -0.033944036811590195, -0.30044594407081604, -0.3211512863636017, -0.06338410824537277, 0.5408627986907959, -0.4757058918476105, -0.4012647569179535, 0.15281763672828674, 1.1470140218734741, -0.44516465067863464, -0.524783730506897, -0.5004450678825378, 0.29455721378326416, 0.503725528717041, 0.0015146499499678612, -0.08488023281097412, -0.018387386575341225, 0.0585348978638649, 0.5530077815055847, -0.2877153754234314, -0.15653561055660248, -0.21635080873966217, 0.018283551558852196, -0.3458487391471863, -0.3423457145690918, 0.43895211815834045, -0.1274624615907669, 0.4665761888027191, 0.3296794891357422, -0.3038524091243744, 0.45084288716316223, -0.16307295858860016, 0.19345232844352722, -0.2528500556945801, -0.3543711006641388, -0.01773121766746044, 0.12945525348186493, 0.5260903835296631, 0.7880906462669373, 0.0272506270557642, 0.04734017327427864, -0.09876073896884918, 0.2624918520450592, -0.15665000677108765, -0.4366685152053833, 0.30685165524482727, 0.05305570736527443, 0.44169753789901733, 0.4452003836631775, -0.29074302315711975, 0.1332305669784546, -0.1425119787454605, 0.09317514300346375, 0.14072184264659882, -0.3352292776107788, -0.3422519564628601, 0.358709454536438, 0.0693468451499939, 0.16210924088954926, 0.20842088758945465, 0.3728331923484802, 0.25896233320236206, 0.2447676658630371], [0.06496754288673401, 0.1525646150112152, -0.10271485894918442, -0.04551445320248604, -0.0823880136013031, 0.03322232887148857, -0.18172484636306763, 0.24595347046852112, -0.35915911197662354, -0.01146127749234438, -0.03087693080306053, 0.10386650264263153, -0.03952464088797569, -0.11536600440740585, 0.15663057565689087, -0.28809282183647156, 0.24173006415367126, 0.4139328896999359, 0.03940149024128914, 0.057715438306331635, -0.21384289860725403, 0.12466952204704285, 0.07003365457057953, 0.024202503263950348, 0.02456987276673317, -0.05524492636322975, -0.6701063513755798, 0.1657130867242813, -0.10660286247730255, 0.05228276550769806, 0.022371044382452965, 0.2915211617946625, -0.21564200520515442, 0.034966032952070236, 0.02182084694504738, -0.22566726803779602, -0.006130273919552565, 0.07422495633363724, 0.14877986907958984, -0.2397252470254898, 0.03377436101436615, 0.11384016275405884, -0.10164939612150192, 0.12833386659622192, -0.19652000069618225, -0.20872701704502106, 0.24523743987083435, 0.11517905443906784, -0.21293187141418457, 0.009499406442046165, 0.06217019259929657, -0.07295870035886765, -0.1796697974205017, -0.0892375037074089, -0.15755000710487366, -0.1504945456981659, 0.09386695921421051, 0.11570467799901962, 0.044417090713977814, 0.03631666302680969, 0.020794708281755447, -0.048525504767894745, 0.03591402992606163, -0.04480042681097984], [0.05906391516327858, 0.23535974323749542, -0.02031763270497322, -0.03780367225408554, 0.05899454280734062, 0.2078380286693573, -0.14723588526248932, 0.2656611204147339, 0.06553418189287186, 0.14908799529075623, 0.13638532161712646, -0.09881683439016342, -0.13561758399009705, -0.152033269405365, 0.1498730480670929, -0.22840498387813568, 0.2445560246706009, -0.0906439945101738, 0.207381933927536, 0.06582684069871902, -0.10634677112102509, 0.01685486175119877, -0.059870775789022446, -0.0068665556609630585, 0.04705842211842537, 0.09134354442358017, -0.10825787484645844, -0.054361745715141296, 0.1047855019569397, -0.04705863445997238, -0.03395481035113335, 0.3416334390640259, -0.12941284477710724, -0.01978663168847561, -0.0021378181409090757, -0.14761868119239807, -0.05871596187353134, -0.049248065799474716, 0.10838489234447479, 0.21795672178268433, 0.03669722005724907, 0.09870900213718414, 0.12533627450466156, 0.09428122639656067, -0.17493580281734467, -0.11394153535366058, -0.14556045830249786, 0.06129360944032669, -0.25572749972343445, -0.1590917855501175, 0.008043361827731133, 0.022208569571375847, 0.13439497351646423, 0.030552295967936516, 0.07159177958965302, -0.04354805499315262, -0.10023025423288345, 0.054280538111925125, 0.035634737461805344, -0.034413304179906845, 0.031047407537698746, 0.04737434908747673, -0.032609157264232635, 0.32744038105010986], [0.2326030731201172, -0.13310739398002625, 0.21010243892669678, -0.22872261703014374, 0.8824291229248047, 0.3370627462863922, -0.234035462141037, 0.30007219314575195, 0.4059706926345825, 0.40004071593284607, 0.25896599888801575, -0.3916266858577728, 0.1583814024925232, 0.19352641701698303, 0.4298829436302185, 0.09085235744714737, 0.3603092432022095, -0.7827681303024292, 0.7192192077636719, -0.5317924618721008, -0.054908063262701035, -0.22505895793437958, 0.04804301634430885, 0.08117903023958206, -0.36360201239585876, -0.14609713852405548, 0.2875523567199707, -0.4352533519268036, 0.2032250612974167, -0.10184896737337112, -0.243216410279274, -0.49665334820747375, 0.015899427235126495, 0.2703584134578705, 0.17452380061149597, -0.2319532334804535, -0.03837756812572479, 0.22951318323612213, 0.40330857038497925, -0.18303202092647552, 0.0958913192152977, -0.6199073195457458, -0.3075854778289795, -0.4020342528820038, 0.3108934462070465, -0.29845792055130005, 0.1832660287618637, 0.4290366768836975, 0.9386892914772034, 0.25692570209503174, 0.9300734996795654, -0.22596445679664612, 0.06279445439577103, -0.32564350962638855, 0.2933821380138397, -0.0872524082660675, -0.46041131019592285, 0.19693972170352936, 0.09559646248817444, 0.16473060846328735, 1.1795376539230347, 0.12407615035772324, 0.14939552545547485, 0.39747154712677], [-0.11858639866113663, 0.13990582525730133, 0.044633954763412476, -0.11643277853727341, 0.11248797923326492, 0.48388758301734924, -0.1062769740819931, -0.9858507513999939, -0.022741423919796944, -0.3927541673183441, -0.1902787685394287, -0.028484895825386047, -0.3989555537700653, 0.5906411409378052, 0.28923991322517395, -0.2178860753774643, -0.018784573301672935, -0.08406324684619904, 0.16166947782039642, 0.27142754197120667, -0.08556360006332397, -0.00969296507537365, 0.002565437462180853, 0.23760929703712463, -0.5636741518974304, -0.22630570828914642, 0.31921854615211487, -0.36657074093818665, 0.07660055160522461, -0.20211221277713776, 0.23317615687847137, -0.0705592930316925, 0.00720603670924902, 0.08877572417259216, -0.20409785211086273, -0.2232910394668579, -0.16434615850448608, -0.009548202157020569, 0.3000586926937103, 0.34398025274276733, 0.11411870270967484, 0.3080303370952606, -0.23212996125221252, 0.18941114842891693, -0.6339790225028992, -0.1443757712841034, -0.1306421160697937, -0.07532569020986557, 0.600933313369751, 0.44261085987091064, -0.5295401215553284, 0.16913092136383057, -0.16667766869068146, 0.06205173209309578, 0.36159831285476685, -0.2864920198917389, -0.2510054111480713, -0.003514766227453947, 0.13342995941638947, -0.042954396456480026, -0.4029833674430847, 0.29179710149765015, 0.06786295026540756, 0.04044907167553902], [-0.2271151840686798, 0.4508535861968994, 0.06723722070455551, 0.10943035036325455, -0.10227329283952713, 0.10392700135707855, -0.03583253547549248, 0.02945878356695175, -0.13566996157169342, -0.09549291431903839, -0.37259364128112793, -0.03993568196892738, 0.16172794997692108, -0.2623614966869354, 0.015547324903309345, 0.17788752913475037, -0.45239025354385376, 0.22629889845848083, 0.015140309929847717, -0.29490119218826294, 0.13759329915046692, -0.16379530727863312, -0.03950903192162514, 0.021628569811582565, -0.3355492651462555, 0.3199768364429474, -0.31322672963142395, 0.19818498194217682, 0.5911515951156616, 0.20216068625450134, -0.4745699465274811, -0.6193479895591736, -0.13266140222549438, -0.0828072726726532, -0.06968740373849869, 0.036366842687129974, 0.18961384892463684, 0.14087414741516113, 0.03676171228289604, -0.1831279993057251, -0.0253842044621706, 0.22695036232471466, 0.37603500485420227, -0.008572679944336414, -0.016703302040696144, -0.06308946013450623, -0.06841146945953369, 1.0731083154678345, 0.4811757206916809, 0.30022913217544556, 0.2500796914100647, 0.26444461941719055, 0.1463068574666977, -0.038126494735479355, -0.17365726828575134, 0.024121882393956184, 0.13202045857906342, 0.1615951657295227, -0.13451902568340302, 0.15366162359714508, 0.036739282310009, -0.11254354566335678, 0.03679259866476059, 0.5027310848236084], [0.175262451171875, 0.5206522345542908, -0.038637589663267136, -0.023158831521868706, 0.00042075151577591896, -0.006811578292399645, 0.006899721454828978, -0.3071799576282501, -0.10807273536920547, 0.8383648991584778, 0.34519249200820923, -0.030218904837965965, -0.004869908094406128, -0.46575430035591125, -0.012944932095706463, -0.5498791933059692, -0.122471384704113, -0.993514895439148, -0.2281758338212967, -0.012467337772250175, 0.026216933503746986, -0.0010241270065307617, 0.008939288556575775, 0.044949837028980255, -0.9025070667266846, -0.0869017168879509, -0.5427975654602051, 0.2773882746696472, -0.1420455425977707, 0.7338209748268127, -0.6167829632759094, -0.20444107055664062, -0.2663367688655853, 0.051766879856586456, -0.06771422922611237, 0.001955235842615366, 0.025858204811811447, -0.05574675649404526, -0.07451821863651276, 0.4256010353565216, 0.05159450322389603, 0.03620534390211105, 0.17713570594787598, 0.16988155245780945, -0.2587762475013733, 0.05957050994038582, 0.055786047130823135, 0.8346480131149292, 0.5559510588645935, 0.09476571530103683, 0.0515831857919693, 0.2736097276210785, 0.08156206458806992, -0.03932303190231323, 0.10514625161886215, 0.015169478952884674, -0.06932637095451355, -0.07913065701723099, -0.0881822407245636, -0.16111800074577332, 1.2893950939178467, -0.04462561011314392, 0.043613407760858536, -0.12476301193237305], [-0.024369167163968086, 0.2477090209722519, 0.08972461521625519, 0.04942936822772026, -0.0910617932677269, 0.14804010093212128, -0.2172582596540451, -0.14871354401111603, -0.0872601568698883, 0.11566247791051865, 0.34998470544815063, 0.22693422436714172, 0.07907091826200485, 0.019364146515727043, 0.13408277928829193, -0.076512910425663, -0.20603111386299133, -0.25711196660995483, -0.1838075816631317, -0.0375039279460907, 0.04777105152606964, 0.1312095820903778, -0.0564606711268425, 0.1399415284395218, -0.3486277461051941, -0.14629553258419037, -0.6238367557525635, 0.22271257638931274, 0.0635882243514061, -0.08575809746980667, -0.1780521124601364, 0.0890256017446518, -0.3116039037704468, -0.05306387320160866, 0.03539816290140152, -0.002669333713129163, 0.03494682535529137, -0.19233591854572296, 0.18059389293193817, 0.14551562070846558, -0.07830502092838287, 0.23933590948581696, -0.006104035768657923, -0.08016956597566605, -0.20592467486858368, -0.2432759702205658, -0.0020137056708335876, 0.3414486050605774, -0.05039047822356224, 0.4072451591491699, 0.023511746898293495, 0.33288848400115967, 0.2651742398738861, -0.21852941811084747, -0.23258396983146667, -0.3123798668384552, 0.15204447507858276, 0.19135715067386627, -0.019402123987674713, -0.08272324502468109, 0.17005915939807892, 0.1141858845949173, 0.2222396731376648, 0.22814355790615082], [0.06413418799638748, 0.02363348752260208, -0.26140978932380676, -0.11250428110361099, 0.2812156081199646, 0.07630889862775803, -0.11120396852493286, -0.13556092977523804, 0.42220985889434814, 0.11064580827951431, 0.043811649084091187, 0.13660524785518646, -0.13218295574188232, -0.2843047082424164, 0.13341780006885529, 0.027900289744138718, 0.4392549991607666, -0.11614412814378738, -0.13982924818992615, -0.14616334438323975, -0.11665444076061249, 0.2782806158065796, -0.3361031115055084, 0.05000878870487213, 0.3068084120750427, 0.014429790899157524, -0.35570231080055237, 0.005470756441354752, 0.3074289858341217, 0.07084845751523972, 0.014869322068989277, -0.11866936087608337, -0.2211572527885437, 0.07437147200107574, 0.09740161150693893, -0.21098124980926514, 0.30218610167503357, 0.19267767667770386, 0.12723228335380554, 0.32405906915664673, 0.03917163237929344, -0.4265914559364319, 0.11194825172424316, 0.42724186182022095, 0.13972114026546478, -0.18845035135746002, 0.4653744697570801, 0.13189195096492767, -0.26202160120010376, -0.20912563800811768, 0.43585383892059326, -0.22298061847686768, 0.2994455099105835, 0.23573380708694458, -0.16692230105400085, 0.16794347763061523, 0.3373756408691406, 0.9516068696975708, 0.041341040283441544, -0.10011205822229385, -0.09804333746433258, -0.06958863139152527, -0.12416315078735352, 0.13979016244411469], [0.23385760188102722, 0.3855038285255432, 0.3539388179779053, 0.22735713422298431, -0.193812295794487, 0.0893934816122055, 0.18493713438510895, -0.5479623675346375, 0.28504475951194763, -0.05546773597598076, -0.015476131811738014, 0.35020920634269714, -0.11019439995288849, -0.16239449381828308, -0.1780705451965332, 0.6855406761169434, -0.027710450813174248, 0.14115548133850098, -0.037401050329208374, 0.23413987457752228, 0.06622854620218277, -0.27095478773117065, -0.20727363228797913, -0.15798579156398773, -0.3723786473274231, 0.052280623465776443, 0.19444791972637177, 0.042680539190769196, 0.09131824970245361, 0.19003280997276306, 0.0014144816668704152, 0.16836822032928467, 0.24204860627651215, -0.12835437059402466, -0.08240523934364319, 0.15948699414730072, 0.17876003682613373, -0.10648223757743835, -0.2424529641866684, 0.5113301277160645, -0.08171462267637253, 0.4237712621688843, 0.5118411183357239, -0.44897598028182983, 0.025073368102312088, 0.23412874341011047, -0.7781646847724915, -0.5079737901687622, -0.1782117784023285, -0.14907529950141907, -0.17640294134616852, 0.051007166504859924, -0.23730511963367462, -0.22333599627017975, -0.2166634052991867, 0.15819458663463593, 0.19934798777103424, -0.19379554688930511, -0.2706257700920105, 0.013617681339383125, 0.26257896423339844, -0.16261138021945953, -0.26395851373672485, 0.776687741279602], [0.047564879059791565, 0.2081730216741562, -0.09866107255220413, 0.022359883412718773, -0.019486716017127037, 0.10738691687583923, -0.2208329290151596, 0.3371611535549164, -0.12510284781455994, 0.05720861256122589, 0.05717220529913902, 0.1465415209531784, -0.13055214285850525, -0.17665402591228485, 0.16693662106990814, -0.2322017252445221, 0.11384674161672592, 0.16269104182720184, 0.11002416163682938, 0.08391723781824112, -0.16783908009529114, 0.011437317356467247, 0.021910587325692177, -0.035990290343761444, 0.09282378107309341, -0.044668588787317276, -0.5810644030570984, 0.1429843157529831, 0.05962765961885452, 0.007375616580247879, -0.18163597583770752, 0.3003177046775818, -0.18678046762943268, 0.01704985275864601, -0.0009515677811577916, -0.1510719656944275, 0.02641063742339611, -0.030900739133358, 0.17733575403690338, -0.06438972055912018, -0.029238691553473473, 0.29065579175949097, 0.01754169538617134, 0.1170823872089386, -0.1891922652721405, -0.20101402699947357, 0.09520632773637772, 0.09793448448181152, -0.15715369582176208, -0.039926860481500626, 0.10568678379058838, 0.06228581443428993, 0.007540184538811445, -0.1186276525259018, -0.19009411334991455, -0.12797540426254272, 0.1726124882698059, 0.16305974125862122, 0.00494788633659482, -0.018183382228016853, 0.013335182331502438, -0.0015404014848172665, 0.06623919308185577, 0.04415781795978546], [0.3164711892604828, -0.2635365128517151, 0.5953773260116577, 0.11729498952627182, -0.22887194156646729, -0.03787939250469208, -0.007168238516896963, -0.32264021039009094, -0.08440882712602615, 0.1675756871700287, 0.46126341819763184, 0.11145705729722977, 0.2718716859817505, -0.0524648055434227, -0.09584794193506241, 0.25442415475845337, -0.4154435694217682, -0.5649940967559814, -0.26656001806259155, -0.1562194526195526, 0.2942297160625458, -0.12514661252498627, -0.06242602318525314, -0.08684930950403214, -0.003277705516666174, 0.16051658987998962, 0.6741712093353271, 0.34920674562454224, -0.227562814950943, 0.0819033831357956, -0.48982200026512146, -0.33711662888526917, 0.1034916564822197, -0.1839228719472885, -0.050003405660390854, 0.19629712402820587, 0.17399437725543976, -0.04533671587705612, -0.13812118768692017, 0.13658219575881958, 0.06832422316074371, 0.28083258867263794, -0.07206211239099503, -0.30272263288497925, -0.0014892126200720668, 0.060292549431324005, -0.04570591077208519, 0.29272085428237915, -0.5193104147911072, 0.8753662109375, 0.5210425853729248, 0.3120594322681427, 0.15189655125141144, -0.164073184132576, -0.28439033031463623, -0.11002617329359055, 0.11897735297679901, 0.40278035402297974, -0.2292451709508896, 0.12255092710256577, 0.2632612884044647, -0.1557321548461914, 0.07809694856405258, 0.18440227210521698], [0.008712166920304298, -0.4904017150402069, 0.1293061077594757, -0.1193481832742691, 0.6967626810073853, 0.012733695097267628, 0.06481022387742996, -0.764071524143219, -0.15271951258182526, -0.09610159695148468, 0.058089300990104675, 0.1203964501619339, -0.008704839274287224, -0.15651234984397888, 0.0010169635061174631, -0.14210538566112518, 0.0794244036078453, -0.1563461273908615, -0.12769044935703278, 0.1880553960800171, 0.11788398027420044, 0.1831764131784439, 0.09871073812246323, -0.003142382949590683, -0.23265916109085083, -0.07956093549728394, -0.278236985206604, 0.2496926635503769, -1.0120328664779663, 0.21386505663394928, 0.12444152683019638, 0.11496735364198685, 0.013851417228579521, 0.06665109097957611, -0.0247026514261961, -0.008034750819206238, -0.09442754834890366, -0.026509849354624748, 0.020025745034217834, 0.03446286544203758, 0.017872275784611702, 0.1088409572839737, -0.268232136964798, -0.11036290973424911, -0.2020142674446106, 0.18993300199508667, -0.18994660675525665, -0.14081592857837677, 0.0560721680521965, -0.14844802021980286, -0.6738022565841675, 0.26925230026245117, -0.07165057212114334, 0.1492898166179657, 0.22869035601615906, 0.10118673741817474, -0.00658447714522481, -0.21896740794181824, 0.047123879194259644, 0.0889536514878273, 0.5028830170631409, 0.16420583426952362, -0.06776751577854156, -0.1564606875181198], [0.048610735684633255, 0.8833752274513245, 0.12237925082445145, -0.09919045865535736, -0.05092921108007431, -0.1040801852941513, 0.22296765446662903, -0.01562253013253212, -0.7067026495933533, 0.5694451332092285, -0.002324290107935667, 0.21416138112545013, 0.1538035124540329, -1.105678677558899, -0.15708982944488525, -0.20795707404613495, -0.6406545639038086, -0.18717993795871735, 0.04631165787577629, -0.2584463953971863, 0.1304713636636734, -0.048616673797369, -0.03171384334564209, 0.08045584708452225, -0.27249929308891296, 0.11002177000045776, -0.16799063980579376, -0.27461645007133484, 0.006314309313893318, 0.45453155040740967, -0.7584632039070129, -0.4073279798030853, -0.055198393762111664, 0.04605317488312721, -0.05881686136126518, 0.20036569237709045, 0.05465426295995712, -0.014694037847220898, -0.2713634967803955, -0.13991935551166534, 0.1336483508348465, 0.10532545298337936, 0.3932892680168152, -0.16625665128231049, -0.12284162640571594, 0.3084952235221863, -0.300991415977478, 0.8319864273071289, 0.8708116412162781, -0.17215941846370697, -0.13900867104530334, 0.1888619065284729, -0.053035344928503036, 0.10490307211875916, 0.13745710253715515, 0.15165568888187408, 0.20150400698184967, -0.20733162760734558, 0.0168315339833498, -0.19214795529842377, 0.42619889974594116, -0.25861990451812744, -0.09384611994028091, 0.14986737072467804], [-0.2989810109138489, 0.44641467928886414, 0.0984528437256813, -0.21649877727031708, 0.04900259152054787, -0.060382355004549026, 0.19705955684185028, 0.19698669016361237, 0.030225472524762154, -0.28154098987579346, -0.02450454607605934, 0.4893920123577118, -0.10412011295557022, 0.25521042943000793, -0.13300170004367828, 0.33577901124954224, 0.03215726464986801, 0.6121233701705933, 1.9107942581176758, 0.06943288445472717, -0.2329227179288864, -0.35116565227508545, -0.21642020344734192, -0.2954922616481781, -0.09140445291996002, -0.044306885451078415, 0.42249855399131775, 0.07539892941713333, 1.312059998512268, 0.07569142431020737, 0.5652893781661987, 2.068725347518921, -0.18060536682605743, 0.09506929665803909, -0.1479659080505371, -0.10539936274290085, 0.2213856726884842, 0.07007739692926407, -0.1614098995923996, -0.14600041508674622, 0.17087501287460327, 0.28203243017196655, -0.01552449818700552, -0.13440629839897156, -0.30919989943504333, 0.05269604176282883, 0.2666318714618683, -0.33930325508117676, -4.130721569061279, -0.03671515733003616, 0.2707653343677521, 0.08417246490716934, -0.09451179951429367, 0.2765147387981415, -0.3532465100288391, -0.0853356197476387, 0.8194493055343628, -0.0922541543841362, -0.19502171874046326, -0.07269338518381119, 0.037370599806308746, 0.13555492460727692, -0.21496427059173584, -1.3629469871520996], [0.032500993460416794, 0.1421997994184494, 0.184174045920372, -0.0141138331964612, 0.037765610963106155, 0.08602502942085266, -0.12178529053926468, -0.03222767263650894, -0.024887945502996445, -0.23627440631389618, -0.31209900975227356, -0.0036988407373428345, -0.04588436707854271, -0.07958968728780746, 0.1283285915851593, -0.029125193133950233, 0.21172456443309784, 0.05774236097931862, -0.12169842422008514, 0.039855360984802246, -0.1433582305908203, -0.26639506220817566, 0.02125605195760727, -0.020522121340036392, 0.1769172102212906, 0.13851214945316315, -0.08824719488620758, 0.14696377515792847, 0.19022947549819946, -0.2168428748846054, -0.017835058271884918, 0.12100683152675629, -0.18293799459934235, 0.04672795161604881, -0.057113874703645706, -0.14923585951328278, -0.0580768920481205, 0.04213552922010422, 0.14112652838230133, 0.11522366106510162, 0.01230219192802906, -0.04495708644390106, -0.04458504542708397, -0.14426226913928986, 0.0074385907500982285, -0.14372003078460693, -0.05776076391339302, -0.09447518736124039, -0.16085201501846313, -0.2436511516571045, 0.12081250548362732, -0.1363813728094101, 0.20023798942565918, 0.08590437471866608, 0.18885040283203125, 0.049959369003772736, -0.010056697763502598, 0.22095143795013428, 0.12666109204292297, 0.028341222554445267, -0.2167382538318634, -0.010622518137097359, -0.018026577308773994, 0.25390154123306274], [0.03133751451969147, -0.010555925779044628, 0.09127569943666458, -0.229709655046463, 0.13121724128723145, -0.05111338943243027, 0.04259311035275459, -0.4827442467212677, -0.04471737891435623, 0.3307015597820282, -0.3118743598461151, 0.17052678763866425, 0.03679748252034187, -0.14361867308616638, -0.04794268682599068, 0.22423264384269714, -0.05210215225815773, 0.09492073208093643, -0.2820410132408142, 0.04680665582418442, -0.07190781086683273, 0.06722158938646317, -0.18681509792804718, -0.06151198223233223, -0.08823297172784805, 0.2026968002319336, 0.2461818903684616, -0.2701580822467804, -0.24494093656539917, -0.01640482433140278, -0.4110604524612427, -0.05138887092471123, 0.1327684223651886, -0.061798688024282455, -0.03866497427225113, -0.0017315719742327929, 0.06195390224456787, -0.09004294872283936, -0.06760511547327042, 0.21361441910266876, 0.033078331500291824, 0.10207076370716095, -0.02155778370797634, -0.17920131981372833, 0.038874078541994095, 0.016371294856071472, 0.1162065714597702, 0.40282514691352844, 0.18339546024799347, -0.14616665244102478, 0.08649710565805435, 0.03448996692895889, -0.047801993787288666, 0.10509014874696732, -0.20999258756637573, 0.049488797783851624, 0.09100911766290665, -0.02928045392036438, 0.04637112841010094, 0.04744364321231842, -0.28745734691619873, 0.05676346644759178, -0.12216728180646896, -0.03822449594736099], [0.2558633089065552, 0.2692541778087616, -0.5710235834121704, 0.16942179203033447, -0.1330036073923111, 0.21310454607009888, -0.07341838628053665, 0.278842031955719, -0.3488612473011017, -0.2466384768486023, -0.05461369454860687, -0.10088711231946945, -0.2929379940032959, 0.021759359166026115, 0.1543220728635788, 0.33190274238586426, -0.019202569499611855, -0.11570005863904953, 0.1288270801305771, 0.11596336215734482, -0.09967335313558578, -0.2722463309764862, -0.1250014305114746, -0.03465253487229347, 0.0005761923384852707, 0.22617830336093903, -0.20549584925174713, 0.5306382179260254, -0.06366898119449615, 0.027681555598974228, -0.020070087164640427, 0.08570635318756104, -0.23983095586299896, 0.14565181732177734, -0.061216630041599274, -0.1816365122795105, 0.020353443920612335, 0.21994906663894653, 0.01094130054116249, 0.4365345537662506, -0.0186516884714365, 0.0576961450278759, 0.11513222754001617, 0.657111406326294, -0.09538021683692932, -0.18808509409427643, -0.07464617490768433, -0.22202076017856598, -0.3381004333496094, 0.08544566482305527, 0.21096836030483246, -0.1918189525604248, 0.12914401292800903, -0.11346302926540375, 0.05297771841287613, -0.05771014094352722, 0.14109177887439728, 0.21204429864883423, -0.07231882214546204, 0.05208420008420944, 0.5813621878623962, -0.06409884244203568, 0.04081280529499054, -0.17735949158668518], [-0.0013063466176390648, 0.026028137654066086, -0.26108112931251526, -0.0646970346570015, 0.10603301972150803, -0.01698395423591137, -0.08357993513345718, -0.12174206972122192, -0.3064453899860382, 0.06393219530582428, -0.18378208577632904, -0.04819982871413231, -0.20045919716358185, 0.021049996837973595, 0.15753763914108276, -0.2843940854072571, 0.33030328154563904, 0.2365994155406952, -0.03713681548833847, -0.042643822729587555, -0.2297023981809616, -0.020479505881667137, 0.15752801299095154, -0.01599201001226902, -0.13602150976657867, -0.020174652338027954, -0.34617549180984497, 0.0033582975156605244, 0.1323329210281372, -0.004504665266722441, 0.38450363278388977, 0.2627141773700714, -0.15792864561080933, 0.026827121153473854, -0.08982042223215103, -0.34273290634155273, -0.04358653724193573, 0.1828213632106781, 0.1777946949005127, 0.2640754282474518, 0.007420076057314873, -0.28998497128486633, -0.1263919323682785, 0.5046988129615784, 0.06225646287202835, -0.21552319824695587, 0.5341922044754028, -0.07786663621664047, -0.21948088705539703, -0.020103899762034416, -0.060852549970149994, -0.041164275258779526, -0.1211165338754654, 0.1446748971939087, 0.0876777172088623, -0.011202645488083363, -0.261173278093338, 0.08206157386302948, 0.17242811620235443, 0.13425515592098236, 0.05508428066968918, -0.005037133116275072, -0.07817838340997696, -0.1397084891796112], [0.0035139729734510183, 0.23691478371620178, -0.015930524095892906, 0.0206716638058424, 0.14549069106578827, 0.06459425389766693, -0.059978876262903214, -0.21981261670589447, -0.15180204808712006, 0.04038427025079727, 0.0901033952832222, 0.13554657995700836, -0.09025318920612335, 0.15627358853816986, 0.019000085070729256, -0.07926007360219955, -0.1334669589996338, -0.041132986545562744, 0.09470019489526749, 0.09267986565828323, -0.07207240164279938, -0.005440757144242525, 0.053488168865442276, 0.05983787402510643, -0.2947515547275543, 0.013487976044416428, -0.1349984109401703, -0.13184228539466858, 0.12579979002475739, 0.054459236562252045, 0.06830698251724243, 0.20087245106697083, -0.09140467643737793, -0.0018066653283312917, -0.04840300232172012, -0.05665078014135361, -0.13923683762550354, 0.03451459854841232, 0.007201867178082466, -0.004843347705900669, 0.008018593303859234, 0.0869823768734932, 0.057389527559280396, 0.11220233887434006, -0.2749362289905548, -0.0592905655503273, -0.03198178857564926, -0.07652000337839127, -0.1704801768064499, 0.09046638756990433, -0.05274100974202156, 0.07406546920537949, 0.10244791954755783, -0.09998342394828796, 0.11655230075120926, -0.15056826174259186, 0.3117421865463257, 0.008237697184085846, -0.04031825438141823, 0.06043149158358574, 0.1049056127667427, 0.02392953634262085, 0.050852544605731964, 0.1475568264722824], [0.1123371347784996, 0.6292195916175842, -0.104166679084301, -0.11028807610273361, 0.45072612166404724, 0.2322191298007965, -0.13336442410945892, 0.03633252531290054, -0.40649011731147766, 0.06689366698265076, -1.240441083908081, -0.11596699804067612, -0.3369719386100769, -0.07497438788414001, 0.14274512231349945, 0.22495168447494507, 0.14483384788036346, 1.949216604232788, -0.04823547229170799, 0.08137016743421555, -0.35192251205444336, -0.21670298278331757, 0.22832712531089783, -0.034995727241039276, 0.31802111864089966, 0.406492680311203, -0.519550085067749, -0.1195528507232666, -0.28797662258148193, -0.8872739672660828, 0.7374556064605713, -0.24479365348815918, -0.430111289024353, -0.0334424190223217, -0.1120055541396141, -0.2908479571342468, -0.18848463892936707, 0.17046292126178741, 0.11584313213825226, 0.02166137285530567, 0.18573077023029327, -0.3653441071510315, -0.18565523624420166, 0.09997227042913437, -0.6445164680480957, -0.19634976983070374, 0.058677803725004196, 0.46039310097694397, -0.8529123067855835, 0.18341068923473358, 0.6328309178352356, 0.016736170276999474, -0.08554893732070923, 0.3552643060684204, 0.5221753120422363, -0.2266218513250351, -0.1588059514760971, 0.12068036943674088, 0.41086921095848083, 0.06678783893585205, -2.3494231700897217, 0.07734762877225876, 0.05794711038470268, 0.25101733207702637], [0.06791693717241287, 1.039951205253601, -0.1843598484992981, -0.1299767643213272, 0.4069531261920929, 0.140603706240654, 0.04282746836543083, -0.08486095815896988, 0.11003239452838898, 0.10653019696474075, 0.2989155948162079, -0.07082325220108032, -0.1695774644613266, -0.2528184652328491, 0.07691572606563568, -0.4725850224494934, 0.5678830146789551, -1.1953208446502686, 0.0879388153553009, -0.11775483936071396, 0.02865096926689148, -0.09408943355083466, -0.04864329472184181, 0.05912385508418083, -0.6939039826393127, -0.33138176798820496, -0.4589545726776123, 0.014390145428478718, 0.9547814130783081, 0.0920097827911377, 0.05734792724251747, -0.013859318569302559, -0.27151191234588623, 0.04244248941540718, 0.08903666585683823, -0.15330971777439117, -0.05468736216425896, 0.053649481385946274, 0.03447265177965164, 0.7099851369857788, 0.018833428621292114, 0.06273026764392853, -0.36139461398124695, 0.44631168246269226, -0.0984339714050293, -0.012050243094563484, -0.06546232104301453, -0.38460513949394226, 0.013925079256296158, 0.03545227274298668, -0.4047253727912903, -0.05438871681690216, -0.35516583919525146, -0.10223512351512909, 0.033285342156887054, 0.00971097033470869, 0.03306783735752106, 0.04473510757088661, -0.1244160532951355, -0.007700469344854355, 0.9430853128433228, -0.42180135846138, -0.05330934002995491, -0.5362719297409058], [0.3109849989414215, -0.30971381068229675, 0.2609204351902008, -0.07726863771677017, 0.10791300237178802, 0.28885504603385925, -0.5370813012123108, 0.20141620934009552, 0.038051314651966095, -0.25377947092056274, -0.03195828199386597, -0.41244742274284363, -0.41604894399642944, 0.43318939208984375, 0.305279403924942, -0.18210387229919434, 0.05581970885396004, 0.19288428127765656, -0.5466163754463196, 0.5964073538780212, -0.18373164534568787, 0.409872442483902, 0.051250338554382324, 0.20750868320465088, 0.08925553411245346, -0.07173381745815277, -0.25025588274002075, 0.13312922418117523, -0.0986008271574974, -0.5728814005851746, 0.03954068571329117, 0.5306959748268127, -0.333309143781662, -0.098710797727108, 0.19839511811733246, -0.26049745082855225, -0.4047226011753082, -0.13932031393051147, 0.31996944546699524, -0.035887304693460464, -0.06082293018698692, 0.13391104340553284, -0.31959468126296997, -0.5661702752113342, -0.43803006410598755, -0.39433225989341736, 0.6876283884048462, 0.09968066960573196, -0.5141924619674683, 1.457040786743164, 0.3307827413082123, 0.3176863491535187, -0.12014041095972061, -0.023910094052553177, 0.22071637213230133, -0.6908828020095825, -0.5402329564094543, 0.7435082197189331, 0.3469477593898773, 0.03744655102491379, -0.24951371550559998, 0.22567878663539886, 0.6176977157592773, 0.40000614523887634], [0.1328570693731308, -0.17145022749900818, 0.013002905994653702, 0.08770366758108139, -0.05030674859881401, 0.06580120325088501, -0.17181828618049622, -0.2609056830406189, -0.1893748641014099, 0.16546335816383362, 0.26998618245124817, -0.0241352841258049, 0.0568944551050663, -0.28223761916160583, 0.0047270869836211205, -0.2963377833366394, -0.2955780625343323, -0.10221154242753983, 0.49495208263397217, 0.1440364271402359, 0.14469781517982483, -0.1469402313232422, 0.09236475825309753, -0.0166679248213768, 0.09425139427185059, -0.04152260720729828, 0.6062144041061401, -0.11387407779693604, 1.501223087310791, 0.290171355009079, -0.7186806797981262, -0.2581368088722229, -0.003617553971707821, -0.057372406125068665, -0.1254405379295349, 0.1029425635933876, 0.3142363131046295, -0.041023753583431244, 0.012933448888361454, -0.2680818438529968, -0.03325435891747475, 0.31619271636009216, 0.3254401683807373, 0.2434217631816864, 0.13703633844852448, -0.07082154601812363, 0.24122381210327148, 0.4760013222694397, 0.8468523621559143, -0.2698482573032379, 0.2996072769165039, 0.49279528856277466, 0.32301679253578186, -0.23278601467609406, -0.34319087862968445, 0.10194730758666992, 0.40708857774734497, 0.22545897960662842, -0.022077301517128944, 0.031198982149362564, 0.4849192500114441, 0.04953105002641678, 0.20602844655513763, 0.05949030816555023], [-0.3306334614753723, 0.21025493741035461, -0.24471211433410645, 0.19409725069999695, 0.9522035121917725, -0.11384814232587814, -0.013759144581854343, -0.3816153407096863, -0.015984075143933296, -0.49963539838790894, -0.5722484588623047, 0.48523837327957153, -0.3734183609485626, 0.33485713601112366, -0.12357756495475769, -0.2954666018486023, 0.08546531945466995, 1.1297990083694458, 1.0494080781936646, 0.3724111318588257, -0.37156128883361816, 0.11976715922355652, -0.24645064771175385, -0.18677085638046265, -0.15527939796447754, 0.13358934223651886, 1.2431694269180298, -0.2870701253414154, -0.7723956108093262, -0.3994760513305664, 1.0066784620285034, 1.0787694454193115, -0.2013261914253235, 0.10653255879878998, -0.005686234217137098, -0.2004355490207672, 0.35158005356788635, -0.0786663144826889, -0.0667840912938118, 0.4768480956554413, -0.03517850488424301, 0.28592637181282043, 0.2547176778316498, -0.03822905570268631, -0.39819246530532837, -0.03113253228366375, -0.2776833474636078, 0.42942267656326294, -3.5076100826263428, 0.05779411643743515, 0.45299872756004333, 0.190143883228302, 0.08979462832212448, 0.636933445930481, -0.8197641372680664, -0.17463500797748566, 0.8133974075317383, -0.3744247555732727, 0.009890802204608917, -0.005085202865302563, -1.003346562385559, 0.05139080062508583, -0.06483151763677597, -0.2290525585412979], [-0.10161512345075607, 0.30938977003097534, -0.046757955104112625, 0.2461317926645279, 0.002994961105287075, -0.026383882388472557, 0.18035291135311127, 0.05897217243909836, -0.09757617861032486, -0.10566521435976028, -0.015927091240882874, -0.008212246932089329, -0.19882141053676605, -0.23335933685302734, -0.12182363867759705, -0.1771090179681778, -0.0708141103386879, -0.025183195248246193, 0.11834871023893356, -0.18583641946315765, 0.03759995847940445, -0.23497766256332397, 0.02913929708302021, 0.05531639978289604, -0.250678688287735, 0.4851592779159546, 0.07314857840538025, -0.3884841799736023, -0.24837182462215424, 0.29203033447265625, 0.22529906034469604, -0.1631898730993271, 0.1527467519044876, 0.004691240377724171, 0.0447554774582386, 0.10715062916278839, 0.05470408499240875, 0.14776839315891266, -0.21384307742118835, 0.23172754049301147, -0.11485316604375839, 0.20745478570461273, 0.37333112955093384, 0.1317691057920456, 0.040835898369550705, 0.22258038818836212, -0.47574710845947266, 0.03684023767709732, -0.6317875385284424, -0.11520805954933167, -0.26032334566116333, -0.17116416990756989, 0.36844149231910706, -0.0003116709413006902, -0.14791283011436462, 0.17762088775634766, 0.339838445186615, -0.206888809800148, -0.035776395350694656, 0.06618046760559082, 0.4766646921634674, -0.2235419601202011, -0.07584215700626373, 0.17121832072734833], [-0.13366158306598663, 0.08427786827087402, 0.23970617353916168, -0.05097021162509918, -0.04854981601238251, -0.08602114766836166, 0.48788633942604065, -0.27856090664863586, -0.08891471475362778, 0.19631321728229523, 0.24513345956802368, 0.7611554861068726, -0.1433805525302887, -1.199312448501587, -0.35877466201782227, 0.555790364742279, 0.014114751480519772, 0.1942237913608551, -0.09339776635169983, -0.16565224528312683, 0.3131699562072754, -0.010523898527026176, -0.21222373843193054, 0.07055620104074478, -0.5435022115707397, -0.11623777449131012, 0.10503234714269638, 0.1582603007555008, -0.10645828396081924, -0.04403439536690712, -0.3792262375354767, 0.16955779492855072, 0.3528108596801758, -0.1159902960062027, -0.014020216651260853, 0.5799589157104492, -0.033170782029628754, -0.18418990075588226, -0.5742159485816956, 0.44337642192840576, 0.011337831616401672, 0.19245631992816925, 0.3276979625225067, -0.41157039999961853, 0.023718586191534996, 0.4929805397987366, -1.1037685871124268, 0.23105917870998383, 0.32346034049987793, -0.5715649127960205, 0.15130497515201569, 0.2827296555042267, -0.175805002450943, -0.06851281225681305, -0.03491748869419098, 0.3882259428501129, 0.20528551936149597, -0.5628743767738342, -0.11471863090991974, -0.006529838778078556, -0.14158594608306885, 0.015737496316432953, -0.44922441244125366, 0.3650204539299011], [0.18323935568332672, 0.4877152442932129, -0.16225187480449677, -0.035718828439712524, 0.569969654083252, -0.04630158469080925, 0.08364907652139664, 0.3299342095851898, 0.14253585040569305, 0.4277655780315399, -0.09277728945016861, 0.22788114845752716, -0.19819775223731995, -0.3440404534339905, -0.11002635955810547, -0.1681523472070694, -0.04274217411875725, -0.12686540186405182, -0.37189775705337524, 0.026911068707704544, 0.25042882561683655, 0.10075356811285019, -0.12226372212171555, -0.07925157248973846, -0.061643268913030624, -0.23121464252471924, -0.11710654944181442, 0.00020840842626057565, -0.15694288909435272, 0.2926120162010193, -0.4023793041706085, -0.0387028306722641, 0.1584436446428299, -0.25635144114494324, 0.1226363256573677, 0.3010440766811371, 0.14852042496204376, -0.015215964056551456, -0.13601219654083252, 0.16863040626049042, -0.09012224525213242, 0.1539144217967987, -0.08236170560121536, 0.2273678034543991, 0.3653697967529297, 0.20152053236961365, -0.2728027403354645, 0.3459709882736206, 0.09634577482938766, -0.6687447428703308, -0.03681933507323265, 0.09225061535835266, -0.20612867176532745, -0.04182306304574013, 0.005159300286322832, 0.3891618251800537, 0.2738303542137146, 0.1618240773677826, -0.07417300343513489, -0.0797148048877716, 0.2225624918937683, -0.3178989589214325, -0.18775074183940887, 0.009514727629721165], [-0.05002329871058464, -0.043345723301172256, -0.030523743480443954, -0.09268420189619064, 0.2790674567222595, 0.17222200334072113, -0.13670951128005981, 0.17510201036930084, -0.07284723222255707, -0.3063419759273529, -0.1951887309551239, -0.11461108177900314, -0.11163374781608582, -0.058614760637283325, 0.15538328886032104, 0.24443522095680237, 0.18163426220417023, 0.1621321588754654, 0.15294389426708221, 0.09151757508516312, 0.009795846417546272, 0.12892058491706848, 0.12534181773662567, -0.004011688753962517, -0.14692425727844238, 0.2276049107313156, 0.6873478889465332, -0.38920003175735474, 0.03248722851276398, -0.04099222272634506, 0.004760905634611845, 0.06752774864435196, 0.11316882073879242, -0.025571497157216072, 0.03030252642929554, -0.17068763077259064, 0.10189374536275864, 0.0045782774686813354, 0.12150704115629196, -0.041782282292842865, -0.016511045396327972, 0.12849150598049164, 0.020005039870738983, -0.0020778230391442776, 0.15194804966449738, -0.11966269463300705, -0.021598663181066513, -0.19870229065418243, 0.17950597405433655, -0.25686246156692505, 0.02683420106768608, -0.1660129576921463, -0.14647294580936432, -0.07574514299631119, -0.10779257118701935, 0.05763852596282959, 0.0055969636887311935, 0.18426640331745148, 0.053063418716192245, 0.047920916229486465, 0.021255483850836754, -0.05812244117259979, -0.05587836354970932, 0.3363548517227173], [0.06733153015375137, -0.04403575882315636, -0.2722339928150177, -0.05184488743543625, 0.19722451269626617, 0.1249920055270195, -0.016605785116553307, 0.05387009307742119, 0.07763220369815826, -0.030201053246855736, 0.03484572842717171, -0.038486089557409286, -0.10988353937864304, 0.06172706186771393, 0.09008444100618362, 0.01896110735833645, 0.0006712957401759923, 0.029279621317982674, 0.01618371158838272, 0.039418790489435196, -0.05349624529480934, -0.13661156594753265, -0.03406338766217232, -0.008139233104884624, -0.02258225716650486, -0.004745237063616514, -0.10026168823242188, 0.1379387080669403, 0.2695649266242981, -0.019638027995824814, -0.14104123413562775, 0.11347267776727676, -0.03126998618245125, 0.04687979072332382, -0.012664858251810074, -0.10140389949083328, 0.022287556901574135, -0.11394710838794708, 0.0923280268907547, 0.030428947880864143, -0.006795222405344248, 0.025976642966270447, 0.011908764950931072, 0.32724523544311523, -0.08171632140874863, -0.06419232487678528, 0.08713280409574509, -0.0843711867928505, -0.030325472354888916, 0.015871942043304443, 0.10169773548841476, -0.0827159658074379, 0.04087768867611885, 0.01372026652097702, -0.07198045402765274, -0.020218830555677414, -0.13414481282234192, 0.13412970304489136, 0.025617552921175957, 0.017627565190196037, 0.07090587168931961, 0.03786349669098854, 0.0013330092187970877, -0.06539080291986465], [-0.040671177208423615, 0.18590453267097473, 0.009710844606161118, -0.02744768001139164, 0.10742723196744919, -0.03163651376962662, -0.08459741622209549, -0.2802285850048065, -0.20390194654464722, 0.12788879871368408, -0.06581898033618927, 0.010255783796310425, -0.15129528939723969, 0.059393323957920074, 0.0485495887696743, -0.1074829250574112, -0.15767845511436462, 0.17877069115638733, 0.2038506269454956, 0.13870291411876678, 0.01436465885490179, -0.15133550763130188, 0.18184694647789001, 0.10223749279975891, -0.1318194419145584, 0.0420568585395813, -0.052640073001384735, -0.05712028965353966, 0.06373777985572815, 0.16415683925151825, -0.09520504623651505, -0.1014443039894104, -0.05092285946011543, 0.03744368627667427, -0.23741640150547028, -0.08214515447616577, -0.15103814005851746, 0.0794365331530571, 0.1648668497800827, -0.13862495124340057, 0.09365101903676987, -0.007825015112757683, 0.06391583383083344, 0.0824352353811264, -0.2778843641281128, -0.030022038146853447, 0.2196565717458725, 0.2068721354007721, 0.17503045499324799, 0.2259693592786789, -0.059529710561037064, -0.032904066145420074, -0.11260296404361725, -0.034880392253398895, 0.10061879456043243, -0.09365168958902359, -0.12107618898153305, 0.029558680951595306, 0.09047171473503113, 0.10719646513462067, 0.1323920339345932, 0.032020844519138336, 0.04563172906637192, 0.03314453735947609], [0.05922599136829376, 0.003270064014941454, 0.11987496167421341, 0.12180433422327042, 0.02588207647204399, 0.08117364346981049, -0.10368344932794571, 0.040599577128887177, 0.029345614835619926, 0.21614918112754822, 0.13612446188926697, 0.2516932785511017, -0.08467768132686615, -0.12397099286317825, 0.033557187765836716, 0.16781628131866455, 0.03857582435011864, 0.03802291676402092, -0.049202773720026016, 0.133687362074852, 0.1205211728811264, 0.04404201731085777, 0.011555762030184269, -0.007934873923659325, -0.07017058879137039, 0.04204932600259781, 0.2873564660549164, -0.05822356045246124, -0.05966438353061676, 0.14938656985759735, -0.23133224248886108, 0.18485556542873383, 0.010943070985376835, -0.06659339368343353, -0.08644570410251617, -0.047415658831596375, 0.03871116787195206, -0.12734049558639526, 0.03493229299783707, 0.08473917096853256, -0.023087600246071815, 0.36735281348228455, -0.015327668748795986, -0.14105698466300964, -0.06731770187616348, -0.047430332750082016, -0.11408314108848572, 0.1489720344543457, -0.08101656287908554, -0.06889703869819641, -0.1115339919924736, 0.09686253219842911, -0.1239616870880127, -0.23172537982463837, -0.19784203171730042, 0.015501734800636768, 0.28241440653800964, 0.14018918573856354, -0.12989774346351624, 0.01314566284418106, -0.06542790681123734, -0.08318281173706055, -0.04649673029780388, 0.2398802936077118], [0.0895392969250679, 0.2344454973936081, -0.1801712065935135, -0.09109259396791458, -0.05254213139414787, 0.03499133884906769, -0.0644131749868393, 0.21772386133670807, -0.04802539944648743, 0.0645158439874649, -0.1819307953119278, 0.025056609883904457, -0.2758766710758209, 0.12759913504123688, 0.012884733267128468, -0.12426550686359406, -0.021766919642686844, 0.31088390946388245, 0.3081169128417969, 0.0856986790895462, -0.23295913636684418, -0.11778520047664642, -0.0359719917178154, 0.0379159152507782, -0.16747593879699707, -0.003404799848794937, -0.6076189279556274, 0.03413233533501625, 0.26307427883148193, -0.000910758157260716, 0.04282462224364281, 0.44446057081222534, -0.22951817512512207, 0.018545065075159073, 0.08486045897006989, -0.1470603495836258, 0.03468398004770279, 0.01983896642923355, -0.010976056568324566, 0.09464489668607712, -0.02314714714884758, 0.2666144371032715, 0.09346016496419907, 0.33620256185531616, -0.428072065114975, -0.12854832410812378, 0.12130782008171082, 0.2247489094734192, -0.17851024866104126, 0.2717714309692383, 0.2927168607711792, 0.12727266550064087, 0.04903305321931839, 0.005777238868176937, -0.2093576043844223, -0.2710343301296234, 0.13492417335510254, -0.07566627860069275, -0.007195643149316311, -0.02924816869199276, -0.06399832665920258, 0.05716453865170479, 0.15482725203037262, 0.16522671282291412], [-0.12840551137924194, 0.055818043649196625, 0.04709740728139877, 0.028498321771621704, 0.33779528737068176, 0.08760657161474228, -0.07445003092288971, -0.23003298044204712, -0.06523913145065308, 0.43008559942245483, -0.02233973890542984, -0.13195233047008514, 0.04126682132482529, 0.06337250769138336, 0.10381374508142471, 0.12184878438711166, 0.03524497151374817, 0.19473227858543396, 0.01337619312107563, 0.12273125350475311, -0.04314401373267174, 0.062321193516254425, 0.19222024083137512, -0.019970910623669624, 0.058231908828020096, -0.04429725185036659, 0.17149658501148224, -0.044648658484220505, 0.11956929415464401, 0.15057691931724548, -0.07825581729412079, -0.051685791462659836, -0.14529159665107727, 0.018405258655548096, -0.09825452417135239, -0.08051927387714386, 0.014328792691230774, -0.08605130761861801, 0.0987255647778511, 0.10667148977518082, -0.025753168389201164, -0.1565806120634079, -0.0525539368391037, -0.009393483400344849, -0.16030994057655334, -0.16231365501880646, 0.12002187967300415, 0.06499243527650833, 0.3247489929199219, 0.33656635880470276, -0.12480103224515915, 0.09509769082069397, -0.016729040071368217, 0.042768072336912155, -0.003937453031539917, -0.14245161414146423, -0.30034559965133667, 0.03059176355600357, 0.03966471925377846, 0.017748316749930382, -0.009821631945669651, 0.049516018480062485, 0.05411345511674881, 0.1838919222354889], [0.07913260161876678, 0.17184019088745117, -0.05378815904259682, 0.0618615485727787, 0.0063440026715397835, 0.1736423373222351, -0.1479959934949875, 0.35976117849349976, -0.04358949884772301, 0.050759878009557724, 0.07379952818155289, 0.13457611203193665, -0.16606660187244415, -0.2733588218688965, 0.13661716878414154, -0.015041349455714226, 0.07938838005065918, 0.07968547195196152, 0.0858408659696579, 0.05420835316181183, -0.12374871969223022, -0.14304225146770477, 0.01207119133323431, -0.0536818765103817, 0.18279770016670227, -0.010740566998720169, -0.4588252007961273, 0.25660231709480286, 0.24343004822731018, 0.01418113149702549, -0.25204071402549744, 0.2591189444065094, -0.17040301859378815, -0.007692859508097172, 0.002420483622699976, -0.1061846911907196, -0.012348199263215065, -0.062328699976205826, 0.1435132622718811, 0.06788026541471481, -0.06322464346885681, 0.240415558218956, 0.11567439138889313, 0.06936974823474884, -0.15984033048152924, -0.14467935264110565, -0.07168863713741302, 0.023975055664777756, -0.19579409062862396, -0.10779652744531631, 0.11628416180610657, 0.07672463357448578, 0.025551915168762207, -0.10618901252746582, -0.11823268979787827, -0.07708568125963211, 0.1615017056465149, 0.12135890126228333, -0.042595040053129196, -0.055647775530815125, 0.052197374403476715, -0.00768223637714982, 0.010922708548605442, 0.24365422129631042], [0.07027202099561691, 0.3473447859287262, -0.0724102258682251, -0.09989383816719055, 0.7118597030639648, -0.05285033956170082, 0.1860220581293106, 0.3444525897502899, -0.10912490636110306, -0.05783767253160477, 0.4655900299549103, 0.0661647766828537, -0.3178653120994568, -0.47864511609077454, -0.0094833355396986, -0.18683961033821106, 0.09881065785884857, -0.8566579222679138, -0.18438388407230377, -0.16948570311069489, -0.11452560871839523, -0.9133017063140869, -0.12808138132095337, 0.03881679102778435, -0.48290783166885376, 0.4219331741333008, -0.6975054740905762, 0.47209465503692627, -0.7015037536621094, -0.030580585822463036, -0.04605568200349808, 0.823549211025238, -0.1584463268518448, 0.14361301064491272, 0.027332331985235214, -0.17623823881149292, 0.02318601682782173, 0.022967837750911713, -0.10887191444635391, 0.3447577953338623, 0.006546454969793558, -0.17383119463920593, 0.020135562866926193, 0.08109068125486374, -0.030356772243976593, 0.07796196639537811, 0.4691546559333801, -0.01274193450808525, 0.25416022539138794, -0.34926745295524597, -0.8536201119422913, -0.017085783183574677, 0.1597563773393631, 0.10121765732765198, -0.17270684242248535, 0.25099897384643555, 0.11745776981115341, 0.16890931129455566, -0.050202831625938416, -0.03983868658542633, 0.7629793882369995, -0.2387269288301468, -0.14776082336902618, -0.06508605927228928], [0.003452104050666094, 0.08067872375249863, -0.04471822828054428, 0.018900983035564423, 0.10990967601537704, 0.07962202280759811, -0.026257958263158798, -0.13039687275886536, -0.16144120693206787, 0.08722708374261856, -0.03997346758842468, -0.2561751902103424, -0.16746634244918823, 0.07077695429325104, 0.09943736344575882, -0.09345735609531403, -0.06672439724206924, 0.03512050583958626, 0.14990508556365967, 0.12440516799688339, -0.04800613597035408, -0.08795701712369919, 0.11346026510000229, 0.06055503338575363, -0.12193512916564941, 0.1715480238199234, 0.05712771415710449, 0.03576043248176575, -0.003790652845054865, 0.13977478444576263, 0.024592731148004532, 0.041401881724596024, -0.07176346331834793, 0.04817569628357887, -0.10852523893117905, -0.1393965482711792, -0.055782023817300797, 0.06754554063081741, 0.08662039041519165, -0.042604438960552216, 0.04534061998128891, -0.014160824008286, 0.05894085764884949, 0.242601677775383, -0.2580146789550781, -0.0762133076786995, 0.12538447976112366, 0.07053670287132263, 0.0012145325308665633, 0.17047081887722015, 0.04423458129167557, -0.07205809652805328, -0.026245227083563805, -0.0611293651163578, 0.13605625927448273, -0.08617750555276871, -0.2272469848394394, 0.03359753265976906, 0.05841551721096039, 0.06411538273096085, 0.11544663459062576, 0.03706040233373642, 0.012664951384067535, 0.05938739329576492], [-0.0016043364303186536, 0.04334469884634018, -0.13775426149368286, -0.03191255033016205, -0.028250861912965775, -0.022421618923544884, -0.11345065385103226, 0.4134579002857208, -0.1700884848833084, 0.06611260026693344, -0.09897803515195847, 0.03929140418767929, -0.07557854801416397, 0.09191861003637314, 0.06786424666643143, -0.33287912607192993, 0.3735545575618744, 0.27060532569885254, -0.14794667065143585, 0.04416701942682266, -0.2645968794822693, 0.14005601406097412, 0.09134326875209808, -0.062062423676252365, -0.1826753318309784, -0.14885206520557404, -0.7825783491134644, 0.25137731432914734, -0.1768447607755661, 0.17186018824577332, 0.3301509916782379, -0.2134614884853363, -0.27469968795776367, 0.12190122902393341, -0.10515881329774857, -0.23617836833000183, 0.1015547439455986, 0.18599870800971985, 0.10094675421714783, -0.05644190311431885, 0.019703717902302742, 0.06811615824699402, -0.15669980645179749, 0.29608386754989624, -0.25896719098091125, -0.1023440957069397, 0.009981459006667137, 0.6185441613197327, -0.06760303676128387, 0.17267295718193054, 0.18101289868354797, -0.08251629024744034, 0.0016869970131665468, 0.1076451987028122, -0.1119006872177124, -0.17977964878082275, 0.009318297728896141, -0.029515612870454788, 0.04208020493388176, 0.07666614651679993, 0.062373481690883636, 0.006857335101813078, -0.005183662287890911, -0.10655539482831955], [-0.08138381689786911, 0.05273151025176048, -0.12663082778453827, 0.061906494200229645, 0.16342128813266754, 0.0069550927728414536, -0.06312970817089081, -0.22473633289337158, -0.08800715953111649, -0.1343703716993332, -0.1008811891078949, 0.1796588897705078, -0.013903527520596981, 0.22766508162021637, 0.07949739694595337, -0.842367947101593, -0.00704304501414299, 0.15456032752990723, -0.5438875555992126, 0.17219819128513336, -0.0800362229347229, 0.023259783163666725, 0.10329490154981613, -0.0512242466211319, -0.23920795321464539, 0.03252381086349487, -0.873637318611145, -0.03151421248912811, -0.7364373207092285, 0.12250187993049622, 0.679847776889801, 0.5330787897109985, -0.1496240496635437, 0.0389406681060791, -0.0749250128865242, -0.20168688893318176, 0.1627461463212967, 0.09033632278442383, 0.11276718974113464, 0.10220769047737122, -0.014050736092031002, 0.3298373818397522, -0.2236059308052063, 0.07881369441747665, 0.12737353146076202, -0.16537664830684662, -0.16594819724559784, -0.4411015808582306, -0.24308104813098907, -0.06774402409791946, -0.33140474557876587, 0.2507267892360687, 0.12265758961439133, 0.38872799277305603, -0.05474739521741867, 0.02687459997832775, 0.08776149898767471, 0.33523863554000854, -0.0234703179448843, 0.01098941732198, -0.13526630401611328, 0.04533036798238754, 0.001821674988605082, -0.17719875276088715], [0.0963750034570694, -0.23002322018146515, 0.0030828306917101145, -0.04877862334251404, 0.13169898092746735, 0.05691221356391907, 0.11773636937141418, 0.4139372408390045, 0.2868620455265045, 0.11376547068357468, -0.19363272190093994, -0.25059208273887634, 0.10607754439115524, -0.33538609743118286, 0.004761414602398872, 0.098442941904068, 0.4639509618282318, -0.06855412572622299, 0.2992348074913025, 0.03590795025229454, -0.19650623202323914, -0.20108582079410553, -0.397804319858551, -0.17459739744663239, 0.29416149854660034, 0.352377325296402, 0.06042907387018204, -0.251149445772171, 0.15105478465557098, -0.08686085045337677, 0.16833049058914185, -0.1888945996761322, 0.2224646359682083, -0.006976062897592783, -0.06002289429306984, -0.03013329766690731, -0.03106892667710781, 0.022285720333456993, -0.0449640192091465, 0.1055900901556015, -0.08867818862199783, -0.05570068955421448, 0.3921384811401367, -0.0007370752864517272, 0.03275628760457039, 0.017931655049324036, -0.09732981771230698, 0.02938571758568287, -0.02701409161090851, 0.011071255430579185, 0.21852828562259674, -0.17006850242614746, 0.21819449961185455, 0.10237474739551544, 0.13905777037143707, 0.09387314319610596, -0.1256973147392273, -0.10169260948896408, -0.041482310742139816, -0.12293965369462967, 0.02600998803973198, -0.0011049645254388452, -0.04446558281779289, 0.3389001190662384], [0.07364683598279953, -0.09191570430994034, 0.017562903463840485, 0.018628962337970734, 0.30286210775375366, 0.1139906570315361, -0.12561243772506714, -0.20668639242649078, 0.24782942235469818, -0.3130137324333191, 0.028001172468066216, -0.09741023182868958, -0.08968501538038254, 0.09638950973749161, 0.11596953868865967, 0.2643965184688568, 0.23116114735603333, 0.12685662508010864, -0.21508480608463287, 0.16001443564891815, -0.26767227053642273, 0.05160357430577278, -0.020803028717637062, 0.017207417637109756, 0.06456039845943451, -0.1746681183576584, 0.38880544900894165, 0.08416780084371567, 0.2094641476869583, -0.21901263296604156, 0.03916690871119499, 0.07235530763864517, -0.13909055292606354, 0.03596241772174835, -0.0648866519331932, -0.2589654326438904, 0.09754446148872375, 0.019326625391840935, 0.13494184613227844, 0.2685723304748535, 0.04269563779234886, -0.09017199277877808, -0.22587460279464722, -0.008882030844688416, 0.0006455200491473079, -0.1759958416223526, 0.12603510916233063, -0.1443345695734024, 0.21535776555538177, -0.16503222286701202, 0.13869604468345642, 0.09873095154762268, -0.2861904799938202, 0.05689918249845505, 0.0919124037027359, -0.07250887155532837, -0.14982329308986664, 0.21512259542942047, 0.09830065816640854, 0.020039044320583344, -0.22701102495193481, 0.06616625934839249, -0.008261534385383129, -0.064612478017807], [-0.03393923491239548, 0.23638534545898438, 0.10651761293411255, -0.00968492217361927, 0.07298243790864944, 0.06107402965426445, -0.09801078587770462, 0.13067199289798737, -0.11600058525800705, 0.12157473713159561, -0.020709417760372162, 0.13160765171051025, -0.06599435210227966, -0.2125750631093979, 0.07213286310434341, -0.24534043669700623, 0.06390590965747833, 0.18442189693450928, 0.17313198745250702, 0.094792939722538, 0.0009379490511491895, 0.1782989352941513, 0.04435954988002777, -0.030826851725578308, -0.05122877284884453, 0.11104173958301544, 0.15161995589733124, -0.17573225498199463, -0.08055262267589569, 0.03957655280828476, -0.0704222247004509, 0.23838427662849426, 0.02449365332722664, -0.06770018488168716, -0.05540522187948227, -0.05970536172389984, 0.05422527343034744, -0.015188844874501228, 0.07051537930965424, -0.07471320033073425, 0.09828951209783554, 0.24714295566082, 0.07167306542396545, -0.10684522986412048, -0.06023276224732399, -0.05247301608324051, -0.12966196238994598, 0.1672106236219406, -0.16706520318984985, -0.3375718593597412, -0.015342194586992264, -0.006418685428798199, -0.06608866155147552, -0.06919577717781067, -0.15351471304893494, 0.07439475506544113, 0.06029343977570534, 0.028568338602781296, -0.01769161783158779, 0.024408936500549316, -0.04058430716395378, -0.04888276010751724, -0.12006542086601257, 0.2131989300251007], [0.48237109184265137, 0.3844681978225708, -0.23773235082626343, -0.01504036970436573, -0.00888066366314888, -0.021577414125204086, 0.09217339009046555, 0.16057804226875305, -0.25603821873664856, -0.4838080108165741, 0.08261086046695709, 0.18070706725120544, -0.22006061673164368, -0.009487219154834747, 0.008300317451357841, -0.09916796535253525, 0.3714763820171356, -0.028123019263148308, -0.5556985139846802, 0.11547662317752838, -0.07063603401184082, -0.07138477265834808, -0.1514224261045456, -0.13417859375476837, -0.04787459224462509, 0.08919136226177216, -0.26605603098869324, 0.09524627774953842, 0.09925094246864319, -0.19914570450782776, 0.17373567819595337, 0.10930629819631577, 0.12579956650733948, 0.029289718717336655, -0.07187440246343613, -0.09120477735996246, 0.09770206362009048, 0.2323501855134964, -0.021360278129577637, 0.30083155632019043, 0.0022085714153945446, 0.005947527009993792, 0.29013070464134216, 0.2367585003376007, 0.13668806850910187, 0.02496437355875969, -0.32639002799987793, -0.1846488118171692, -0.22816656529903412, -0.8710510730743408, -0.07010187208652496, -0.5424661040306091, -0.052678294479846954, 0.0793989822268486, 0.017688743770122528, 0.1724894493818283, 0.045749347656965256, 0.027119871228933334, 0.039770398288965225, -0.037874821573495865, -0.02774842269718647, -0.3198758363723755, -0.3701513707637787, -0.2627076804637909], [0.06445503234863281, 0.1615615338087082, 0.23885925114154816, -0.08011676371097565, 0.6679325103759766, 0.2598779797554016, 0.20736482739448547, -0.061048004776239395, 0.2763938903808594, 0.238073468208313, 0.5570228695869446, 0.034721240401268005, -0.02281639724969864, -0.5573521256446838, 0.008469769731163979, 0.09821625053882599, 0.12106755375862122, -0.800766110420227, 0.668081521987915, -0.059632107615470886, 0.26780200004577637, -0.2563260793685913, -0.053830526769161224, 0.002591237425804138, 0.3026878237724304, -0.2275586724281311, 0.32301846146583557, -0.4582630693912506, 0.6037789583206177, 0.2536299526691437, -0.40684962272644043, -0.5048547387123108, 0.1984393447637558, -0.14129510521888733, 0.05262173339724541, 0.29627129435539246, -0.2197418063879013, -0.15933990478515625, -0.14263305068016052, 0.23247754573822021, -0.05373024195432663, 0.028304213657975197, 0.4643712043762207, -0.2913443148136139, 0.23000061511993408, 0.30326178669929504, -0.6007899045944214, -0.14132337272167206, 0.4427088797092438, -0.384382039308548, 0.09410479664802551, 0.07881714403629303, -0.08650528639554977, 0.041383299976587296, 0.2310391366481781, 0.33349642157554626, -0.3332880139350891, -0.07258778065443039, 0.09924272447824478, -0.08860993385314941, 0.44012030959129333, -0.03146422281861305, -0.1474805474281311, 0.7069980502128601], [-0.0006359897088259459, -0.36623337864875793, 1.6124166250228882, 0.0014663125621154904, 0.09823685139417648, -0.3329893946647644, 0.5255059599876404, 0.16470114886760712, -0.5349050760269165, 0.1338513344526291, 0.16582997143268585, 0.37118422985076904, 0.12860679626464844, -0.4949674904346466, -0.4214476943016052, 0.40191569924354553, -0.20528429746627808, -0.29076001048088074, 0.3884158432483673, -0.2045098841190338, 0.7105274200439453, 2.1717119216918945, -0.25690752267837524, -0.13383153080940247, 0.3585032522678375, -0.06242038682103157, -0.586925745010376, -0.5680233836174011, 1.196921706199646, -0.07296827435493469, -0.043921906501054764, 0.520103394985199, 0.33889901638031006, -0.2987891733646393, -0.1569870561361313, 0.5170027017593384, 0.13935443758964539, -0.042331695556640625, -0.5315542221069336, -0.15175703167915344, -0.10447975248098373, 0.29714667797088623, -0.35379207134246826, -1.8506982326507568, 0.3658381998538971, 0.5201958417892456, -1.6259610652923584, -0.25818687677383423, -1.1888786554336548, -0.885019838809967, -0.198122039437294, -0.08278351277112961, -0.054375018924474716, 0.26871564984321594, 0.0019144245889037848, 0.5771336555480957, -0.0012099227169528604, 1.5291938781738281, -0.16942954063415527, 0.13731731474399567, -0.5341929197311401, -0.20661716163158417, -0.4559542238712311, 1.485186219215393], [-0.08441470563411713, -0.05492323264479637, 0.23789319396018982, -0.14877817034721375, 0.34413599967956543, 0.00214596651494503, -0.13287505507469177, 0.19006171822547913, 0.22325973212718964, 0.0747598186135292, -0.01878906786441803, -0.16600602865219116, -0.1713685542345047, 0.3675467371940613, 0.005165809765458107, -0.47086653113365173, 0.05133870244026184, -0.22655285894870758, 0.21532337367534637, 0.03818860277533531, -0.012846027500927448, 0.33105775713920593, 0.11935054510831833, -0.18556375801563263, -0.03469112142920494, -0.046569496393203735, -0.4569288194179535, 0.08801240473985672, -0.6229350566864014, -0.09659931063652039, 0.653782069683075, 0.48437103629112244, -0.09824158996343613, 0.026835624128580093, 0.055892251431941986, -0.05046224966645241, 0.04592743515968323, 0.05132855102419853, 0.03777455911040306, 0.1405087411403656, 0.021983357146382332, 0.06760774552822113, -0.29470503330230713, -0.1771889328956604, -0.19980013370513916, -0.10909005254507065, -0.19027793407440186, 0.0627136379480362, -0.7852876782417297, -0.7747138738632202, 0.15531842410564423, 0.21745529770851135, -0.16502073407173157, 0.003964634146541357, -0.03947547823190689, -0.13066484034061432, 0.04791082441806793, -0.15357722342014313, 0.0810164362192154, 0.12424684315919876, 0.060072530061006546, 0.0725499764084816, 0.1229381412267685, 0.04445153847336769], [0.29456841945648193, 0.7207129597663879, -0.012344188056886196, -0.1808658093214035, 0.018719183281064034, 0.06610636413097382, -0.14355270564556122, 0.3367919325828552, -0.0044693113304674625, -0.1568707972764969, -0.0506829172372818, -0.038271769881248474, -0.31070733070373535, -0.02765083685517311, 0.09513898193836212, 0.19387824833393097, 1.0131512880325317, 0.3691807687282562, 0.9838991761207581, 0.2175556719303131, -0.37755510210990906, -0.5644124150276184, 0.22036680579185486, 0.04904930293560028, 0.5348224639892578, -0.1602994054555893, 0.3609920144081116, -1.4497379064559937, 0.19960060715675354, 0.4354720115661621, 0.22070807218551636, 0.06444147229194641, 0.3933078646659851, 0.0014251049142330885, -0.01124673429876566, -0.1637556403875351, 0.07053875923156738, 0.13816434144973755, 0.19741752743721008, -0.02898244932293892, 0.04428961127996445, -0.09706435352563858, 1.0652925968170166, -0.051373884081840515, 0.15136638283729553, -0.09980083256959915, -0.033636424690485, -0.5164875984191895, -0.12759870290756226, 0.033247169107198715, -0.45888862013816833, -0.38134104013442993, -0.2108437567949295, -0.11559409648180008, -0.3251942992210388, 0.003339294344186783, 0.45630303025245667, 0.08154935389757156, 0.0828651487827301, 0.04278656840324402, 0.38079145550727844, 0.015384218655526638, -0.017352957278490067, 1.4100358486175537], [-0.24892081320285797, 0.18144427239894867, 0.1500788778066635, -0.14308211207389832, 0.35788875818252563, -0.050660960376262665, 0.11851201951503754, -0.06426814943552017, -0.22306032478809357, 0.3894485533237457, -0.46259358525276184, -0.019577262923121452, 0.17315426468849182, -0.4810073971748352, 0.028581855818629265, 0.07122638821601868, 0.002056822879239917, 0.26031607389450073, 0.2123749554157257, -0.1434655636548996, 0.1828484684228897, 0.04051120951771736, 0.10549532622098923, 0.048688340932130814, -0.07414396107196808, 0.0988728329539299, -0.35207146406173706, 0.22374917566776276, -0.2221333235502243, 0.34451213479042053, 0.13220955431461334, -0.184750035405159, -0.15345734357833862, -0.0554877333343029, -0.09731830656528473, 0.07051923125982285, -0.16479310393333435, 0.07428782433271408, 0.012203946709632874, 0.041379086673259735, 0.14340895414352417, -0.24309910833835602, -0.010322416201233864, -0.11409197002649307, -0.22673386335372925, 0.12952746450901031, -0.1699814796447754, 0.486433744430542, 0.007413962390273809, -0.15033027529716492, -0.04023147374391556, 0.0938965454697609, -0.06599161028862, 0.19158895313739777, 0.22045426070690155, 0.15739743411540985, -0.20264075696468353, -0.1089046373963356, -0.013967766426503658, 0.10472112894058228, -0.3774345815181732, 0.02413136512041092, -0.18739452958106995, 0.43697333335876465], [-0.1154712438583374, 0.3082330524921417, -0.2697089612483978, 0.009636581875383854, -0.17572712898254395, 0.21121865510940552, -0.20857486128807068, -0.01621272601187229, -0.22442246973514557, 0.2537694573402405, -0.1296481043100357, -0.25774431228637695, -0.2489997148513794, 0.39757040143013, 0.28100019693374634, -0.440772145986557, -0.02746361866593361, -0.07910202443599701, -0.26420408487319946, 0.0352863185107708, -0.023795541375875473, 0.10756796598434448, 0.010774989612400532, 0.049576424062252045, -0.676052451133728, -0.184611976146698, 0.016891231760382652, -0.04023049771785736, 0.4593859016895294, -0.10906843096017838, 0.3384036719799042, 0.04155246168375015, -0.3829844892024994, 0.0957941859960556, -0.03448264300823212, -0.2598520815372467, -0.1486242115497589, 0.002942847553640604, 0.3943916857242584, 0.27382367849349976, 0.03504052385687828, -0.07918372750282288, -0.7174703478813171, 0.45382559299468994, 0.03856829181313515, -0.2521471679210663, 0.06134888529777527, 0.07513036578893661, -0.1871335208415985, 0.30743855237960815, -0.28881412744522095, 0.05381680279970169, -0.22751440107822418, 0.02723727747797966, 0.12431331723928452, -0.18283015489578247, -0.4302811622619629, 0.24340394139289856, 0.16704078018665314, 0.013042951002717018, -0.39533311128616333, 0.014756297692656517, 0.17711196839809418, -0.46809712052345276], [0.04666784033179283, -0.2775813341140747, -0.11887636035680771, 0.023092124611139297, -0.09870556741952896, 0.014115476980805397, 0.1021762415766716, 0.2912841737270355, -0.22761297225952148, 0.09242819994688034, -0.16651080548763275, -0.06480942666530609, -0.07766702026128769, -0.26226386427879333, 0.008366506546735764, 0.09744355082511902, 0.03878467530012131, 0.10795561224222183, -0.44067853689193726, -0.043475572019815445, 0.024962903931736946, -0.06841669231653214, -0.0017212325474247336, -0.05875682458281517, -0.21805058419704437, 0.10606756061315536, 0.29804447293281555, -0.20495958626270294, -0.27724912762641907, 0.06331443041563034, -0.028108999133110046, 0.1473781317472458, 0.3422369360923767, -0.08368556201457977, 0.02285873144865036, -0.009061306715011597, -0.01233693491667509, 0.10361920297145844, -0.04858798161149025, 0.10755553841590881, -0.047499462962150574, -0.05047699809074402, 0.04832163080573082, 0.19217880070209503, 0.22685734927654266, 0.15027596056461334, -0.011639495380222797, 0.10664023458957672, 0.19551874697208405, -0.13628354668617249, 0.3183131515979767, -0.05655409395694733, -0.04553103446960449, -0.021781092509627342, 0.005449650343507528, 0.11978595703840256, -0.11372246593236923, -0.14089076220989227, 0.08608239144086838, -0.0385134182870388, 0.535926103591919, 0.07577722519636154, -0.1517554372549057, -0.11224640160799026], [-0.01579156704246998, -0.040718402713537216, -0.12457282096147537, -0.13503701984882355, 0.07290448993444443, 0.05159015581011772, -0.117463618516922, 0.19621549546718597, -0.01861584186553955, 0.02516908571124077, -0.11553697288036346, 0.13680636882781982, -0.04456324502825737, -0.09988751262426376, 0.021286431699991226, -0.213761106133461, -0.11578985303640366, -0.04408913478255272, 0.4264891445636749, 0.09002067148685455, -0.0825292095541954, -0.02609432488679886, 0.010256893932819366, -0.06311864405870438, -0.04775461181998253, -0.09099794179201126, -0.7295827865600586, -0.037581685930490494, 0.1569034606218338, -0.013484419323503971, -0.20285242795944214, 0.017974823713302612, -0.42493170499801636, 0.02825194038450718, 0.06102258712053299, -0.07684718817472458, 0.06680022925138474, -0.007350628264248371, 0.01494344137609005, -0.08904117345809937, 0.011024468578398228, 0.1160409152507782, 0.08534731715917587, 0.19376854598522186, -0.4794422388076782, -0.18233951926231384, 0.27241817116737366, 0.40821391344070435, -0.01683456264436245, 0.30623966455459595, 0.4117993712425232, 0.39803409576416016, -0.0712619200348854, 0.055806342512369156, 0.041789740324020386, -0.3201049864292145, 0.15066944062709808, 0.04973078891634941, -0.08090594410896301, -0.03626737743616104, -0.328634649515152, 0.033279143273830414, 0.21795599162578583, 0.12230375409126282], [0.07875190675258636, -0.013088067062199116, 0.18699108064174652, 0.019131220877170563, 0.2218816578388214, 0.06365375965833664, -0.05705656111240387, 0.2350883036851883, -0.016285745427012444, -0.22773420810699463, -0.1351519376039505, -0.07698119431734085, -0.0014152834191918373, -0.03276028856635094, 0.08277013152837753, 0.15978562831878662, 0.22713081538677216, 0.02253258228302002, -0.11189490556716919, 0.02909652143716812, -0.13471302390098572, 0.20656122267246246, 0.05778126418590546, -0.0448598749935627, 0.13102155923843384, -0.19141077995300293, 0.26247623562812805, -0.01947849802672863, 0.20171892642974854, -0.243638813495636, 0.03745079040527344, 0.018331779167056084, -0.032805003225803375, -0.10713495314121246, -0.04794566333293915, -0.17221516370773315, 0.029168078675866127, -0.005082492250949144, 0.06353294104337692, 0.018215561285614967, 0.03719203174114227, -0.08287709206342697, -0.09385500848293304, -0.14250066876411438, 0.05458934232592583, -0.09835828095674515, -0.08777271211147308, -0.15279793739318848, -0.1226215586066246, -0.356989324092865, 0.22264394164085388, -0.1283143311738968, -0.1562315970659256, -0.036339353770017624, 0.16396497189998627, 0.048988260328769684, -0.05350339040160179, 0.0828448161482811, 0.07103192806243896, -0.01675950177013874, -0.07317345589399338, -0.021878862753510475, -0.12948177754878998, 0.14331111311912537], [-0.190693661570549, 0.01142776571214199, -0.12028231471776962, 0.026956697925925255, -0.05574871227145195, -0.0409129373729229, 0.04919549450278282, -0.12386719137430191, -0.11532065272331238, -0.04703536629676819, 0.3829139173030853, 0.39025166630744934, 0.028241075575351715, 0.14489032328128815, -0.1906290501356125, -0.2769660949707031, -0.24658606946468353, -0.15746939182281494, -0.07280179113149643, 0.028440790250897408, 0.17544111609458923, 0.12947911024093628, -0.1908491849899292, -0.03678043186664581, -0.4155741035938263, 0.021936163306236267, -0.8325743675231934, 0.26330703496932983, -0.4388067424297333, -0.1828654557466507, 0.07836940884590149, 0.18147112429141998, -0.07668490707874298, 0.009695812128484249, 0.04338904842734337, 0.19618013501167297, 0.22731028497219086, -0.012335957027971745, -0.21153099834918976, -0.09605690836906433, -0.013287713751196861, 0.7419361472129822, -0.02072100341320038, 0.08301827311515808, -0.14610986411571503, 0.037915393710136414, -0.30076107382774353, 0.1301267147064209, -0.3561724126338959, -0.027563123032450676, -0.21275077760219574, 0.44878464937210083, 0.14931057393550873, -0.34932413697242737, -0.405356764793396, -0.12590725719928741, 0.5139504671096802, -0.10031364858150482, -0.3837938606739044, -0.03136530891060829, 0.46573606133461, 0.21093687415122986, 0.1258060485124588, -0.16663137078285217], [0.09088201075792313, 0.23553584516048431, 0.6868127584457397, -0.23104840517044067, 0.03770914301276207, 0.11842168867588043, -0.09563519060611725, 0.5112345218658447, 0.028134740889072418, 0.3841211199760437, -0.32181981205940247, 0.066665418446064, -0.32776132225990295, 0.0037615422625094652, 0.13126985728740692, -0.3957098424434662, 0.10009082406759262, 0.2730501890182495, 1.149751901626587, 0.17692576348781586, -0.1632629930973053, -0.33547893166542053, -0.05876150727272034, 0.01584276184439659, 0.035786744207143784, -0.20746316015720367, -0.507444441318512, -0.2347489297389984, 0.5952728390693665, -0.02507048472762108, -0.27914151549339294, 0.261496365070343, -0.051968980580568314, 0.03146139159798622, 0.006409057416021824, -0.051605213433504105, -0.1269833892583847, -0.05132671445608139, 0.24245142936706543, -0.10846216231584549, 0.1152520626783371, 0.199900284409523, 0.491150438785553, -0.12247984856367111, -0.19770410656929016, -0.05743417143821716, -0.25631797313690186, 0.2103644162416458, -0.7227676510810852, 0.3173711895942688, 0.20393015444278717, 0.07491450011730194, -0.019154436886310577, 0.07489125430583954, -0.19682814180850983, -0.14603663980960846, -0.13699910044670105, -0.17180056869983673, 0.30333954095840454, -0.004751255735754967, 0.0786389410495758, 0.14732347428798676, 0.05052516609430313, 0.41692784428596497], [0.02878822758793831, 0.16366566717624664, -0.11691393703222275, -0.08842707425355911, -0.04246632754802704, 0.07115554064512253, 0.05081196501851082, -0.037574928253889084, -0.02163739502429962, 0.15435753762722015, -0.20813438296318054, -0.10134430974721909, -0.1160615012049675, -0.09255976974964142, 0.046381399035453796, 0.003785795299336314, -0.04230273514986038, 0.22863976657390594, -0.14390628039836884, 0.0160076804459095, -0.08528097718954086, -0.08916561305522919, -0.044999293982982635, 0.012917856685817242, -0.1524898260831833, 0.08722624182701111, -0.26389163732528687, 0.06061471253633499, -0.32231178879737854, -0.07285858690738678, 0.1755453497171402, 0.07727232575416565, -0.02041362226009369, -0.023152636364102364, -0.02671976014971733, -0.07228650897741318, -0.0801263228058815, 0.0516773946583271, -0.04252725839614868, 0.17758624255657196, 0.043985169380903244, 0.03349382430315018, 0.21052898466587067, 0.170726478099823, -0.20494426786899567, -0.012375788763165474, -0.2791197896003723, 0.19902420043945312, -0.24529172480106354, 0.08227576315402985, 0.1656360775232315, 0.043166372925043106, 0.018941381946206093, 0.12738627195358276, 0.12489908188581467, -0.021126311272382736, -0.10106855630874634, -0.0814739391207695, 0.025165271013975143, 0.02454034611582756, 0.16154243052005768, 0.0391419492661953, -0.052248794585466385, -0.04602496698498726], [0.05959223210811615, -0.021741924807429314, 0.04802440479397774, 0.0741875171661377, -0.21069610118865967, -0.05262574926018715, 0.024379534646868706, -0.04719088226556778, -0.0732605829834938, -0.01946195214986801, -0.011130481958389282, -0.09496739506721497, -0.08087430149316788, 0.1377653032541275, -0.002952564274892211, -0.06261537224054337, 0.1589594930410385, 0.19114474952220917, 0.015843795612454414, 0.06982143968343735, -0.08553317189216614, -0.013011525385081768, 0.12467143684625626, -0.03539032116532326, 0.030609406530857086, -0.036488473415374756, 0.2026197463274002, -0.14637857675552368, -0.0032411960419267416, 0.09587684273719788, 0.16035616397857666, 0.08924596011638641, 0.12935546040534973, 0.0261128768324852, -0.1052895113825798, -0.08007680624723434, -0.011594011448323727, 0.12327566742897034, 0.0058545614592731, 0.05308423191308975, 0.004856846295297146, -0.010154386050999165, -0.013071137480437756, 0.04992306977510452, -0.004729913081973791, -0.016556793823838234, 0.060724981129169464, -0.17632804811000824, 0.06854122132062912, 0.2110285460948944, -0.18977788090705872, -0.11331155896186829, 0.06753134727478027, -0.06583492457866669, 0.03398266062140465, -0.015455084852874279, 0.03174249455332756, -0.09053057432174683, 0.07302287220954895, 0.027520500123500824, 0.1748468279838562, 0.022046994417905807, -0.06559227406978607, 0.08202838152647018], [-0.04737474024295807, 0.7563852667808533, -0.053213153034448624, -0.11952611804008484, 0.6564436554908752, -0.028302641585469246, 0.21808207035064697, 0.15716241300106049, -0.30760493874549866, -0.6600478887557983, -0.6357787251472473, 0.006037416867911816, -0.19748491048812866, -0.17654851078987122, -0.06868062168359756, -0.08979274332523346, 0.23564884066581726, 1.4893386363983154, 0.12551341950893402, -0.09179380536079407, -0.10473466664552689, -0.011225695721805096, 0.11044236272573471, 0.05523822456598282, -0.43520545959472656, -0.010798443108797073, -0.17474646866321564, -0.32950538396835327, -0.6140515208244324, -0.3021261692047119, 0.8382695317268372, -0.3459243178367615, -0.1098199263215065, 0.04864675551652908, 0.02036617137491703, -0.09131267666816711, -0.0996832549571991, 0.13807260990142822, -0.09005185961723328, 0.06584237515926361, 0.09489335119724274, -0.31688979268074036, 0.14221034944057465, -0.06039351224899292, -0.10111787915229797, 0.2590113878250122, -0.42543619871139526, -0.26671111583709717, -1.2519567012786865, -0.4488604962825775, 0.051392655819654465, -0.3845687210559845, -0.06173406168818474, 0.014418883249163628, 0.17577216029167175, 0.2202765792608261, -0.36427009105682373, -0.2592032551765442, 0.14882062375545502, 0.014812242239713669, -0.5507712960243225, -0.05977746099233627, -0.3277967870235443, -0.08430200815200806], [-0.09781447798013687, 0.0298581775277853, -0.21246379613876343, 0.11887368559837341, -0.016512854024767876, 0.09611973166465759, -0.08243162930011749, -0.02455958165228367, -0.025842642411589622, -0.052983131259679794, 0.00140091753564775, -0.1675993651151657, -0.15610156953334808, 0.23593741655349731, 0.13758540153503418, 0.0021307398565113544, -0.1410600244998932, -0.015451982617378235, -0.08326497673988342, 0.024432899430394173, -0.05738900229334831, 0.03165338188409805, 0.07920372486114502, 0.07073379307985306, -0.10844632983207703, 0.1693117767572403, -0.14742697775363922, 0.3488420248031616, -0.2239532321691513, 0.07243100553750992, 0.02510991506278515, 0.3743593990802765, -0.05007151886820793, 0.03337687626481056, -0.08757419884204865, -0.1463737040758133, -0.019938070327043533, 0.06961037963628769, 0.15765626728534698, 0.06215822324156761, 0.03186669200658798, 0.0780952125787735, -0.1723300963640213, 0.29863545298576355, -0.06904315948486328, -0.11286180466413498, -0.11754319816827774, -0.17986847460269928, -0.404290109872818, -0.14022377133369446, -0.3362467288970947, -0.18874701857566833, -0.0036032688803970814, 0.017610030248761177, 0.008777271024882793, -0.03994179144501686, -0.1636795550584793, 0.08113695681095123, 0.04193582758307457, 0.03694433346390724, 0.19171102344989777, 0.02491173893213272, 0.02962612360715866, -0.024058325216174126], [-0.13844448328018188, -0.08723486959934235, 0.010591465048491955, -0.015241822227835655, 0.10817091912031174, 0.10288131237030029, -0.13356634974479675, 0.14708811044692993, -0.07382146269083023, 0.2164989560842514, -0.045173924416303635, -0.05827981233596802, -0.10220126807689667, -0.027071183547377586, 0.08715439587831497, -0.09724307805299759, 0.08648250997066498, -0.07537399232387543, 0.0773918405175209, 0.04096991568803787, 0.03333839401602745, 0.15842314064502716, 0.000952036352828145, 0.01341646071523428, -0.10074441134929657, 0.05772199481725693, 0.04782106727361679, 0.10454186052083969, 0.05911409482359886, -0.0017583508742973208, 0.14503046870231628, 0.2934085428714752, -0.11981514096260071, -0.046665869653224945, -0.04793751612305641, -0.07986573874950409, -0.04823465272784233, 0.05537726357579231, 0.06075622886419296, 0.27993959188461304, 0.04160599783062935, -0.13144567608833313, -0.04107771813869476, 0.010391204617917538, -0.09015025943517685, -0.1012970432639122, -0.12415886670351028, 0.18730434775352478, -0.3507125973701477, 0.08125203102827072, 0.10905203968286514, -0.04666298255324364, 0.17949235439300537, 0.112724170088768, 0.08510364592075348, -0.03726193681359291, -0.1394374817609787, 0.059876687824726105, 0.05721665173768997, -0.041328296065330505, 0.1338033825159073, 0.017040368169546127, 0.019248470664024353, 0.2622132897377014], [-0.03944161906838417, 0.27070707082748413, -0.30846497416496277, -0.45148736238479614, -0.11922401189804077, 0.15566350519657135, -0.13912571966648102, 0.009009954519569874, 0.04167577624320984, -0.3379484713077545, -0.0016942466609179974, 0.10694622993469238, -0.30103108286857605, -0.18119795620441437, 0.1789306253194809, -0.10040128231048584, 0.7508355975151062, 0.3604118525981903, 0.3025911748409271, -0.004124337341636419, -0.08941618353128433, -0.3198767602443695, 0.06709857285022736, 0.2196386307477951, 0.040480874478816986, -0.8421311974525452, 0.013528718613088131, -0.2365211397409439, 0.20662710070610046, -0.09288855642080307, 0.16188880801200867, -0.09930570423603058, -0.12855656445026398, 0.12835921347141266, -0.08649947494268417, -0.304363876581192, -0.023994917050004005, -0.20071075856685638, 0.1851302683353424, 0.40066951513290405, 0.06878302246332169, -0.08925224840641022, 0.3921049237251282, 0.39755430817604065, 0.06702505797147751, -0.22668595612049103, 0.17321628332138062, -0.06360676884651184, -0.3684106469154358, -0.02254139818251133, 0.5829153060913086, 0.05233694240450859, -0.4700494408607483, 0.062034741044044495, 0.04734545946121216, 0.02946379780769348, 0.23338231444358826, 0.06537269800901413, -0.09581451863050461, 0.16005481779575348, -1.1243634223937988, -0.06257251650094986, -0.10162957012653351, -0.08030033856630325], [-0.16813871264457703, 0.034427445381879807, -0.0760815367102623, 0.051537178456783295, 0.054948560893535614, 0.01792616955935955, -0.03072758950293064, -0.0336553119122982, -0.039124514907598495, -0.22438935935497284, -0.10547155141830444, -0.15986105799674988, -0.019090421497821808, 0.19683177769184113, 0.047122929245233536, -0.00476315850391984, 0.013737211935222149, 0.14206068217754364, 0.0586601197719574, 0.09248718619346619, -0.051512908190488815, -0.047911472618579865, 0.06216206029057503, 0.13202393054962158, -0.2622421383857727, 0.0467035174369812, 0.08127160370349884, -0.03539714962244034, 0.18871666491031647, -0.046284258365631104, 0.14237603545188904, 0.05947931855916977, 0.04915323480963707, 0.06067151576280594, -0.061770759522914886, -0.2133112996816635, -0.011954250745475292, 0.30543115735054016, 0.03297993913292885, 0.029089566320180893, 0.013665941543877125, -0.03202769160270691, 0.08244958519935608, 0.267452597618103, -0.1598179042339325, -0.09709083288908005, 0.1901864856481552, -0.12866517901420593, -0.06822920590639114, 0.316132128238678, -0.01284147147089243, -0.18040567636489868, 0.13754571974277496, -0.2056933492422104, 0.023240404203534126, -0.10290674865245819, -0.1330990493297577, -0.07262266427278519, -0.10020066052675247, 0.03901250660419464, 0.622884213924408, 0.03620331361889839, -0.02836167812347412, 0.1671961545944214], [-0.2548210918903351, 0.10013053566217422, -0.24917547404766083, -0.10879802703857422, 0.42159005999565125, -0.04771991819143295, 0.19302543997764587, -0.13464489579200745, -0.020359620451927185, 0.07647138833999634, -0.20151284337043762, -0.05402996391057968, -0.14766837656497955, 0.5375842452049255, 0.010100074112415314, -0.028915908187627792, 0.410110205411911, 0.2772834897041321, -0.3970641493797302, 0.01673358492553234, -0.16397878527641296, -0.06105630472302437, -0.2136658877134323, -0.006301793269813061, -0.032146379351615906, 0.13212241232395172, 0.03028247505426407, -0.12308241426944733, -0.8857017159461975, -0.2212407886981964, 0.9012711644172668, 0.37838825583457947, -0.013912697322666645, 0.1462639570236206, 0.04155043512582779, -0.12352196872234344, -0.2354762852191925, 0.1764136701822281, 0.04694574326276779, 0.4546966850757599, 0.07022785395383835, -0.20775675773620605, -0.252006471157074, 0.29017069935798645, 0.28406408429145813, 0.06393344700336456, -0.2628540098667145, -0.21130500733852386, -0.1662997454404831, -0.5159560441970825, -0.7882336378097534, -0.05161328986287117, 0.2907567024230957, 0.6990625262260437, 0.0633518323302269, 0.06880032271146774, -0.24775879085063934, -0.17612893879413605, 0.2602017819881439, -0.03678952902555466, -0.5284242033958435, 0.2740935683250427, -0.13970571756362915, -0.47719570994377136], [0.09761819988489151, -0.03528708592057228, -0.36842167377471924, 0.07470517605543137, -0.06757781654596329, 0.2607148289680481, -0.20427702367305756, 0.20100556313991547, -0.04494532197713852, -0.3049679398536682, -0.13452881574630737, -0.2588092088699341, -0.12830975651741028, 0.07055351138114929, 0.2542688846588135, -0.07326254993677139, 0.31609252095222473, -0.10164116322994232, 0.26923897862434387, 0.045949600636959076, -0.06815602630376816, -0.08040355890989304, -0.08622051030397415, -0.05784565582871437, 0.08482781052589417, 0.12394803017377853, -0.22775867581367493, -0.10431893169879913, 0.1261281669139862, -0.05424719676375389, 0.11474988609552383, 0.22548332810401917, -0.19416749477386475, 0.015875758603215218, -0.09939265251159668, -0.35470762848854065, -0.021085770800709724, 0.17284050583839417, 0.21582970023155212, 0.3105848729610443, 0.041580524295568466, 0.015497264452278614, 0.1830763965845108, -0.027827035635709763, -0.1250208169221878, -0.3468013405799866, 0.1761949211359024, 0.021165452897548676, -0.5672222971916199, 0.4710997939109802, 0.25051629543304443, -0.11278500407934189, 0.13112488389015198, -6.148312240839005e-05, 0.04402110353112221, -0.049606021493673325, -0.15879720449447632, 0.16040019690990448, 0.022077782079577446, 0.028621887788176537, 0.13113895058631897, 0.05948532745242119, 0.08925330638885498, 0.05428100377321243], [-0.07578251510858536, 0.06961796432733536, 0.03268829360604286, 0.18225862085819244, -0.0034661409445106983, -0.07425553351640701, -0.02886350452899933, 0.09024667739868164, -0.326443076133728, 0.21361854672431946, -0.11798925697803497, -0.11717475205659866, 0.047855980694293976, -0.08956468105316162, 0.010596093721687794, 0.17347657680511475, -0.13248147070407867, 0.23106543719768524, 0.09465587139129639, -0.022441092878580093, 0.12864403426647186, -0.01607302948832512, 0.34635865688323975, 0.06562570482492447, -0.1978367567062378, -0.014426659792661667, 0.39161187410354614, -0.1422683745622635, 0.054436296224594116, 0.23874618113040924, -0.07972899824380875, -0.24150998890399933, 0.15200795233249664, 0.004847143776714802, -0.012677223421633244, 0.11666285991668701, -0.019433338195085526, 0.006733292248100042, 0.009033509530127048, -0.18871958553791046, -0.0018299813382327557, -0.12755022943019867, -0.019641775637865067, -0.04136252775788307, 0.07625795155763626, 0.04549145698547363, 0.044087424874305725, 0.18483784794807434, 0.1982325315475464, 0.07525268942117691, -0.10389796644449234, 0.06201703101396561, 0.0153307244181633, -0.1697830855846405, 0.06999475508928299, 0.05385693162679672, -0.10052420943975449, -0.01381705142557621, -0.01413690485060215, 0.06611324101686478, -0.002570206532254815, -0.02501497231423855, -0.003280412405729294, -0.0048136948607862], [0.2034348100423813, -0.25667300820350647, 0.5122538805007935, -0.3299967646598816, -0.6184383034706116, 0.08483750373125076, 0.18366935849189758, -0.6408872008323669, 0.2117750346660614, 1.3325867652893066, -0.45214787125587463, 0.0030918139964342117, -0.10766513645648956, -0.5842841267585754, -0.12302550673484802, 0.033247433602809906, -0.2575981616973877, 0.10645996779203415, -0.25480887293815613, 0.6005552411079407, 0.04586564749479294, 0.12230487912893295, -0.16830730438232422, -0.1703304499387741, 0.3457273542881012, -0.061442453414201736, 0.6613719463348389, -0.914311408996582, 0.32067444920539856, 0.6717725992202759, -0.8855957388877869, -0.4771031439304352, 0.38847625255584717, -0.18690097332000732, -0.08178751170635223, 0.31846383213996887, 0.13025547564029694, 0.103127121925354, -0.20495286583900452, 