{"model_data": {"model": "SimpleRNN", "input_size": 1, "skip": 1, "output_size": 1, "unit_type": "LSTM", "num_layers": 1, "hidden_size": 32, "bias_fl": true}, "state_dict": {"rec.weight_ih_l0": [[0.15817870199680328], [0.024387536570429802], [-0.05875970050692558], [-0.09147810935974121], [-0.006708366330713034], [0.0836988165974617], [0.12278497964143753], [0.07634345442056656], [-0.026066960766911507], [0.15556994080543518], [0.028656968846917152], [-0.06766337156295776], [-0.1496935337781906], [-0.0010254328371956944], [0.005497023928910494], [-0.014736118726432323], [0.11950583010911942], [0.027580982074141502], [0.008297850377857685], [0.01999073475599289], [-0.03875225782394409], [0.14565899968147278], [0.00039866703446023166], [0.009405933320522308], [-0.07700515538454056], [0.061520595103502274], [-0.16592052578926086], [-0.048480719327926636], [-0.013086785562336445], [0.007089416030794382], [-0.14671732485294342], [-0.05255461111664772], [0.05745173618197441], [-0.07130785286426544], [-0.05474605783820152], [0.14359323680400848], [-0.07563736289739609], [0.11978863179683685], [-0.04195906221866608], [-0.1743144989013672], [0.10667163133621216], [-0.13831040263175964], [0.16115158796310425], [0.02402189001441002], [0.03919155150651932], [0.1621750444173813], [0.10004030913114548], [0.17140156030654907], [0.10208409279584885], [0.11215360462665558], [0.06786546856164932], [0.13408038020133972], [-0.15922994911670685], [-0.10408539324998856], [0.1056869700551033], [-0.17170371115207672], [-0.12655916810035706], [-0.1341291218996048], [0.014228122308850288], [0.14371398091316223], [0.1496521681547165], [-0.09409734606742859], [-0.16190983355045319], [0.0443720743060112], [-0.12081699818372726], [0.15767991542816162], [-0.11554946005344391], [0.13360509276390076], [-0.0029423136729747057], [-0.013635390438139439], [-0.07462406903505325], [0.16380099952220917], [-0.02613888494670391], [-0.07089902460575104], [-0.1383260190486908], [-0.12068581581115723], [-0.11734598875045776], [0.13496100902557373], [-0.1354362666606903], [0.12086477130651474], [0.12207463383674622], [-0.17116697132587433], [-0.13973508775234222], [-0.03700615465641022], [0.02618056908249855], [0.17450778186321259], [-0.10963143408298492], [0.03512204438447952], [-0.02541438117623329], [-0.15514157712459564], [-0.009809931740164757], [-0.06944384425878525], [-0.06505344808101654], [-0.03716528043150902], [0.07980945706367493], [0.07096736878156662], [-0.03922276198863983], [0.05705374479293823], [-0.08215209096670151], [0.16452611982822418], [0.1725841611623764], [-0.1666860580444336], [-0.14126421511173248], [0.002313988283276558], [0.07858248054981232], [0.1368541419506073], [0.16389112174510956], [0.09886038303375244], [0.14345504343509674], [-0.11729610711336136], [0.16818572580814362], [0.1350780576467514], [0.023671040311455727], [-0.1623024046421051], [0.12050346285104752], [0.04588097333908081], [0.07845564186573029], [0.001111454563215375], [0.10291866213083267], [0.14145229756832123], [0.06266943365335464], [-0.12219642102718353], [0.040749069303274155], [0.09306799620389938], [-0.04238792881369591], [0.025404034182429314], [0.09358222782611847], [0.09022394567728043]], "rec.weight_hh_l0": [[-0.025907687842845917, 0.13518688082695007, 0.09563781321048737, 0.0286686010658741, -0.1311652511358261, 0.11254002898931503, 0.12487927824258804, 0.01033459696918726, -0.05325842276215553, 0.12191333621740341, 0.06485553085803986, 0.08649580180644989, -0.1302320808172226, -0.16534489393234253, 0.16314488649368286, 0.14639340341091156, -0.15908858180046082, 0.06994311511516571, 0.0010110818548128009, -0.006948202848434448, 0.06436266005039215, 0.09490618854761124, 0.07601424306631088, -0.12057283520698547, 0.08429548889398575, -0.09578385204076767, -0.0668419897556305, 0.014975323341786861, 0.1021767109632492, -0.08249901980161667, -0.041436925530433655, -0.026224590837955475], [-0.07323596626520157, -0.08710798621177673, 0.049784574657678604, -0.17544826865196228, 0.09837169200181961, 0.12304548919200897, -0.027924710884690285, -0.0024215681478381157, -0.14681529998779297, 0.06429674476385117, -0.06700071692466736, -0.11319594085216522, 0.07196386903524399, 0.08046640455722809, 0.05953988432884216, -0.13320013880729675, 0.044216006994247437, 0.08587256073951721, 0.16576804220676422, -0.09213996678590775, 0.011583260260522366, -0.012491777539253235, 0.09220908582210541, -0.031380794942379, 0.1303589940071106, -0.003746644128113985, -0.09973065555095673, 0.11672054976224899, -0.050763875246047974, -0.04242075979709625, -0.17604249715805054, 0.02558322064578533], [0.16047054529190063, -0.01978326588869095, 0.10686767101287842, -0.09846340119838715, -0.00505838030949235, -0.023056138306856155, 0.11466378718614578, -0.05283809080719948, 0.07206626236438751, -0.13332244753837585, 0.1042599231004715, -0.09206915646791458, -0.019496414810419083, 0.1621563583612442, 0.03139573335647583, 0.0474814809858799, 0.042558666318655014, -0.015150168910622597, 0.021344533190131187, -0.03533222898840904, 0.04131830483675003, 0.16688211262226105, -0.030324572697281837, -0.05981891602277756, -0.14295825362205505, -0.14610867202281952, 0.07608850300312042, 0.07046285271644592, 0.13781987130641937, 0.1190904900431633, -0.1200510784983635, 0.13839969038963318], [0.05701931193470955, 0.15975208580493927, 0.07391534745693207, 0.010629940778017044, 0.1537345051765442, -0.07617007941007614, 0.16796311736106873, 0.06592108309268951, 0.10016608983278275, -0.05647985264658928, -0.08631385862827301, 0.022960802540183067, 0.0462162084877491, 0.1451036036014557, 0.12546327710151672, 0.03039485216140747, 0.10578393191099167, 0.07573900371789932, -0.07923363149166107, 0.14278043806552887, 0.06971819698810577, -0.06905461847782135, 0.0030654456932097673, -0.155974879860878, -0.08497628569602966, -0.003229754976928234, 0.08790011703968048, -0.06038079783320427, -0.15690600872039795, 0.007594187743961811, -0.17274188995361328, -0.03554873913526535], [0.050704196095466614, 0.0020970164332538843, 0.08024565875530243, -0.06108551099896431, 0.07675042003393173, 0.006357662379741669, 0.08987341076135635, -0.1424892395734787, 0.005381330382078886, -0.02996436506509781, 0.005314970389008522, -0.003665174124762416, 0.013287067413330078, -0.07644089311361313, 0.06783366203308105, 0.13800422847270966, -0.08484933525323868, -0.01414252258837223, 0.1654672622680664, -0.007008261978626251, -0.17652592062950134, -0.12300770729780197, -0.10948613286018372, 0.08400796353816986, -0.08322343975305557, -0.09787102788686752, -0.010228280909359455, -0.1069241538643837, 0.1492614597082138, -0.014683561399579048, 0.027662282809615135, -0.09666775912046432], [0.05562325939536095, 0.12751053273677826, -0.002913801232352853, -0.13121569156646729, -0.0630546361207962, -0.16026362776756287, 0.016423193737864494, 0.08543623238801956, -0.16988597810268402, 0.1298794150352478, -0.10141246020793915, 0.02159452810883522, -0.03515879437327385, 0.06372459977865219, -0.08323903381824493, -0.05728397145867348, 0.12469395995140076, 0.1184319481253624, 0.022693254053592682, -0.010280100628733635, -0.07358401268720627, 0.16262294352054596, -0.08713614195585251, 0.01913890428841114, -0.17100279033184052, -0.17591962218284607, 0.10584674775600433, 0.10843905806541443, 0.13281042873859406, -0.010176672600209713, 0.09356892853975296, 0.01948370784521103], [-0.1747051328420639, -0.01902713067829609, -0.14741767942905426, 0.058661624789237976, 0.10756054520606995, -0.15559564530849457, -0.13398219645023346, -0.17086106538772583, -0.15900440514087677, -0.14764301478862762, -0.06501854956150055, 0.02947164699435234, -0.07454186677932739, -0.013923379592597485, -0.09166275709867477, -0.10688948631286621, -0.15732359886169434, 0.09230107069015503, -0.06407825648784637, -0.17234323918819427, -0.07835575193166733, 0.09617777913808823, 0.16845571994781494, -0.013137024827301502, 0.1332457810640335, 0.04691298305988312, -0.07084524631500244, 0.08018913865089417, -0.033229753375053406, 0.01359768956899643, -0.17420817911624908, -0.10992555320262909], [0.06906741112470627, -0.09453456103801727, 0.1168450117111206, 0.11316369473934174, 0.08895499259233475, 0.13773861527442932, -0.1284910887479782, -0.005378612317144871, 0.09977033734321594, 0.16986165940761566, -0.051260724663734436, 0.08470399677753448, -0.11048256605863571, 0.17564159631729126, 0.17533862590789795, -0.07958445698022842, 0.09897599369287491, 0.14878614246845245, 0.14126580953598022, -0.012448914349079132, -0.016568748280405998, -0.169261172413826, 0.026897085830569267, 0.13193154335021973, -0.10144010931253433, -0.14678283035755157, 0.1627652496099472, -0.17020811140537262, 0.03728156164288521, 0.15944401919841766, 0.16142559051513672, 0.040381211787462234], [-0.049943361431360245, -0.10511807352304459, 0.10332038253545761, 0.1483927071094513, 0.046062394976615906, -0.16212427616119385, 0.16238409280776978, -0.13130469620227814, 0.16255919635295868, 0.12793241441249847, -0.14798544347286224, 0.08406367897987366, -0.01510812807828188, -0.13332520425319672, 0.08415718376636505, -0.06234581023454666, 0.018614767119288445, 0.03927401453256607, 0.15089400112628937, -0.1435159593820572, -0.11923199892044067, -0.08474873751401901, -0.09634029865264893, 0.063994400203228, -0.14128904044628143, 0.0998358502984047, 0.09922729432582855, -0.13411010801792145, -0.040585096925497055, 0.07410739362239838, 0.17592468857765198, -0.12598919868469238], [0.11971243470907211, 0.05113445222377777, 0.08054854720830917, 0.10228610038757324, 0.0018320813542231917, 0.14396916329860687, -0.0430135540664196, -0.09310908615589142, 0.10067114233970642, 0.13385151326656342, 0.09049107134342194, 0.030892986804246902, 0.10761561244726181, 0.06993129104375839, -0.09040825814008713, 0.1374625414609909, 0.1052749827504158, -0.00019385443010833114, 0.03823757916688919, 0.1184316948056221, -0.10570792108774185, -0.05703170225024223, 0.11164136976003647, -0.16494111716747284, -0.08737591654062271, -0.07427671551704407, -0.1532232016324997, -0.11419641971588135, -0.13158223032951355, 0.08132948726415634, -0.011458315886557102, 0.09370867162942886], [-0.09615278244018555, 0.13436000049114227, 0.038408443331718445, 0.02249309793114662, -0.14702410995960236, -0.008956752717494965, 0.10475187748670578, 0.15924786031246185, 0.12205206602811813, -0.1562630981206894, -0.03535359725356102, 0.018276769667863846, 0.07328677177429199, -0.038770463317632675, -0.08043011277914047, 0.15150229632854462, -0.009501880034804344, -0.02942834049463272, 0.1615140587091446, 0.10423585772514343, -0.07084402441978455, 0.07047878205776215, 0.033570513129234314, -0.03506843373179436, 0.07414334267377853, -0.009400960057973862, 0.09044262766838074, -0.1597345471382141, 0.1274222880601883, 0.0246104933321476, 0.14420118927955627, -0.13473129272460938], [-0.049405355006456375, -0.02345242351293564, 0.11573349684476852, -0.11598968505859375, 0.17392505705356598, 0.11272789537906647, 0.11527590453624725, 0.01379719190299511, 0.12509985268115997, 0.11329106241464615, 0.07463517785072327, 0.17545968294143677, 0.020113296806812286, 0.046149324625730515, 0.12312740087509155, 0.05242341011762619, -0.10054897516965866, -0.04174742102622986, -0.15115895867347717, 0.10467281192541122, -0.12292661517858505, 0.04906991124153137, -0.127232164144516, -0.09009186178445816, -0.11913221329450607, -0.015878593549132347, -0.1145549863576889, 0.03430270776152611, -0.08743053674697876, -0.12832416594028473, 0.033199556171894073, -0.00877379346638918], [-0.06762988865375519, 0.12964604794979095, 0.1267770379781723, 0.08686787635087967, 0.02139243297278881, 0.018347008153796196, -0.13082674145698547, 0.09202749282121658, 0.018005596473813057, -0.10689740628004074, -0.17233988642692566, 0.0033145123161375523, 0.1070629432797432, 0.13979016244411469, -0.13453729450702667, -0.09208087623119354, 0.16063854098320007, -0.058720674365758896, -0.17520762979984283, 0.0525442436337471, -0.02987406589090824, -0.00984624121338129, 0.07974516600370407, -0.04586849734187126, -0.04496537521481514, -0.13350260257720947, -0.05757099390029907, -0.01889965869486332, 0.11274376511573792, 0.045829955488443375, 0.0316259004175663, 0.020211709663271904], [0.06315340846776962, -0.08272174745798111, -0.06416994333267212, 0.1153116226196289, 0.006268774624913931, -0.03264966607093811, 0.14708098769187927, -0.1690738946199417, 0.040003661066293716, 0.05712899938225746, -0.15509536862373352, -0.1500777155160904, 0.008281707763671875, 0.07897181063890457, -0.06267354637384415, 0.001862827455624938, 0.11178058385848999, -0.13407346606254578, -0.14677932858467102, 0.06421069800853729, 0.14628185331821442, 0.07579413056373596, 0.1406099498271942, 0.0004226907331030816, 0.1379019170999527, -0.029265759512782097, 0.07748012989759445, -0.05102109909057617, 0.1112915575504303, -0.15479272603988647, 0.005899673793464899, 0.15221841633319855], [0.16349360346794128, -0.12068106979131699, 0.04284391552209854, 0.03397480398416519, 0.17673397064208984, 0.11818279325962067, 0.09888587892055511, -0.10415288805961609, -0.052480749785900116, -0.06216944381594658, -0.018487293273210526, 0.0678708627820015, 0.044035762548446655, -0.10164304822683334, 0.013664008118212223, -0.01895967498421669, -0.11940561980009079, -0.11319724470376968, -0.13967564702033997, -0.07110562920570374, 0.09850171208381653, -0.05486185476183891, -0.009500321000814438, -0.10695512592792511, -0.13377350568771362, -0.10967311263084412, -0.022379722446203232, -0.10467192530632019, 0.055354174226522446, -0.1517631709575653, 0.05968739464879036, 0.06521164625883102], [-0.1377817690372467, 0.1368943452835083, -0.0268465094268322, -0.04933596029877663, 0.09298475831747055, 0.12439243495464325, -0.17615708708763123, -0.16734641790390015, 0.14142833650112152, -0.08046063035726547, 0.028965231031179428, 0.08688884228467941, -0.1442766636610031, 0.019475046545267105, -0.053350385278463364, -0.03220902010798454, 0.16192877292633057, 0.01633860543370247, -0.11939607560634613, -0.14364099502563477, -0.023278947919607162, 0.14758697152137756, 0.11193636059761047, 0.10574528574943542, -0.15190263092517853, -0.1241500973701477, 0.12441053986549377, -0.17453408241271973, -0.09395743906497955, -0.06689269840717316, -0.11624693125486374, -0.0665082335472107], [0.14850446581840515, 0.09263881295919418, 0.14271338284015656, 0.10210339725017548, -0.09121477603912354, 0.024105973541736603, -0.11021282523870468, 0.11225903779268265, 0.17398785054683685, 0.06125117093324661, 0.04851068556308746, 0.04099179059267044, 0.14249621331691742, -0.14640773832798004, -0.09792914986610413, -0.08703810721635818, 0.05705570429563522, 0.11629236489534378, -0.17032641172409058, 0.12224829941987991, 0.14020974934101105, -0.03834399953484535, -0.17091213166713715, -0.014823847450315952, -0.0003897318965755403, -0.17262707650661469, -0.11685609817504883, -0.14879056811332703, -0.05220116674900055, 0.12911805510520935, 0.011939759366214275, -0.013681245967745781], [-0.05373712629079819, 0.07383813709020615, 0.17177541553974152, -0.041494183242321014, -0.08940794318914413, -0.060345202684402466, -0.17653238773345947, 0.12103411555290222, -0.11538372188806534, -0.013079789467155933, 0.04181041195988655, -0.0492795892059803, 0.05810442566871643, -0.018742913380265236, -0.14190629124641418, -0.14048029482364655, -0.02366591803729534, 0.055142197757959366, 0.06989780813455582, -0.03515268489718437, -0.1376419961452484, -0.048162467777729034, 0.11893410235643387, 0.0010493722511455417, -0.13728582859039307, 0.12707963585853577, -0.1454245001077652, 0.10135815292596817, -0.0031557241454720497, -0.11860612034797668, -0.05544146150350571, -0.0018511527450755239], [-0.08409705758094788, 0.08123564720153809, -0.05753166973590851, -0.04521758109331131, -0.07955288887023926, -0.027619777247309685, 0.16864918172359467, -0.13693289458751678, -0.031091982498764992, 0.027823178097605705, 0.1720922589302063, -0.12371901422739029, -0.10766331851482391, -0.09453248977661133, -0.1540146917104721, 0.06639321148395538, -0.02443648874759674, 0.06175212934613228, -0.0512709878385067, 0.1542133092880249, -0.03817722573876381, -0.12351049482822418, 0.17672842741012573, 0.0547281876206398, -0.13622474670410156, -0.1743893325328827, -0.14841116964817047, 0.07307281345129013, -0.1547350138425827, 0.011393093504011631, -0.07542075216770172, -0.11969361454248428], [0.01718350127339363, -0.10296858102083206, 0.05560142919421196, 0.040073685348033905, 0.09271670132875443, -0.019397644326090813, 0.07203501462936401, -0.09538590162992477, 0.05299178138375282, -0.06656879931688309, -0.1262739598751068, 0.011653308756649494, 0.12463008612394333, -0.09509909152984619, 0.17001521587371826, -0.01648363284766674, 0.03061007522046566, 0.055820465087890625, 0.031209994107484818, 0.07211334258317947, -0.167791947722435, 0.07841760665178299, -0.06687147170305252, 0.0855323076248169, -0.14061743021011353, 0.09066414833068848, -0.020383374765515327, 0.17403987050056458, 0.04888477921485901, 0.06691636145114899, 0.08167776465415955, 0.06749080121517181], [-0.03029639832675457, -0.14524459838867188, 0.08781719207763672, 0.1698334664106369, 0.037441130727529526, 0.175271674990654, 0.07344783842563629, 0.0308621134608984, -0.1224927082657814, -0.019713176414370537, -0.045305900275707245, 0.02405436523258686, 0.1585005521774292, 0.01855369657278061, 0.10496117919683456, 0.16053782403469086, -0.11384483426809311, 0.12524928152561188, -0.08001960813999176, 0.07215649634599686, 0.1461590677499771, -0.029113946482539177, 0.1303960233926773, -0.15785548090934753, -0.06881547719240189, -0.07318779081106186, -0.11197532713413239, 0.16232086718082428, -0.14030945301055908, -0.08530513197183609, 0.06440149992704391, 0.06388536840677261], [-0.03839558735489845, -0.12698973715305328, 0.14804226160049438, 0.06500198692083359, -0.01843073219060898, -0.1524476557970047, 0.025255339220166206, 0.003602923359721899, -0.08590568602085114, -0.06409252434968948, -0.08146753907203674, 0.11934257298707962, -0.16249501705169678, 0.1392028033733368, -0.017189929261803627, -0.17126698791980743, -0.06229550763964653, -0.011200693435966969, -0.05358710512518883, 0.15181474387645721, -0.11621931940317154, -0.04312469810247421, -0.05332612991333008, -0.08556794375181198, 0.04812714830040932, 0.13815216720104218, 0.018967388197779655, -0.059452492743730545, -0.09558729827404022, 0.13239477574825287, -0.0532473586499691, 0.14187124371528625], [-0.15814374387264252, -0.1041717529296875, 0.16773398220539093, -0.052591003477573395, -0.1642664074897766, 0.04229600727558136, -0.060508374124765396, -0.07534187287092209, 0.010337462648749352, 0.03875362500548363, 0.01687418669462204, -0.14354710280895233, 0.06675531715154648, 0.157959446310997, 0.014896213077008724, -0.10064058005809784, -0.026094146072864532, -0.023820661008358, -0.10137145221233368, 0.12031491845846176, -0.15493470430374146, -0.09656843543052673, 0.11837439239025116, -0.15345719456672668, 0.029495585709810257, 0.12204420566558838, 0.11550396680831909, 0.15035641193389893, 0.01629761792719364, -0.10155445337295532, -0.1323806196451187, 0.09096822142601013], [-0.16104596853256226, -0.1608290672302246, -0.0056120846420526505, 0.13294047117233276, 0.1284535974264145, 0.04407814145088196, -0.014859397895634174, -0.10600010305643082, -0.14557573199272156, 0.03964071348309517, 0.002062624553218484, 0.11895745247602463, -0.003582376753911376, 0.01061738096177578, 0.041498925536870956, 0.03482988104224205, 0.032697439193725586, 0.0610898956656456, -0.02404606156051159, -0.024825546890497208, -0.03315681964159012, -0.126321941614151, -0.0645739883184433, -0.11877264082431793, 0.05950896814465523, -0.04493998363614082, -0.17128516733646393, 0.12263744324445724, 0.15933237969875336, -0.07606852799654007, -0.012727526016533375, 0.12537528574466705], [-0.008094891905784607, -0.0211750827729702, 0.020903339609503746, 0.14130666851997375, 0.12457522749900818, -0.022105030715465546, -0.031169721856713295, 0.1228799968957901, 0.01945614442229271, 0.11355818808078766, -0.16518156230449677, 0.056028544902801514, 0.07845024764537811, 0.014383855275809765, 0.03941912576556206, 0.15984836220741272, -0.14885948598384857, -0.16963587701320648, -0.10014809668064117, -0.03374512493610382, -0.07533390820026398, 0.03819899633526802, 0.08978722244501114, -0.041651979088783264, -0.02692521922290325, 0.13182096183300018, 0.06774424761533737, -0.127760648727417, -0.03551221638917923, -0.016408968716859818, 0.1667274683713913, -0.11749474704265594], [0.05397879704833031, -0.0047491067089140415, 0.03913172706961632, 0.006177442613989115, 0.15549267828464508, 0.09233523160219193, 0.11538546532392502, -0.13334211707115173, 0.009556017816066742, 0.12478941679000854, 0.07082196325063705, -0.022595956921577454, 0.13588525354862213, 0.15047767758369446, 0.10357847064733505, 0.09966528415679932, -0.020305782556533813, 0.03617963567376137, -0.02146800234913826, 0.10160774737596512, -0.12909314036369324, -0.11013811826705933, -0.12092478573322296, -0.036622725427150726, -0.1216074600815773, -0.12047179043292999, 0.0883040502667427, 0.031007414683699608, 0.07308558374643326, -0.14173512160778046, -0.055901072919368744, 0.0721624419093132], [0.01666461117565632, -0.16040365397930145, 0.06363999098539352, -0.01192125678062439, -0.05770942196249962, 0.030346447601914406, -0.005292653571814299, 0.12591423094272614, 0.04068253934383392, 0.04355977848172188, -0.006274422165006399, -0.11548672616481781, 0.17348569631576538, -0.10140729695558548, 0.0015508775832131505, -0.13800692558288574, -0.15831010043621063, 0.13415434956550598, -0.0951085314154625, 0.09972439706325531, 0.12098697572946548, -0.04625125601887703, 0.15591777861118317, -0.06956931203603745, 0.022426486015319824, 0.14742963016033173, -0.004434838891029358, -0.1345815509557724, 0.08944437652826309, -0.13281814754009247, 0.1464979350566864, 0.12284132838249207], [0.011034529656171799, -0.0028169688303023577, 0.08074073493480682, -0.056621003895998, -0.047612473368644714, -0.09907516092061996, 0.16455157101154327, 0.07402286678552628, 0.02779797464609146, -0.021204395219683647, -0.11250803619623184, 0.11850808560848236, -0.05742086470127106, 0.17577730119228363, 0.16036823391914368, 0.14161550998687744, -0.07389514148235321, 0.10983534157276154, 0.007688069716095924, -0.08235085010528564, -0.009253846481442451, -0.049480337649583817, 0.004331073258072138, -0.02031661383807659, -0.11560404300689697, 0.05666302144527435, 5.049192259320989e-05, 0.16080917418003082, 0.007211852353066206, 0.12131287157535553, -0.022623542696237564, -0.15944790840148926], [0.017340561375021935, 0.08292493224143982, -0.17451485991477966, -0.1105848178267479, -0.021710747852921486, -0.03274394944310188, -0.07351695746183395, 0.032007791101932526, 0.028853289783000946, -0.09525784105062485, -0.13513299822807312, 0.08330558240413666, 0.07348226755857468, 0.0021442840807139874, -0.10544850677251816, -0.1435549259185791, 0.12448524683713913, 0.09162071347236633, 0.01938510499894619, 0.09722070395946503, -0.028812743723392487, -0.07919877022504807, 0.14802181720733643, -0.12753918766975403, 0.16492067277431488, 0.0486801378428936, -0.12363326549530029, 0.1623774766921997, 0.1026173084974289, -0.053830310702323914, -0.1497088223695755, 0.08253557980060577], [-0.11946757882833481, -0.06527701765298843, 0.17549100518226624, -0.10689783096313477, 0.15573357045650482, -0.09184291213750839, 0.14298619329929352, 0.0894811749458313, 0.14346899092197418, -0.10968801379203796, -0.012011767365038395, 0.15558703243732452, -0.011427443474531174, 0.12291443347930908, 0.0049684178084135056, 0.10215563327074051, -0.08476249128580093, -0.16085180640220642, 0.09075908362865448, -0.03256579488515854, -0.0218404121696949, -0.14646390080451965, 0.10428588092327118, -0.17483317852020264, 0.009430420584976673, -0.04218730702996254, 0.1432756632566452, 0.05007858946919441, 0.1622118353843689, -0.13976217806339264, -0.1497039794921875, -0.1386043280363083], [0.1490214318037033, 0.16894906759262085, 0.02833189070224762, 0.13478410243988037, 0.0496487133204937, 0.08194936066865921, 0.15175743401050568, 0.09346231818199158, -0.15338940918445587, 0.10435376316308975, -0.13233938813209534, 0.16346941888332367, -0.08267386257648468, -0.011316091753542423, 0.10435955971479416, -0.12370850145816803, -0.07000403851270676, 0.12643875181674957, -0.16858868300914764, -0.16021785140037537, 0.1644153594970703, 0.1080494299530983, -0.003703485708683729, 0.09864269196987152, -0.05044286325573921, -0.10855325311422348, -0.161097452044487, -0.08101892471313477, 0.14022791385650635, 0.034271541982889175, -0.04898601770401001, -0.0705682784318924], [-0.15727859735488892, -0.09246101975440979, -0.051995281130075455, 0.04073644429445267, -0.1504763811826706, -0.06795058399438858, 0.10531359165906906, 0.15568798780441284, 0.05259869620203972, -0.028655894100666046, -0.10537409782409668, 0.1735900342464447, 0.14372806251049042, 0.11340627074241638, -0.006626727990806103, -0.11916707456111908, -0.05113375559449196, 0.019612403586506844, 0.09992170333862305, -0.07135613262653351, -0.009000248275697231, -0.1666766256093979, -0.1702919751405716, -0.14244766533374786, -0.04219042882323265, 0.10216448456048965, 0.05008261278271675, 0.12952084839344025, 0.04909975081682205, 0.11160525679588318, 0.017589818686246872, -0.018217364326119423], [0.1548769623041153, -0.04957092925906181, 0.1315702348947525, 0.034263934940099716, -0.1668643057346344, -0.04617838189005852, 0.12516644597053528, 0.07275763899087906, 0.09637496620416641, 0.09760710597038269, 0.04523475840687752, 0.1301175355911255, 0.12940362095832825, -0.014127791859209538, -0.00580241996794939, -0.14225903153419495, 0.07357615232467651, 0.01086967159062624, 0.16973473131656647, 0.0727091059088707, 0.017377713695168495, -0.11598793417215347, -0.13147127628326416, -0.039260294288396835, -0.06342076510190964, -0.092798613011837, 0.026675498113036156, 0.16925564408302307, -0.0936485230922699, 0.08516508340835571, -0.03359851986169815, 0.08547104895114899], [-0.1031685471534729, -0.03240441530942917, 0.1745608150959015, -0.09671668708324432, 0.11954546719789505, -0.11056403815746307, 0.14791589975357056, -0.012121496722102165, -0.032267458736896515, -0.1481449455022812, -0.127670556306839, 0.17030780017375946, -0.08779706805944443, 0.16355900466442108, 0.06497712433338165, 0.06728363037109375, -0.006710094399750233, 0.13649395108222961, 0.14243794977664948, -0.17578144371509552, 0.011889878660440445, 0.14118708670139313, 0.02291361801326275, 0.0002021573600359261, -0.003935546148568392, -0.03494361415505409, -0.10294114798307419, -0.03512720763683319, 0.008640040643513203, 0.1489686220884323, 0.02667979709804058, -0.0955529734492302], [0.102370984852314, -0.11082983762025833, 0.12980464100837708, -0.1641053408384323, -0.1285942941904068, 0.17476461827754974, 0.10178762674331665, 0.08608059585094452, 0.13992123305797577, -0.10443411767482758, 0.049535781145095825, -0.15531444549560547, 0.00959757436066866, -0.059861209243535995, -0.02174339070916176, 0.15248969197273254, -0.08765292912721634, 0.0049854242242872715, 0.1478765606880188, 0.13268700242042542, -0.12411214411258698, 0.13796861469745636, -0.05602357164025307, 0.1661369949579239, -0.12848405539989471, 0.01947822980582714, 0.17404277622699738, 0.03584014251828194, -0.12492121011018753, 0.09835011512041092, 0.01531007420271635, -0.08795724809169769], [-0.17608071863651276, -0.07940918952226639, -0.11639966815710068, -0.00532417930662632, 0.08749856054782867, -0.0994291752576828, -0.15206755697727203, -0.036353111267089844, -0.04069594293832779, 0.06340181827545166, 0.1459120512008667, -0.017226511612534523, -0.0795397013425827, 0.07329895347356796, -0.030141275376081467, 0.13651905953884125, -0.1380031257867813, 0.13966017961502075, 0.14976534247398376, -0.14458341896533966, 0.027508657425642014, 0.00402797432616353, -0.06382960826158524, -0.07143351435661316, 0.0985613763332367, 0.040503859519958496, -0.08944310992956161, 0.005636382382363081, 0.1678454875946045, 0.0773710310459137, 0.11897492408752441, -0.07368575781583786], [0.009900462813675404, -0.040585558861494064, -0.15347401797771454, -0.027655476704239845, -0.08399251103401184, 0.09662086516618729, 0.10121873021125793, 0.16863498091697693, 0.01505323126912117, -0.10688238590955734, 0.13068543374538422, -0.04478108882904053, 0.04340198263525963, 0.023104818537831306, -0.0937797948718071, -0.1150522530078888, -0.04217352718114853, -0.07893936336040497, 0.006903948727995157, 0.005560264922678471, -0.05500926449894905, 0.10790260881185532, -0.11158552765846252, 0.06034303456544876, 0.1467384696006775, 0.06579457968473434, 0.13471658527851105, -0.15329086780548096, -0.1104455441236496, 0.1697252094745636, 0.04405532032251358, 0.16522325575351715], [-0.1379949152469635, 0.04785968363285065, -0.05782726779580116, 0.01267928909510374, 0.01225651428103447, -0.022212505340576172, -0.15353409945964813, -0.011257191188633442, 0.09197666496038437, 0.09408185631036758, -0.17224742472171783, -0.10576005280017853, -0.16702471673488617, 0.020673619583249092, 0.02360914647579193, -0.13247928023338318, -0.09232134371995926, -0.10317693650722504, -0.06601298600435257, -0.15901173651218414, -0.06399980187416077, -0.17603746056556702, -0.08441802859306335, -0.1748398095369339, -0.128980815410614, 0.1031225249171257, -0.02270294725894928, 0.027120526880025864, 0.16020646691322327, 0.025217829272150993, -0.022901395335793495, -0.16824692487716675], [-0.11597440391778946, -0.053051311522722244, 0.1370914727449417, -0.035415470600128174, 0.07138961553573608, -0.10529784858226776, -0.050797149538993835, 0.10154277831315994, -0.03590300306677818, -0.012589916586875916, 0.12858548760414124, 0.08015839755535126, 0.019032547250390053, -0.010277867317199707, 0.17473311722278595, 0.0693751648068428, 0.0852019414305687, 0.04141313582658768, 0.15615446865558624, -0.02654876373708248, -0.1492101401090622, 0.1442951112985611, -0.15186259150505066, -0.06638771295547485, 0.019044222310185432, 0.07570349425077438, 0.1289152354001999, 0.13946516811847687, -0.028725963085889816, -0.07082725316286087, 0.10049942880868912, 0.1599218100309372], [-0.05394779518246651, -0.08320801705121994, 0.04838104173541069, 0.033841539174318314, 0.1483253389596939, -0.043204165995121, -0.149861678481102, 0.05767121911048889, 0.10179125517606735, -0.0012527939397841692, -0.14753884077072144, 0.04139075428247452, 0.14730966091156006, -0.08504624664783478, -0.060010261833667755, 0.010389492847025394, 0.1331813782453537, 0.09588898718357086, 0.10407329350709915, 0.15418672561645508, -0.03511481359601021, -0.05407164618372917, 0.13157770037651062, 0.04527618736028671, -0.1756991297006607, 0.10093653947114944, 0.10887657850980759, -0.10652845352888107, -0.05360202491283417, 0.06471098214387894, -0.004719372373074293, 0.022885380312800407], [0.10382618755102158, -0.1445768177509308, -0.05758266896009445, -0.07495517283678055, -0.10575493425130844, -0.03940688073635101, 0.06119505316019058, -0.005070434417575598, -0.10191546380519867, 0.08356240391731262, -0.056042011827230453, 0.08606886118650436, 0.06511129438877106, 0.005544818006455898, -0.06144426763057709, -0.0741233229637146, -0.091463103890419, -0.1514190137386322, -0.10453351587057114, -0.06643984466791153, -0.08720037341117859, 0.016566766425967216, -0.16284441947937012, 0.14415159821510315, -0.00022122880909591913, 0.1120724305510521, 0.057952359318733215, -0.015269570983946323, -0.10029978305101395, -0.1367548406124115, -0.013596531003713608, 0.15521468222141266], [-0.0051754433661699295, 0.13007788360118866, -0.11746103316545486, 0.026347680017352104, -0.02639450505375862, -0.10677216947078705, -0.1397903859615326, -0.04677153751254082, -0.11426255106925964, 0.06664390116930008, -0.09018723666667938, -0.08489330112934113, -0.0036702528595924377, -0.11173156648874283, 0.026132667437195778, 0.140638530254364, -0.02130533754825592, 0.08093800395727158, -0.15153083205223083, -0.10605383664369583, 0.1752142459154129, -0.041055623441934586, 0.015549320727586746, -0.008332831785082817, 0.1659216284751892, 0.14130020141601562, -0.10892869532108307, -0.056170180439949036, -0.10070862621068954, -0.06744115054607391, 0.05109831318259239, 0.022695444524288177], [0.13521385192871094, -0.08508048951625824, -0.152886301279068, -0.11103515326976776, 0.007632372435182333, 0.11992871016263962, 0.07419811189174652, -0.15273840725421906, 0.07199752330780029, 0.13656659424304962, -0.1331401914358139, -0.05858561396598816, -0.02782001718878746, -0.04018651321530342, -0.07704391330480576, -0.14930251240730286, -0.06321542710065842, 0.04847186803817749, 0.14240458607673645, -0.07583189755678177, 0.017443547025322914, -0.17649678885936737, -0.007856993936002254, 0.14013542234897614, 0.054059505462646484, 0.09441136568784714, 0.041358597576618195, -0.1601581871509552, 0.11581199616193771, 0.1357097029685974, -0.021656272932887077, -0.10772102326154709], [0.11075601726770401, -0.057006899267435074, 0.13066810369491577, -0.10772517323493958, -0.05185097083449364, -0.08677635341882706, -0.03758455812931061, -0.16863276064395905, -0.09233821928501129, 0.005462547764182091, 0.07047825306653976, -0.017952345311641693, -0.11931410431861877, 0.05777576193213463, 0.04745796322822571, 0.09194741398096085, -0.15127618610858917, -0.16873718798160553, -0.07833702117204666, -0.08566511422395706, 0.1716887205839157, 0.038000863045454025, 0.01802513189613819, 0.02554229646921158, 0.06737955659627914, -0.03686976805329323, -0.0365687757730484, -0.1739463210105896, 0.15519343316555023, -0.004742363467812538, -0.10825285315513611, 0.17433485388755798], [0.05948534607887268, -0.059234149754047394, -0.08515837788581848, 0.018401313573122025, 0.15641015768051147, 0.08575783669948578, -0.05266912281513214, -0.14464367926120758, 0.00017431935702916235, 0.13851121068000793, 0.1506771445274353, 0.0797836035490036, 0.057734016329050064, 0.02563329227268696, -0.1546839028596878, 0.06036537140607834, 0.15221287310123444, -0.010677398182451725, 0.016581939533352852, 0.056111909449100494, 0.1582183539867401, -0.026915883645415306, 0.041947346180677414, -0.047326672822237015, 0.07939191162586212, 0.037242114543914795, -0.1277359426021576, 0.10932934284210205, -0.03263116255402565, 0.0592295341193676, 0.16125723719596863, -0.1489826738834381], [0.02279472164809704, -0.06499214470386505, -0.011374043300747871, 0.15236034989356995, -0.036662258207798004, 0.052861884236335754, -0.04262915626168251, 0.0882343202829361, -0.037920255213975906, 0.15462039411067963, -0.051563508808612823, 0.0690075010061264, 0.06498242914676666, 0.06474879384040833, -0.09984596818685532, 0.047705721110105515, 0.0707235038280487, -0.0038429496344178915, 0.09850969910621643, 0.10501858592033386, -0.13879016041755676, -0.034909918904304504, 0.16540037095546722, -0.04383910819888115, -0.00629848800599575, -0.09494384378194809, -0.0888482928276062, 0.043904583901166916, 0.1310499906539917, 0.1742638200521469, 0.10511310398578644, 0.15778742730617523], [0.05913478881120682, -0.02992790751159191, -0.13476890325546265, -0.05475585535168648, 0.07394683361053467, 0.03552810847759247, -0.1396298110485077, 0.15637873113155365, -0.1751231849193573, -0.05791204422712326, -0.08124961704015732, -0.11372477561235428, 0.1761741042137146, 0.15192796289920807, 0.13844594359397888, 0.17641958594322205, -0.006863487884402275, 0.1670042872428894, 0.014476872980594635, 0.13924726843833923, -0.15044575929641724, 0.04410218819975853, 0.038775037974119186, -0.12080764025449753, -0.08244431018829346, 0.06739253550767899, 0.09616066515445709, -0.16389460861682892, 0.12770040333271027, 0.09469149261713028, 0.17246705293655396, -0.09011343866586685], [0.12166901677846909, 0.14533676207065582, 0.09510122239589691, -0.09331811219453812, -0.15220198035240173, 0.10194876044988632, 0.12661117315292358, 0.05999163165688515, 0.0755515769124031, 0.160975843667984, -0.08748874068260193, -0.05621729791164398, 0.15269143879413605, 0.09013834595680237, 0.10766616463661194, 0.06707249581813812, 0.053221628069877625, -0.13933667540550232, 0.06992889195680618, 0.07688561081886292, 0.11785478889942169, 0.058380547910928726, 0.13260290026664734, -0.011622941121459007, -0.013359981589019299, -0.03139267861843109, 0.08805245906114578, -0.1482604444026947, -0.1656755656003952, 0.12337178736925125, -0.1480088084936142, -0.06895799934864044], [-0.0910852774977684, 0.1763211339712143, 0.1011740118265152, -0.12201398611068726, -0.10603073984384537, 0.16716523468494415, 0.15946783125400543, 0.16345952451229095, 0.09301915019750595, -0.07923101633787155, 0.04914366826415062, 0.016851510852575302, -0.12236818671226501, 0.17561301589012146, 0.10591351240873337, -0.09102600067853928, 0.05493997409939766, 0.16748683154582977, -0.14054739475250244, 0.11741677671670914, 0.07157287001609802, 0.07842765748500824, -0.16776467859745026, -0.11653647571802139, 0.13133849203586578, -0.1617880016565323, 0.04915180057287216, -0.011532346718013287, 0.06985939294099808, 0.02159174531698227, 0.14466941356658936, 0.17157043516635895], [-0.0026263175532221794, -0.13012219965457916, 0.04190056398510933, -0.016524747014045715, -0.04497123509645462, 0.03284604847431183, -0.012069908902049065, -0.15766729414463043, -0.04484378173947334, 0.032281745225191116, 0.06424812972545624, -0.004457914270460606, 0.17615607380867004, -0.12689954042434692, 0.15475547313690186, 0.020334146916866302, 0.020776204764842987, 0.002237028209492564, 0.12795011699199677, -0.08532565832138062, -0.0825764611363411, 0.003798084333539009, 0.056818291544914246, -0.15468531847000122, -0.12731367349624634, -0.061281051486730576, 0.0034954699221998453, 0.17471307516098022, 0.1732110232114792, -0.16754192113876343, 0.013598975725471973, -0.15279869735240936], [0.04014510288834572, -0.1142137199640274, -0.02232404798269272, 0.023967627435922623, -0.0512007474899292, -0.07377786934375763, 0.10502665489912033, 0.07925467938184738, -0.08726968616247177, 0.05280662700533867, 0.16560493409633636, 0.06545203179121017, -0.1631304770708084, 0.17195266485214233, 0.17320993542671204, -0.1351010948419571, -0.13597646355628967, 0.16188286244869232, 0.09274131804704666, -0.09249886870384216, 0.09888365119695663, 0.11363770067691803, 0.14844056963920593, -0.13742709159851074, 0.16219228506088257, -0.11759644746780396, -0.010120722465217113, -0.02412392757833004, 0.16420841217041016, -0.10201661288738251, 0.14572101831436157, 0.11968842893838882], [-0.15059210360050201, 0.17259003221988678, 0.03914249315857887, -0.148487389087677, 0.1757151186466217, -0.022242113947868347, -0.06761675328016281, 0.1504579484462738, 0.040144409984350204, 0.08333698660135269, 0.09546680748462677, -0.047361698001623154, 0.12025625258684158, 0.16522058844566345, 0.06300584971904755, -0.005840963218361139, -0.02526644431054592, 0.02145257778465748, -0.039484452456235886, -0.11695022881031036, -0.061429936438798904, -0.10844521224498749, 0.027793969959020615, -0.06710948050022125, -0.0442948192358017, 0.03062562830746174, 0.1313309520483017, -0.0033530767541378736, 0.02847607433795929, 0.14720404148101807, -0.07236331701278687, 0.09996168315410614], [-0.04323314130306244, -0.010634450241923332, -0.14752867817878723, -0.05929216369986534, -0.09313667565584183, -0.04298529773950577, 0.1330374926328659, 0.07193994522094727, 0.06024225801229477, 0.0038890792056918144, 0.15391552448272705, 0.0045827110297977924, 0.04274784028530121, 0.17143645882606506, -0.1036967784166336, -0.17201367020606995, -0.07672559469938278, 0.1070781946182251, 0.03167731687426567, 0.0059089879505336285, 0.15976810455322266, 0.14160647988319397, 0.09933318942785263, -0.0749153271317482, -0.16241097450256348, -0.06117307394742966, 0.005813841708004475, -0.16371512413024902, -0.1252896636724472, -0.17663811147212982, -0.10958201438188553, -0.13575932383537292], [-0.020611872896552086, 0.1610708236694336, 0.15605264902114868, 0.0797828882932663, 0.15278522670269012, 0.009503797627985477, -0.16807885468006134, 0.04567445442080498, -0.1029127836227417, 0.04541561007499695, -0.07668132334947586, 0.14544734358787537, 0.1529044806957245, -0.14115700125694275, 0.12181248515844345, -0.048783544450998306, -0.1630544811487198, 0.15601907670497894, 0.10996241122484207, 0.009040056727826595, -0.05174962803721428, -0.0005912781343795359, 0.08395439386367798, -0.007104251533746719, -0.03705224394798279, 0.12635092437267303, -0.16125917434692383, 0.13609373569488525, -0.059585463255643845, -0.01794126071035862, -0.06365682929754257, 0.049722302705049515], [-0.0143651207908988, 0.07782366871833801, -0.09960391372442245, -0.1476963311433792, 0.09787195920944214, -0.09944268316030502, -0.12907914817333221, 0.054700203239917755, -0.16604119539260864, 0.06950217485427856, -0.016630956903100014, -0.15203508734703064, -0.16911298036575317, 0.061207253485918045, 0.1282035857439041, -0.13062125444412231, -0.08223427087068558, -0.03426578640937805, -0.14175251126289368, 0.07965847104787827, -0.1511184275150299, 0.1325753927230835, 0.10020994395017624, -0.10434450954198837, -0.06954645365476608, 0.1060507595539093, -0.008748147636651993, -0.0343366377055645, -0.15884380042552948, -0.15399309992790222, 0.17621493339538574, -0.17385058104991913], [0.07241831719875336, -0.020938321948051453, -0.05655032396316528, 0.09357251226902008, 0.022069774568080902, 0.17638221383094788, -0.01716518960893154, -0.14096426963806152, -0.1585383117198944, -0.11131102591753006, 0.02783089131116867, 0.0816473588347435, -0.1680547595024109, -0.04262487590312958, -0.04480734467506409, 0.08912437409162521, -0.06679464131593704, -0.08225924521684647, -0.08670049160718918, 0.076569102704525, -0.010860757902264595, 0.1338406801223755, -0.15923291444778442, 0.12244044989347458, -0.11126034706830978, -0.13347552716732025, -0.04942866414785385, -0.0798703208565712, -0.029612375423312187, -0.1155385673046112, 0.1209736317396164, -0.03419101983308792], [-0.11128999292850494, 0.1074090301990509, -0.1726779341697693, -0.049244776368141174, 0.058193713426589966, -0.053377170115709305, 0.07120440155267715, -0.04150256887078285, 0.1455429494380951, 0.01551840640604496, -0.15348510444164276, 0.157492995262146, 0.07383379340171814, -0.055059123784303665, -0.10277300328016281, -0.10253500193357468, -0.06627389788627625, -0.09395063668489456, -0.17398621141910553, -0.07563038915395737, -0.1413712054491043, -0.13128836452960968, -0.12516196072101593, -0.12969692051410675, -0.09061728417873383, 0.04607588052749634, 0.11457258462905884, -0.07677048444747925, -0.0662495344877243, -0.009471766650676727, -0.1502404510974884, -0.018958158791065216], [0.14198364317417145, -0.14624391496181488, 0.017593547701835632, 0.06988457590341568, 0.1493966281414032, -0.06350699812173843, -0.05150863155722618, 0.14877508580684662, -0.0924527570605278, -0.05793878808617592, -0.11602690070867538, -0.019362198188900948, 0.17395253479480743, 0.07949523627758026, 0.05332733318209648, 0.051950857043266296, -0.14073799550533295, -0.1568053811788559, 0.0287192203104496, -0.08244048058986664, 0.03200271353125572, 0.03667974844574928, -0.0052544898353517056, 0.07368944585323334, -0.03806522116065025, -0.059583630412817, 0.14006198942661285, 0.05458943918347359, 0.0546128936111927, -0.1279287338256836, 0.04352361708879471, 0.03439730778336525], [-0.002059842925518751, -0.07149586826562881, -0.034105103462934494, 0.10945609956979752, -0.16304978728294373, -0.10661980509757996, -0.17561304569244385, 0.13097314536571503, 0.019802970811724663, 0.14453205466270447, 0.12567585706710815, 0.06079676374793053, -0.0216133464127779, -0.04733067750930786, -0.06400074809789658, -0.14105983078479767, -0.142915278673172, -0.036169372498989105, -0.17470243573188782, 0.04555804654955864, 0.14953945577144623, 0.022247403860092163, 0.03611304238438606, 0.0068840342573821545, 0.0651518851518631, 0.006230547558516264, -0.015416220761835575, 0.10379708558320999, 0.02844480238854885, -0.07928989827632904, 0.16988307237625122, 0.06533277779817581], [-0.15147697925567627, 0.11997266858816147, -0.15203891694545746, 0.0955234244465828, 0.14442235231399536, -0.07659824937582016, -0.15264753997325897, -0.0355478934943676, -0.12363187968730927, -0.1627591997385025, -0.05587538331747055, 0.12947146594524384, -0.07952400296926498, -0.04753934592008591, -0.1208028569817543, -0.010473828762769699, -0.012030143290758133, -0.07853270322084427, 0.06543508917093277, 0.15511904656887054, -0.0536339096724987, -0.12326636165380478, -0.06522336602210999, 0.1360107809305191, -0.12112997472286224, 0.016604255884885788, -0.015273532830178738, 0.15261973440647125, -0.011805564165115356, 0.05467737838625908, 0.14884310960769653, -0.03846529871225357], [-0.1609746217727661, 0.06541182100772858, -0.059817273169755936, -0.022026363760232925, -0.06157361716032028, 0.14417611062526703, 0.023637890815734863, -0.07282024621963501, 0.17376677691936493, -0.13480053842067719, -0.06638531386852264, 0.08700356632471085, 0.013366556726396084, 0.047337356954813004, -0.01828005723655224, 0.022011907771229744, -0.0629395917057991, 0.1308349370956421, -0.11296927183866501, -0.1569586992263794, 0.05251680687069893, -0.1760198473930359, -0.06802884489297867, -0.1146630048751831, -0.060134533792734146, -0.01952425390481949, -0.17081506550312042, 0.1637173444032669, 0.09520871937274933, -0.07741302996873856, -0.03578971326351166, -0.15194180607795715], [-0.09794086962938309, -0.15711070597171783, 0.049318764358758926, 0.13263024389743805, 0.1301138699054718, 0.08799427002668381, -0.04139033332467079, 0.14751972258090973, 0.1503543108701706, 0.03397674486041069, -0.09686226397752762, -0.11905711144208908, -0.1434093862771988, 0.11185178905725479, -0.122243732213974, -0.02893119864165783, -0.1504976451396942, 0.023373018950223923, 0.054069600999355316, 0.010419290512800217, -0.1428263783454895, -0.07130810618400574, -0.09810139983892441, 0.13947048783302307, -0.1731499284505844, 0.052490778267383575, 0.044749923050403595, 0.065442755818367, 0.10457079857587814, 0.02239512838423252, 0.09676452726125717, 0.17441275715827942], [0.06498782336711884, 0.008119168691337109, -0.1471133828163147, 0.13419578969478607, -0.16204409301280975, 0.0594324916601181, 0.0010631963377818465, -0.08743397146463394, 0.09889635443687439, 0.0055663553066551685, 0.14100714027881622, -0.17339952290058136, 0.0742604061961174, -0.06421438604593277, -0.08856201171875, 0.14557954668998718, -0.0770823284983635, 0.043724425137043, 0.041251394897699356, -0.10015054047107697, -0.1708071231842041, 0.049579277634620667, 0.11787424236536026, 0.166929230093956, -0.044641077518463135, -0.15325123071670532, -0.06858927756547928, 0.13069424033164978, 0.019395725801587105, -0.13291285932064056, 0.0783863291144371, -0.13299454748630524], [0.013793188147246838, 0.08661434054374695, -0.16028179228305817, 0.03921743109822273, -0.038571614772081375, -0.12356022745370865, 0.15323424339294434, 0.054301533848047256, -0.1232924684882164, -0.11702632904052734, 0.04637666419148445, 0.11215870827436447, 0.17459936439990997, -0.013120840303599834, -0.15569891035556793, 0.09686310589313507, -0.10722630470991135, 0.026541367173194885, -0.09242597222328186, -0.08874117583036423, -0.012473381124436855, -0.02615266665816307, -0.018571102991700172, -0.008061596192419529, 0.0020920641254633665, 0.10637401044368744, -0.02562020532786846, 0.05768318846821785, 0.10511545836925507, 0.08029069006443024, -0.13096792995929718, -0.13676698505878448], [-0.13882720470428467, -0.1590198278427124, -0.12581343948841095, -0.11091990023851395, -0.014766337350010872, 0.04679073393344879, 0.12276411801576614, -0.11312945187091827, -0.09750235080718994, 0.13901227712631226, -0.03389205038547516, -0.02275244891643524, -0.10382837802171707, -0.006249471567571163, 0.16975374519824982, -0.11416050791740417, -0.014264094643294811, -0.03623299300670624, 0.010211654007434845, -0.1686582863330841, 0.06139341741800308, 0.008558950386941433, -0.09496331959962845, 0.07235423475503922, -0.07706763595342636, -0.07554006576538086, 0.08605022728443146, 0.12559284269809723, -0.05365902930498123, 0.16373662650585175, -0.11514697968959808, -0.022330284118652344], [-0.05919014662504196, -0.11356468498706818, -0.0966840460896492, 0.07816720753908157, -0.11274825781583786, 0.10873644053936005, 0.10658008605241776, -0.06842505186796188, -0.06649253517389297, 0.0459124781191349, -0.1523568481206894, 0.04308706149458885, -0.03274879604578018, -0.15089315176010132, 0.11409469693899155, -0.161088764667511, -0.043182648718357086, 0.08006790280342102, 0.05582088604569435, -0.03432070463895798, 0.14362111687660217, -0.08352314680814743, 0.14347082376480103, 0.09280715137720108, -0.10118048638105392, 0.14834916591644287, 0.011271373368799686, 0.048375099897384644, 0.14906606078147888, -0.025102978572249413, -0.12251272797584534, -0.12424551695585251], [-0.07251574099063873, 0.15009568631649017, -0.1690710484981537, 0.002255846746265888, -0.17131242156028748, 0.046884067356586456, -0.08201213926076889, 9.544153726892546e-05, -0.016603918746113777, -0.07009290158748627, -0.021532170474529266, -0.16945074498653412, -0.016866641119122505, 0.0878012403845787, 0.12189949303865433, -0.04516540467739105, -0.050045885145664215, 0.0672094076871872, -0.05955071374773979, 0.07097577303647995, -0.02943677082657814, -0.11849099397659302, 0.012733490206301212, 0.1655251681804657, -0.08517567813396454, 0.11198759078979492, 0.12565664947032928, 0.10818716138601303, 0.009707051329314709, -0.019857866689562798, -0.14968107640743256, 0.07089652121067047], [-0.14325152337551117, 0.07166388630867004, 0.13215333223342896, 0.03514077886939049, 0.023993778973817825, -0.008747683838009834, -0.17369483411312103, 0.03397328779101372, 0.09393183887004852, -0.14751066267490387, 0.1247422993183136, -0.006645630579441786, -0.05524676293134689, 0.06931854039430618, 0.05098976194858551, 0.06996677815914154, -0.041584230959415436, 0.11811879277229309, 0.15853500366210938, 0.1542692631483078, -0.10925786197185516, -0.012444657273590565, 0.038898106664419174, -0.14100141823291779, 0.07188159972429276, -0.09122565388679504, 0.034087885171175, -0.1363842487335205, 0.16282086074352264, -0.17129206657409668, -0.02069302834570408, 0.1144312396645546], [-0.16401197016239166, -0.005845894105732441, -0.1542382836341858, -0.037222642451524734, -0.011229648254811764, -0.13158157467842102, -0.019690563902258873, -0.11846242100000381, 0.1101895421743393, 0.14798396825790405, 0.03592551127076149, -0.07773666083812714, 0.02170984074473381, 0.0030843063723295927, 0.15946896374225616, -0.04247491806745529, -0.13441811501979828, 0.025726668536663055, 0.16784094274044037, 0.0460222065448761, 0.16024746000766754, -0.12522070109844208, -0.014783913269639015, 0.056001611053943634, -0.07526105642318726, 0.13457800447940826, -0.011471571400761604, -0.0699903592467308, -0.06857699155807495, -0.04280901700258255, 0.11149636656045914, 0.10444410145282745], [-0.10952410846948624, -0.12816251814365387, 0.08257871866226196, -0.14767560362815857, -0.11093469709157944, 0.15868410468101501, 0.056428223848342896, -0.02206309512257576, 0.14439179003238678, -0.17607901990413666, 0.001763150212354958, -0.12018047273159027, -0.023243101313710213, 0.055956095457077026, 0.1424071192741394, 0.14886344969272614, 0.04304423928260803, -0.1447700560092926, -0.006446529179811478, 0.06248164921998978, -0.015501989983022213, 0.08214215934276581, -0.02627234347164631, -0.17273588478565216, -0.06006084010004997, 0.024776382371783257, -0.00480393972247839, 0.08826888352632523, -0.09483803808689117, -0.1461934894323349, -0.027168573811650276, -0.13866408169269562], [-0.017223140224814415, -0.17296351492404938, -0.09509321302175522, 0.0693180114030838, 0.13944296538829803, 0.14398667216300964, 0.03928225114941597, 0.03156866505742073, -0.008549867197871208, 0.03237592428922653, -0.020987169817090034, -0.027469439432024956, -0.14742058515548706, 0.14399896562099457, 0.17064011096954346, 0.11744659394025803, 0.026343464851379395, 0.11563440412282944, 0.15008127689361572, -0.1310669630765915, 0.019186129793524742, -0.02259591594338417, -0.11131448298692703, 0.011997669003903866, -0.011668565683066845, 0.09736596047878265, 0.17633993923664093, 0.11173348873853683, -0.038826942443847656, 0.1351458728313446, 0.11108136922121048, 0.04472503438591957], [0.04428265988826752, -0.034754861146211624, -0.0729120671749115, 0.05153489112854004, 0.16792446374893188, 0.08768424391746521, -0.004504465498030186, -0.10530345886945724, 0.04996062070131302, 0.12139284610748291, 0.07364297658205032, 0.056863706558942795, 0.1311248540878296, -0.07952151447534561, 0.08419479429721832, 0.03534499928355217, -9.666379628470168e-05, 0.04723759740591049, 0.06505629420280457, -0.1551029533147812, 0.12580040097236633, -0.09699410200119019, -0.03391061723232269, 0.0014611257938668132, 0.1683119386434555, 0.10749776661396027, -0.016304804012179375, 0.05936573073267937, -0.03223570063710213, 0.10708007216453552, 0.1405285894870758, 0.15846018493175507], [-0.056192222982645035, 0.12711367011070251, -0.16001339256763458, 0.08015508949756622, 0.07439746707677841, -0.1447378545999527, 0.14073869585990906, -0.16396626830101013, 0.005562878213822842, 0.05757666006684303, 0.00843107607215643, 0.09993249177932739, 0.0428701713681221, -0.036078080534935, -0.17268817126750946, 0.07905592024326324, 0.0054830522276461124, -0.051981836557388306, -0.11642493307590485, 0.030057381838560104, -0.04550028219819069, -0.13201917707920074, -0.12835600972175598, -0.09657562524080276, -0.12692192196846008, 0.16101323068141937, 0.14479412138462067, 0.08736807852983475, 0.1444692611694336, 0.08631879091262817, -0.05676187947392464, -0.0047631836496293545], [-0.04072175920009613, -0.11054245382547379, -0.12349159270524979, -0.013786781579256058, 0.1535794734954834, -0.05977790802717209, -0.002134021371603012, 0.15306492149829865, -0.059679221361875534, 0.10877157002687454, -0.13938994705677032, 0.07091759145259857, -0.1340121179819107, 0.09573983401060104, -0.09124288707971573, -0.11341135203838348, -0.17202511429786682, -0.10315626114606857, 0.043429333716630936, 0.09781178832054138, 0.037564873695373535, 0.07905030995607376, -0.020194703713059425, -0.03400133550167084, 0.14142969250679016, 0.03570617735385895, -0.0997200757265091, 0.07911867648363113, 0.15448300540447235, -0.10025832802057266, 0.1328892707824707, 0.13870209455490112], [0.10147405415773392, -0.17051485180854797, -0.10256540775299072, 0.07010851800441742, 0.09169038385152817, 0.14164583384990692, 0.1703510880470276, -0.12187997996807098, 0.13237522542476654, -0.008527128957211971, -0.004157154355198145, -0.12499459087848663, -0.1607632339000702, -0.14075909554958344, 0.17261794209480286, -0.1458243578672409, -0.023439843207597733, -0.07348658889532089, -0.08771093934774399, 0.11825340986251831, -0.06547487527132034, -0.14080803096294403, 0.05140724778175354, -0.06773898005485535, -0.05026310682296753, -0.16622255742549896, -0.0031867020297795534, -0.08164369314908981, -0.10997200012207031, -0.17587293684482574, 0.06572223454713821, 0.04375234618782997], [0.04059885814785957, -0.10353229939937592, -0.09753743559122086, -0.16726642847061157, -0.16060853004455566, 0.06609746813774109, 0.009911695495247841, -0.1065601035952568, 0.12452157586812973, -0.022240007296204567, -0.06846609711647034, 0.02318626642227173, 0.03596264123916626, 0.017688946798443794, -0.06356056779623032, -0.0542173907160759, 0.1402183324098587, 0.05864044651389122, 0.07555346935987473, 0.09348836541175842, 0.025417057797312737, 0.033914219588041306, -0.12012165784835815, -0.011304901912808418, -0.09429469704627991, 0.06092461571097374, 0.10397329926490784, 0.03709036484360695, 0.014034247025847435, 0.06608022749423981, 0.17600753903388977, -0.026157662272453308], [0.0010696658864617348, -0.03804410621523857, 0.016948385164141655, -0.05030142143368721, 0.014298634603619576, -0.14507289230823517, 0.1570408195257187, 0.07573997229337692, 0.020070286467671394, 0.09071312099695206, -0.12441488355398178, 0.16671040654182434, 0.0359332449734211, -0.15902048349380493, -0.12508350610733032, 0.007713484112173319, 0.04162987321615219, -0.05283231660723686, 0.16597072780132294, -0.056972358375787735, -0.0321027897298336, -0.020423687994480133, -0.16907083988189697, 0.1001763567328453, -0.06637255847454071, 0.033869668841362, -0.004288779105991125, -0.01833636499941349, 0.09344348311424255, -0.17310909926891327, -0.11637916415929794, -0.08334421366453171], [-0.0638088509440422, 0.06230543181300163, -0.13716961443424225, 0.0328860878944397, -0.17307089269161224, -0.11814800649881363, 0.05574900656938553, -0.13298462331295013, 0.03505437448620796, 0.13755768537521362, -0.012199489399790764, 0.07745540887117386, 0.022702926769852638, 0.0900828167796135, 0.10741092264652252, 0.005068980157375336, 0.06603170186281204, -0.15861304104328156, 0.045018985867500305, 0.10460533946752548, -0.07596258819103241, -0.13338467478752136, 0.1654961258172989, 0.021241042762994766, 0.055124178528785706, 0.054275911301374435, 0.0141050536185503, 0.00369585701264441, 0.15609799325466156, 0.10920296609401703, 0.04120374843478203, -0.07749370485544205], [-0.14276863634586334, -0.15180179476737976, 0.16315512359142303, 0.0787198394536972, 0.06239457428455353, 0.12770187854766846, -0.08337889611721039, -0.07647714018821716, -0.1363854855298996, 0.10655026882886887, -0.13866491615772247, 0.08440498262643814, -0.12399246543645859, -0.15031000971794128, 0.07484352588653564, 0.011418086476624012, -0.056249476969242096, -0.1403355598449707, -0.15800246596336365, -0.013097976334393024, -0.011913017369806767, -0.1689256876707077, 0.06958256661891937, -0.010955926030874252, 0.04986364021897316, -0.09170576930046082, -0.06461162120103836, 0.09484739601612091, 0.08749455958604813, 0.12806729972362518, 0.09065860509872437, 0.13152003288269043], [-0.07760166376829147, -0.08397573977708817, -0.09808149188756943, 0.1129046231508255, -0.03431301191449165, 0.13653989136219025, -0.12777109444141388, -0.1601564586162567, -0.10460974276065826, 0.03258804976940155, 0.006495798472315073, 0.03840334340929985, -0.08452440798282623, -0.1431303173303604, -0.003699966473504901, 0.015046782791614532, -0.004022432025521994, 0.11357494443655014, 0.004786975681781769, -0.08186226338148117, 0.09152229875326157, 0.12865124642848969, 0.02728378213942051, 0.06518679857254028, 0.10852617025375366, 0.16376185417175293, -0.14394739270210266, 0.027358677238225937, 0.17389117181301117, 0.0642394870519638, 0.09119492769241333, -0.14327695965766907], [0.056547392159700394, 0.15053249895572662, 0.09388966858386993, -0.0043225595727562904, -0.07706882059574127, 0.04442659020423889, 0.022421490401029587, -0.02967308834195137, 0.141993910074234, -0.1074281856417656, -0.12393556535243988, 0.036846648901700974, 0.16293855011463165, 0.16086001694202423, -0.16565082967281342, -0.15457099676132202, -0.16701927781105042, 0.049046456813812256, -0.029879501089453697, 0.1073252409696579, -0.11213567107915878, 0.12417984753847122, -0.005006582010537386, 0.10447604954242706, -0.032335229218006134, 0.17450177669525146, 0.1283443570137024, -0.041664984077215195, -0.14065073430538177, 0.00786550808697939, -0.014334795996546745, -0.13036930561065674], [0.08247575163841248, -0.1205710917711258, 0.03442874923348427, 0.049262456595897675, -0.13239997625350952, 0.16812892258167267, 0.1311810165643692, -0.0444856621325016, 0.013099725358188152, 0.011096569709479809, 0.04949110373854637, 0.1587168127298355, 0.11856900900602341, -0.1445578932762146, 0.020547157153487206, -0.10305897146463394, -0.00711261760443449, 0.15837617218494415, 0.06506695598363876, 0.0048057944513857365, -0.09825041145086288, 0.08454497158527374, 0.11561913043260574, -0.004984791856259108, 0.11188095808029175, 0.012353283353149891, -0.02999293990433216, -0.16805964708328247, 0.123994380235672, -0.03293236717581749, 0.040135495364665985, -0.1605093777179718], [0.011810052208602428, 0.06790599226951599, -0.054617129266262054, 0.17330282926559448, -0.013293895870447159, -0.15707409381866455, -0.07405892014503479, 0.16723795235157013, -0.151118665933609, 0.14955830574035645, -0.05382439121603966, 0.17125412821769714, -0.10998464375734329, 0.11562587320804596, 0.09339292347431183, 0.16989253461360931, 0.173322394490242, 0.14720337092876434, 0.07639472186565399, -0.06295552849769592, -0.14565598964691162, -0.13636180758476257, -0.03288046270608902, -0.07587342709302902, -0.14862072467803955, 0.02343006432056427, -7.438918601110345e-06, 0.14486218988895416, -0.0009593254653736949, -0.03373876214027405, 0.05219845101237297, 0.06318063288927078], [-0.09389940649271011, 0.13723041117191315, -0.17367316782474518, 0.10613881051540375, 0.09327929466962814, 0.16500872373580933, 0.025992698967456818, -0.1092134416103363, 0.0035833672154694796, 0.0009720538510009646, 0.02189311757683754, 0.09247509390115738, -0.045351166278123856, 0.0649445429444313, 0.14887735247612, -0.12663595378398895, -0.15277764201164246, -4.096673728781752e-05, 0.018515300005674362, -0.04076862335205078, 0.16534166038036346, 0.03331267833709717, -0.1645837128162384, 0.056926336139440536, 0.053564850240945816, 0.0014167241752147675, 0.058597709983587265, -0.16499707102775574, 0.061130400747060776, 0.03702707961201668, 0.11766702681779861, 0.153063103556633], [0.11957558244466782, -0.1205739974975586, 0.15228913724422455, -0.11176109313964844, -0.018182488158345222, -0.05655864626169205, -0.12889748811721802, -0.11695246398448944, -0.11954300105571747, 0.018895316869020462, -0.034310486167669296, 0.008439864031970501, 0.08317619562149048, 0.10102344304323196, 0.023473644629120827, 0.0890350267291069, -0.13501155376434326, -0.08687110245227814, 0.11582339555025101, 0.08233412355184555, 0.04788486659526825, -0.0012616869062185287, 0.05954470857977867, 0.08105035126209259, -0.1656906008720398, -0.10977325588464737, 0.07227075845003128, -0.10898633301258087, -0.040773406624794006, -0.12543368339538574, -0.034586187452077866, 0.10054686665534973], [0.1259503811597824, -0.1536536067724228, -0.1484365016222, -0.06259957700967789, -0.09820567816495895, -0.09194252640008926, -0.09181227535009384, 0.07957252860069275, -0.07967937737703323, 0.026323087513446808, 0.11654184758663177, -0.09340569376945496, -0.14873163402080536, 0.17087796330451965, 0.028128448873758316, -0.010037419386208057, -0.07393916696310043, -0.15853548049926758, 0.027715366333723068, -0.04254559800028801, -0.0660889744758606, -0.016613570973277092, -0.1029735803604126, 0.11487313359975815, -0.02358417399227619, 0.14018778502941132, 0.06912443041801453, -0.13338012993335724, -0.1294875144958496, 0.1322239488363266, -0.16889674961566925, 0.050953030586242676], [0.08244521915912628, -0.019935479387640953, 0.1427501142024994, 0.06885091960430145, 0.13628442585468292, -0.172135591506958, 0.07374671846628189, -0.11356421560049057, 0.08991990238428116, 0.11451151221990585, 0.08818013966083527, -0.1510423719882965, 0.1743893325328827, -0.16169098019599915, -0.14081932604312897, -0.005523175932466984, 0.10443251579999924, -0.12720534205436707, 0.03616325929760933, -0.16807597875595093, 0.15037758648395538, 0.06809908896684647, -0.12414025515317917, 0.04370463639497757, 0.12688636779785156, 0.059954628348350525, -0.023496130481362343, 0.1544838696718216, -0.03352655470371246, 0.15747101604938507, 0.06232861429452896, 0.03989437222480774], [0.011966628022491932, 0.1670914888381958, 0.07795360684394836, 0.0009743719128891826, 0.07700608670711517, 0.16518476605415344, -0.14460010826587677, 0.12982289493083954, 0.156828373670578, 0.06501088291406631, -0.12737281620502472, 0.010011435486376286, 0.1362648755311966, 0.14952759444713593, -0.03784533962607384, 0.14623424410820007, 0.17498958110809326, 0.17675520479679108, 0.05245767533779144, -0.04039665684103966, 0.11553321033716202, 0.1646452695131302, -0.07916195690631866, -0.028238872066140175, 0.04551231488585472, -0.11041422188282013, -0.01165339257568121, -0.05375052988529205, -0.14821632206439972, -0.08680236339569092, 0.16141454875469208, 0.0505392961204052], [-0.11820913851261139, 0.057903215289115906, -0.12544132769107819, -0.028109481558203697, 0.08094274997711182, -0.13405829668045044, 0.0427144393324852, -0.11951840668916702, -0.09667974710464478, 0.07025038450956345, 0.13096781075000763, 0.015810651704669, -0.04000121355056763, 0.09160509705543518, -0.08379612863063812, -0.15117886662483215, -0.022386087104678154, -0.0159357450902462, 0.09256277978420258, -0.09509684145450592, 0.16141729056835175, 0.0682414174079895, -0.12263883650302887, 0.13129590451717377, 0.15653233230113983, -0.023156236857175827, 0.04883302375674248, -0.012944751419126987, 0.03077324666082859, 0.033219724893569946, 0.031543880701065063, -0.017886299639940262], [0.00017646884953137487, -0.06487664580345154, 0.10244821757078171, -0.06236892566084862, 0.10084237903356552, 0.12305252999067307, 0.15059548616409302, -0.03323401138186455, -0.08390198647975922, 0.16852214932441711, -0.12991712987422943, -0.13907624781131744, -0.02346833422780037, -0.06906422972679138, -0.06208852306008339, -0.17073646187782288, 0.009178023785352707, -0.12902243435382843, 0.014493142254650593, 0.12182902544736862, -0.15540409088134766, -0.047416552901268005, -0.1595393419265747, -0.10657089948654175, -0.1347348988056183, -0.02189374901354313, -0.17247377336025238, -0.06801873445510864, -0.03970757871866226, 0.15594354271888733, 0.0531884990632534, -0.16904963552951813], [-0.07716565579175949, 0.11359982937574387, 0.14614327251911163, -0.07027594745159149, 0.04065826162695885, 0.0026179093401879072, 0.08224603533744812, -0.17498603463172913, 0.010918899439275265, 0.12131062150001526, -0.02782147191464901, 0.005599229596555233, -0.13620969653129578, -0.09656171500682831, 0.13774344325065613, -0.024262381717562675, -0.122451551258564, -0.011915587820112705, -0.04663805663585663, -0.0518014058470726, -0.04957057163119316, 0.15218320488929749, 0.11281373351812363, -0.14180341362953186, -0.12399265170097351, -0.12371952086687088, -0.15197980403900146, -0.15751096606254578, 0.11958921700716019, 0.1114393025636673, 0.11274043470621109, 0.11532673239707947], [0.1555199921131134, 0.13279792666435242, 0.1435505896806717, -0.14164714515209198, -0.1411752700805664, -0.13205160200595856, 0.003915146924555302, 0.08954624831676483, 0.08597619831562042, -0.03980984538793564, -0.030960358679294586, 0.08410610258579254, -0.1163652315735817, 0.13838909566402435, 0.11050695180892944, -0.0002124622551491484, -0.10581789910793304, 0.052449580281972885, -0.12980224192142487, -0.08313410729169846, -0.13937710225582123, -0.1217338964343071, -0.12464340031147003, -0.048291921615600586, 0.1129734218120575, 0.11913413554430008, -0.03030918911099434, -0.15982946753501892, 0.15339124202728271, -0.09122046828269958, -0.007005628198385239, 0.03132937476038933], [0.053498003631830215, -0.16723917424678802, 0.04125889763236046, 0.08113447576761246, 0.024851741269230843, -0.1564205288887024, 0.020090516656637192, 0.035251434892416, -0.16373613476753235, 0.11407484859228134, 0.007457421161234379, 0.06803906708955765, 0.051772914826869965, -0.1480816900730133, -0.033193908631801605, 0.08640477061271667, 0.14498600363731384, 0.08104284852743149, -0.11326305568218231, -0.14298735558986664, -0.0294012613594532, -0.1758158951997757, -0.12709037959575653, -0.17311039566993713, 0.0980433002114296, -0.10956098139286041, -0.06237659603357315, 0.02335755154490471, 0.1586020290851593, 0.034311097115278244, 0.13614003360271454, 0.08482693880796432], [-0.08530926704406738, 0.17561326920986176, -0.012409422546625137, 0.09248732030391693, 0.10002083331346512, -0.11170431971549988, 0.17169727385044098, -0.05309980362653732, -0.08199095726013184, 0.09601393342018127, 0.08745241165161133, 0.05306825414299965, 0.1447886824607849, -0.07085917890071869, 0.12875212728977203, 0.013738923706114292, 0.07529810070991516, 0.10599379986524582, -0.12586349248886108, -0.12646342813968658, 0.0594097338616848, -0.15194936096668243, -0.16179794073104858, -0.1100594773888588, -0.03209798410534859, -0.15604406595230103, -0.07463311403989792, 0.021775105968117714, -0.065760038793087, -0.17306844890117645, 0.14979350566864014, -0.0883031040430069], [-0.013331343419849873, 0.03391902521252632, 0.08805625140666962, -0.13381046056747437, -0.015219016000628471, 0.018579384312033653, -0.06991192698478699, 0.0843963623046875, -0.08906975388526917, -0.05180111154913902, 0.045311275869607925, 0.11882709711790085, 0.11536972224712372, -0.015172486193478107, -0.06929249316453934, -0.11885824054479599, -0.06730935722589493, 0.10559703409671783, 0.1071288138628006, 0.09335163980722427, 0.14487908780574799, 0.12896153330802917, 0.15420636534690857, 0.03558477386832237, -0.07256785035133362, -0.11141854524612427, 0.002187316073104739, 0.0028420884627848864, 0.08089486509561539, 0.0978567823767662, 0.12841632962226868, 0.0017958983080461621], [0.14402848482131958, -0.130660280585289, 0.17115262150764465, 0.026253798976540565, 0.011910657398402691, -0.15237018465995789, 0.03475753590464592, -0.07636673748493195, 0.015737107023596764, 0.1471136212348938, 0.09650226682424545, -0.1697770208120346, 0.16215653717517853, -0.053878843784332275, -0.011419372633099556, -0.01927126757800579, -0.07949890196323395, 0.06325717270374298, 0.11668900400400162, 0.004359417129307985, -0.03788752853870392, -0.04401812702417374, -0.13612161576747894, 0.04042474925518036, -0.17021192610263824, 0.04544728249311447, -0.13253778219223022, -0.08153347671031952, 0.0721706822514534, -0.12282581627368927, 0.02944439835846424, -0.17215405404567719], [-0.01827194355428219, -0.03406929969787598, -0.08950745314359665, 0.004468830302357674, -0.08079648017883301, 0.04530739784240723, -0.1483040153980255, 0.14922262728214264, -0.11472169309854507, 0.0874263197183609, -0.15151536464691162, -0.07107573002576828, 0.0358407087624073, 0.15834155678749084, 0.08191873878240585, -0.14636091887950897, 0.15760059654712677, -0.11824163049459457, -0.08556762337684631, 0.06441307067871094, 0.05544750764966011, -0.15428853034973145, -0.0748923122882843, 0.015798114240169525, 0.10057103633880615, -0.15868665277957916, -0.07569283246994019, -0.03559661656618118, -0.10331109166145325, -0.09930115193128586, -0.05695236101746559, -0.15930311381816864], [-0.046488627791404724, 0.16591361165046692, 0.1710398942232132, -0.09637953341007233, 0.1359848827123642, 0.08864542096853256, 0.006342426408082247, 0.007848817855119705, 0.022125767543911934, -0.13153831660747528, -0.05651582404971123, 0.04720636457204819, -0.1695566177368164, 0.07001002132892609, -0.09614422917366028, 0.15333136916160583, -0.10775690525770187, -0.012630019336938858, 0.02265707030892372, 0.1580788791179657, -0.1228860467672348, -0.1763511598110199, 0.008211680687963963, 0.002778910333290696, -0.040607646107673645, -0.0477038249373436, 0.0572814866900444, 0.020976528525352478, -0.027017077431082726, 0.14860771596431732, 0.0605657584965229, 0.013968792743980885], [0.17107215523719788, -0.138811394572258, 0.10641457140445709, -0.13870571553707123, -0.12559248507022858, 0.09187677502632141, 0.0033293270971626043, 0.016668446362018585, 0.02805698849260807, 0.03749033808708191, -0.07422056049108505, 0.11468283832073212, -0.14294756948947906, 0.13093321025371552, -0.06269588321447372, -0.06789363920688629, 0.11326038092374802, 0.10241825133562088, -0.050646476447582245, 0.04916056618094444, 0.005689382087439299, 0.02660144679248333, 0.155270054936409, -0.13404880464076996, -0.05275624245405197, 0.023437483236193657, 0.04867259040474892, 0.13839805126190186, 0.17320550978183746, 0.07964896410703659, -0.1590888649225235, 0.13099300861358643], [0.053872544318437576, -0.1679282933473587, -0.020540941506624222, -0.06537526100873947, -0.12241539359092712, 0.17437440156936646, 0.14854466915130615, 0.1704310178756714, -0.050288163125514984, 0.06195458024740219, 0.05474985018372536, -0.10661875456571579, 0.13905878365039825, 0.14470870792865753, -0.11658412218093872, -0.008366929367184639, 0.12933434545993805, 0.1005888506770134, 0.10745696723461151, -0.023683220148086548, 0.1740126609802246, 0.015530312433838844, -0.1435452550649643, -0.09178709238767624, 0.0803784653544426, 0.06285355240106583, 0.08396396040916443, 0.06806667149066925, -0.07738129794597626, 0.07157714664936066, 0.17470112442970276, -0.08057396113872528], [-0.025782575830817223, -0.11135774850845337, -0.026130223646759987, 0.17223995923995972, 0.011932763271033764, 0.142052561044693, -0.02806716598570347, 0.061145760118961334, 0.07560082525014877, 0.07515920698642731, -0.13068348169326782, -0.028837209567427635, 0.16393594443798065, 0.08161671459674835, 0.0047051687724888325, 0.1731494665145874, -0.09146403521299362, -0.038603540509939194, 0.08314036577939987, 0.09442413598299026, 0.16782982647418976, -0.013161069713532925, -0.029427139088511467, -0.014887657947838306, -0.050973787903785706, 0.17062346637248993, 0.030190756544470787, -0.04995046183466911, 0.09400879591703415, -0.11126698553562164, 0.06603623181581497, -0.0984230488538742], [-0.11661360412836075, 0.012285974808037281, 0.15407469868659973, 0.14397592842578888, -0.1542452573776245, 0.05614183470606804, 0.13036249577999115, -0.06640134751796722, -0.014539987780153751, 0.037190359085798264, 0.13566070795059204, 0.11381250619888306, -0.16633227467536926, -0.01846417598426342, 0.16147688031196594, -0.08030493557453156, -0.139937162399292, 0.10214977711439133, 0.1382361203432083, 0.04898795485496521, -0.022117042914032936, -0.08981563150882721, 0.15837538242340088, -0.11675407737493515, -0.14201751351356506, -0.17099004983901978, -0.11522014439105988, 0.1335603892803192, -0.1134478896856308, -0.17443148791790009, -0.14111647009849548, -0.036678336560726166], [-0.06795315444469452, -0.1512623429298401, 0.13445042073726654, -0.1454886496067047, -0.060185085982084274, 0.16199199855327606, -0.0437081977725029, 0.06691247969865799, 0.06296543031930923, 0.06435669958591461, 0.16884762048721313, -0.012019100598990917, 0.01615910232067108, 0.014385772868990898, -0.01860785484313965, 0.1271958202123642, 0.05014979839324951, 0.10621429234743118, 0.007810443174093962, -0.07455290853977203, 0.15403631329536438, 0.1546294242143631, -0.15753015875816345, -0.08592625707387924, 0.1343851536512375, -0.136985644698143, -0.00039508455665782094, 0.12995874881744385, 0.1623573750257492, 0.021505028009414673, -0.10258007794618607, 0.1199130117893219], [0.09930355846881866, -0.16591055691242218, 0.011067698709666729, 0.061574291437864304, -0.1399095207452774, 0.0175127312541008, 0.04059679061174393, -0.1149551272392273, 0.16678541898727417, -0.11430937051773071, 0.028722170740365982, -0.14684928953647614, -0.018179938197135925, -0.07658522576093674, -0.031767427921295166, 0.16704073548316956, -0.010114126838743687, -0.10395166277885437, -0.10443118214607239, -0.07989286631345749, -0.020846905186772346, 0.01845766417682171, -0.10495361685752869, -0.16232898831367493, 0.10384749621152878, -0.06469143182039261, -0.1715463548898697, -0.1573110669851303, 0.1507352888584137, 0.13232292234897614, -0.03207375109195709, -0.12734928727149963], [0.1352929025888443, -0.03696740046143532, 0.015740245580673218, -0.03651373088359833, 0.08139023929834366, -0.15079042315483093, -0.1067332848906517, -0.012853207997977734, 0.02405109815299511, 0.00023279812012333423, -0.09368006885051727, -0.007747349329292774, 0.15449686348438263, -0.05791948363184929, -0.14387907087802887, -0.10595190525054932, 0.16924463212490082, -0.049333665519952774, -0.0916244238615036, 0.09224701672792435, 0.15127088129520416, 0.12066052109003067, 0.03227609768509865, 0.048065152019262314, 0.13910967111587524, -0.027761854231357574, -0.17635656893253326, -0.14109936356544495, 0.04813699051737785, -0.11774316430091858, -0.06260094791650772, -0.04876824468374252], [0.09196773171424866, 0.09683063626289368, 0.16797280311584473, -0.17171238362789154, -0.05303685739636421, -0.07797042280435562, 0.031328972429037094, -0.0028023228514939547, -0.05945710465312004, 0.055042434483766556, 0.08323730528354645, -0.17624270915985107, -0.13005684316158295, 0.15396356582641602, 0.07364531606435776, -0.09346462041139603, 0.021654102951288223, 0.024872751906514168, -0.1416996270418167, -0.03159709274768829, 0.03924364596605301, -0.148110032081604, -0.17172808945178986, 0.13049638271331787, 0.0762912705540657, 0.12293702363967896, 0.14123699069023132, -0.07733152061700821, 0.09720763564109802, -0.08995437622070312, -0.12490131705999374, 0.02392866276204586], [-0.13664762675762177, -0.08894270658493042, -0.04626251012086868, -0.16137532889842987, -0.09108944982290268, -0.08414841443300247, 0.07946084439754486, -0.1561187356710434, -0.09360753744840622, 0.17589518427848816, -0.037613365799188614, -0.006957390811294317, -0.01676846109330654, 0.06530298292636871, -0.13763771951198578, -0.09415053576231003, 0.045886728912591934, -0.07782312482595444, 0.07317160815000534, 0.061003345996141434, -0.01813085749745369, -0.029560450464487076, 0.004962665028870106, -0.013109608553349972, -0.031747978180646896, -0.13558967411518097, 0.06132218986749649, 0.0019689532928168774, -0.14338967204093933, 0.03472834825515747, -0.10437767952680588, 0.08912032842636108], [0.07407605648040771, 0.028550148010253906, -0.0048634931445121765, 0.05177148059010506, -0.16491837799549103, -0.026040324941277504, 0.025627074763178825, -0.09881789982318878, -0.11902988702058792, -0.1444612443447113, 0.16356243193149567, 0.15320132672786713, 0.011429466307163239, -0.10161004215478897, -0.09798189252614975, 0.16926871240139008, -0.11849053204059601, 0.0741298571228981, 0.010660539381206036, 0.15477807819843292, 0.14902040362358093, 0.16979800164699554, 0.03270624950528145, -0.010637927800416946, -0.12706869840621948, -0.07092311233282089, -0.01292620599269867, -0.006952754687517881, -0.17346413433551788, -0.0502280630171299, -0.01625296287238598, -0.03794687241315842], [-0.04298241063952446, -0.13576675951480865, 0.1590326428413391, 0.14379219710826874, 0.09344030171632767, 0.06288906186819077, -0.15542596578598022, 0.023745259270071983, 0.15173761546611786, -0.11038809269666672, -0.15691275894641876, 0.11066455394029617, -0.09235718846321106, 0.01982695236802101, -0.14345206320285797, -0.11462501436471939, -0.06427919119596481, -0.035319983959198, 0.012032439932227135, -0.028585994616150856, 0.10070236772298813, 0.16846653819084167, 0.14923222362995148, 0.09563425183296204, -0.15896087884902954, -0.07124733179807663, 0.16420865058898926, 0.08664626628160477, 0.030765028670430183, 0.02221834287047386, -0.05031391605734825, 0.0003894157998729497], [-0.11775802075862885, 0.004201260861009359, -0.0801098644733429, -0.16344916820526123, 0.11065861582756042, 0.1298576146364212, 0.008864514529705048, 0.15006355941295624, 0.12730994820594788, -0.14337314665317535, -0.1418999880552292, 0.1282358467578888, -0.11932149529457092, -0.10033229738473892, 0.13806745409965515, -0.04989561066031456, -0.05156896635890007, 0.12014304846525192, 0.12781065702438354, -0.07409152388572693, -0.13146425783634186, 0.010286717675626278, -0.03102595917880535, 0.06312162429094315, 0.07599959522485733, 0.10805551707744598, 0.06215989962220192, 0.17612497508525848, 0.10729362815618515, 0.10870949178934097, -0.04527393355965614, 0.07972440868616104], [-0.14562368392944336, 0.06262087821960449, 0.022565949708223343, -0.175153911113739, 0.10377207398414612, 0.14775414764881134, -0.02660859003663063, -0.1382507085800171, 0.08503349870443344, -0.0036352709867060184, 0.010858629830181599, -0.04214855656027794, 0.14089350402355194, -0.1706351339817047, 0.040839094668626785, -0.013112622313201427, 0.10741421580314636, 0.025300584733486176, -0.03316459432244301, -0.06664712727069855, -0.05090590938925743, 0.08155758678913116, 0.12219110876321793, -0.037458792328834534, 0.09522230923175812, 0.018620245158672333, 0.12800846993923187, 0.08443690836429596, -0.09659717977046967, -0.049531690776348114, -0.1597483605146408, -0.0494040921330452], [-0.1396406590938568, -0.006462481338530779, -0.025033753365278244, 0.014907087199389935, -0.03679453581571579, 0.07467135787010193, -0.10040247440338135, 0.08578944206237793, -0.004458146169781685, -0.13645094633102417, 0.10803312063217163, 0.11578746140003204, 0.07097406685352325, -0.01949961856007576, -0.1474657654762268, 0.0672963559627533, 0.12032164633274078, 0.04082535579800606, 0.08283144980669022, 0.038968320935964584, 0.010701484978199005, 0.1708734631538391, -0.16256865859031677, 0.15254046022891998, -0.139794260263443, -0.15599581599235535, -0.09241610765457153, -0.00031989457784220576, -0.019518647342920303, -0.12792859971523285, 0.049118779599666595, -0.12058145552873611], [-0.09016913175582886, -0.11877894401550293, -0.011198206804692745, -0.05828883871436119, -0.010697080753743649, -0.09923245757818222, -0.1505337953567505, 0.1208963543176651, 0.10179677605628967, 0.16187644004821777, -0.17338886857032776, -0.03937331214547157, -0.12254082411527634, 0.05194537714123726, 0.02459091506898403, -0.11946355551481247, -0.049268316477537155, -0.020054398104548454, 0.14077945053577423, 0.15076205134391785, -0.05026203393936157, -0.023451264947652817, 0.0647675022482872, -0.1573636382818222, 0.0520462766289711, 0.17543332278728485, 0.1272648721933365, -0.12932157516479492, -0.03620787337422371, 0.13622868061065674, -0.16936568915843964, 0.11577283591032028], [0.1677667647600174, 0.13186688721179962, 0.15919773280620575, 0.10020798444747925, -0.028687462210655212, -0.1443377137184143, -0.14745664596557617, 0.043876659125089645, -0.15684698522090912, -0.06763384491205215, -0.09220027923583984, 0.045091502368450165, -0.08328933268785477, -0.08984649926424026, 0.17396846413612366, -0.09407620877027512, 0.07371155172586441, 0.034796860069036484, 0.011967365629971027, -0.033158063888549805, 0.04501791298389435, -0.04230506718158722, 0.07214554399251938, -0.1360217183828354, -0.05077230557799339, 0.06962048262357712, 0.14689218997955322, 0.13996621966362, 0.10557224601507187, 0.08066485077142715, 0.10953578352928162, -0.049381058663129807], [-0.0023477901704609394, -0.033204931765794754, -0.14969801902770996, 0.11405632644891739, -0.12665307521820068, -0.09785296767950058, 0.06260339170694351, 0.11840522289276123, -0.1694181263446808, -0.10827969759702682, 0.021010899916291237, 0.14969263970851898, -0.14967188239097595, -0.04078436642885208, -0.12539641559123993, 0.16579845547676086, 0.06512021273374557, -0.10557463020086288, -0.12148717045783997, -0.05156536027789116, -0.11475488543510437, 0.14036086201667786, -0.03677965700626373, -0.15027153491973877, -0.14960838854312897, 0.0435669869184494, 0.14057296514511108, -0.064895860850811, 0.07232651859521866, 0.04698145017027855, -0.14301036298274994, 0.06743592768907547], [0.05209150165319443, 0.14198312163352966, -0.1662714034318924, -0.10728403925895691, 0.12398485839366913, 0.12561684846878052, 0.17636357247829437, -0.13063135743141174, 0.11100798845291138, 0.13629388809204102, 0.07501498609781265, -0.12710262835025787, -0.057938218116760254, -0.08657670766115189, 0.004529058001935482, 0.14526121318340302, -0.14112387597560883, -0.0912083312869072, 0.14598257839679718, 0.08820907771587372, 0.1319994181394577, -0.021303502842783928, 0.10357842594385147, 0.07286163419485092, 0.1378941833972931, -0.04957187920808792, -0.08450103551149368, 0.14443223178386688, 0.08888085186481476, 0.1615089774131775, 0.006121365819126368, -0.1265500783920288], [0.16959638893604279, 0.1387622356414795, -0.07901591807603836, -0.0495770201086998, -0.025760723277926445, -0.1706736832857132, -0.07628355920314789, 0.028190825134515762, 0.06924242526292801, -0.17215915024280548, 0.12277842313051224, -0.021372603252530098, -0.04512854665517807, -0.09310931712388992, 0.015198659151792526, 0.12928062677383423, -0.10773271322250366, -0.11771050095558167, -0.10169663280248642, -0.09509745240211487, 0.13789458572864532, -0.16142714023590088, -0.03182550519704819, -0.041074421256780624, 0.11581528186798096, 0.08721546083688736, -0.14457225799560547, 0.13135004043579102, 0.1100761666893959, -0.09067047387361526, 0.06002286449074745, 0.17558956146240234], [0.08176878094673157, -0.14740750193595886, -0.09336981177330017, -0.14471709728240967, 0.029574843123555183, -0.11547806113958359, -0.029489243403077126, 0.12192421406507492, -0.08957985788583755, 0.0742911547422409, 0.1081862822175026, 0.06590911746025085, 0.03569323942065239, 0.10801836848258972, 0.018615461885929108, -0.15680766105651855, 0.16303901374340057, 0.05661497637629509, -0.06406668573617935, -0.16711285710334778, -0.003716277191415429, -0.02012290619313717, -0.11007435619831085, -0.10240868479013443, 0.15209922194480896, 0.11785733699798584, 0.004738527815788984, 0.14307183027267456, 0.15972329676151276, -0.021630078554153442, -0.1071077212691307, -0.02481340803205967], [0.06758339703083038, 0.08086351305246353, -0.01845591515302658, 0.053639091551303864, -0.022267844527959824, 0.15328912436962128, 0.09406500309705734, 0.13200169801712036, -0.11031166464090347, 0.02649116888642311, -0.014590522274374962, -0.06746715307235718, -0.16493931412696838, -0.03753912076354027, 0.11502620577812195, 0.09676250070333481, -0.01946282386779785, -0.1651565283536911, 0.12094849348068237, 0.004936091136187315, -0.1286706030368805, 0.1456054300069809, -0.016851110383868217, -0.0719057247042656, 0.011587685905396938, -0.0007742797606624663, 0.015820810571312904, -0.1348915994167328, -0.01196220237761736, 0.013243150897324085, -0.041358090937137604, -0.06913579255342484], [0.06829512864351273, -0.06810454279184341, 0.13896624743938446, -0.019605407491326332, -0.0828746110200882, 0.012152664363384247, -0.048039861023426056, 0.041988566517829895, -0.07713939249515533, 0.0466204397380352, -0.10745599865913391, -0.13669516146183014, -0.17062318325042725, -0.11526783555746078, 0.1293758600950241, 0.11268452554941177, -0.17198476195335388, 0.03649023547768593, -0.06438390165567398, -0.17014957964420319, -0.06764999032020569, -0.10420007258653641, -0.1193254366517067, -0.09426312893629074, 0.024700623005628586, 0.09723079949617386, -0.05210305005311966, -0.11657264083623886, 0.1386813521385193, -0.07398145645856857, -0.14484558999538422, -0.17333917319774628], [0.14057601988315582, -0.08480048924684525, 0.08576297760009766, -0.15674901008605957, 0.08403986692428589, 0.1451764851808548, 0.03315427154302597, -0.01813916116952896, 0.10726943612098694, -0.15532784163951874, 0.0004232807841617614, -0.00403899559751153, 0.07017973065376282, -0.028955304995179176, -0.0949171856045723, -0.025978537276387215, -0.11462067067623138, -0.1195179671049118, -0.12026750296354294, 0.09430059790611267, 0.1035270094871521, 0.02178867720067501, 0.044628579169511795, 0.03771824762225151, 0.0632241889834404, 0.0719536691904068, 0.15811429917812347, 0.0945204421877861, 0.08589474856853485, 0.04220570623874664, 0.02041696570813656, 0.1117333173751831], [0.14670918881893158, -0.08924873173236847, -0.15217438340187073, -0.1415853202342987, 0.10022100806236267, 0.12711429595947266, -0.1409406214952469, -0.05572538077831268, 0.12568701803684235, 0.06221715733408928, -0.013620028272271156, 0.00931902602314949, -0.04185023903846741, -0.04462204873561859, -0.1505923867225647, 0.03955504670739174, -0.02779536135494709, -0.11999034881591797, -0.048696890473365784, 0.043375637382268906, -0.023916080594062805, -0.10093788802623749, -0.0876741036772728, -0.032902274280786514, -0.13829675316810608, 0.10733015090227127, 0.019819576293230057, 0.0801185891032219, 0.16100145876407623, -0.16665014624595642, 0.10742449760437012, -0.08633539080619812], [-0.17650635540485382, -0.1191025897860527, 0.03474348038434982, -0.005727862007915974, -0.08977171033620834, -0.035788532346487045, 0.10382761806249619, -0.11575688421726227, -0.08590006083250046, -0.1386701911687851, -0.06682553142309189, 0.11967186629772186, -0.001206369255669415, 0.1444736272096634, -0.044862307608127594, -0.16054879128932953, -0.07255860418081284, -0.1130676418542862, -0.01958572492003441, 0.007256506942212582, 0.16522426903247833, 0.12261569499969482, -0.14657007157802582, 0.06238941103219986, -0.03194041922688484, 0.06700731068849564, -0.14072811603546143, 0.17056700587272644, 0.11735785752534866, -0.11699115484952927, -0.14261063933372498, -0.12753470242023468], [0.16898439824581146, 0.07778607308864594, -0.10616287589073181, 0.13654832541942596, 0.025623977184295654, 0.0570932999253273, 0.05000845715403557, -0.054439712315797806, 0.03234395384788513, 0.15132151544094086, 0.12033704668283463, -0.088006392121315, -0.09342843294143677, 0.05102480575442314, -0.021575624123215675, -0.15253403782844543, -0.15875308215618134, 0.03287268802523613, -0.05805336311459541, -0.01794629730284214, 0.17314782738685608, -0.04942651465535164, 0.13678179681301117, -0.15389013290405273, -0.12973657250404358, 0.1707182079553604, 0.039877768605947495, -0.007607653737068176, 0.13132444024085999, 0.13055530190467834, -0.13854610919952393, 0.16435013711452484], [0.042702365666627884, -0.14056344330310822, 0.14365093410015106, 0.02315708063542843, 0.10725319385528564, -0.16202309727668762, 0.06066126376390457, 0.025451069697737694, 0.1554148942232132, 0.16982126235961914, -0.0886545479297638, -0.1762239634990692, -0.09423990547657013, -0.00415342440828681, -0.15012188255786896, 0.1162039190530777, -0.1435626745223999, 0.0088022006675601, -0.1447782963514328, -0.02239270508289337, 0.1611507683992386, -0.01635078527033329, -0.050300322473049164, -0.1477743238210678, -0.14734797179698944, -0.06363698095083237, -0.0490768626332283, -0.09477384388446808, -0.13588717579841614, 0.09051410853862762, -0.032249629497528076, -0.11269064247608185], [-0.04478760063648224, -0.07888931035995483, -0.0153970867395401, 0.10451280325651169, -0.04915080964565277, 0.11940678209066391, 0.1652572602033615, -0.14866232872009277, 0.04566020891070366, 0.16471430659294128, 0.06934557855129242, 0.035596512258052826, 0.044016629457473755, -0.008931823074817657, -0.0567324161529541, 0.0349610410630703, 0.12263057380914688, 0.15541845560073853, -0.008023790083825588, 0.04185386374592781, -0.05947230011224747, -0.15454384684562683, 0.14951923489570618, 0.1341448426246643, -0.09939935803413391, -0.030520807951688766, 0.17674851417541504, -0.13466262817382812, 0.06892651319503784, 0.08830348402261734, 0.07115408033132553, -0.12517641484737396], [0.017088355496525764, -0.008291064761579037, 0.12162524461746216, 0.10082392394542694, 0.0859495997428894, 0.1378585249185562, -0.018543053418397903, 0.16928701102733612, 0.08848243951797485, -0.12309069186449051, 0.11162149906158447, 0.11357522010803223, 0.024632472544908524, -0.10145745426416397, 0.06603770703077316, -0.001744352630339563, -0.17666271328926086, 0.060393188148736954, -0.06695416569709778, -0.15303537249565125, 0.15940573811531067, -0.10542159527540207, 0.14985358715057373, 0.15689271688461304, -0.15945199131965637, -0.13417892158031464, -0.08174684643745422, 0.040138278156518936, -0.029415128752589226, 0.03197689726948738, 0.14892025291919708, 0.007881944999098778], [0.10112959146499634, 0.10523819178342819, 0.1284438669681549, 0.16716419160366058, -0.11892641335725784, -0.15136152505874634, 0.08935928344726562, 0.006415592972189188, -0.11061929166316986, 0.09946438670158386, -0.014117571525275707, 0.010438552126288414, 0.13126981258392334, -0.05923469737172127, 0.011435682885348797, 0.09389961510896683, -0.05701185017824173, 0.09307476133108139, 0.021414771676063538, -0.15641969442367554, 0.12670940160751343, -0.17058491706848145, -0.0853021889925003, 0.10245190560817719, 0.17518004775047302, 0.030917178839445114, 0.1675097942352295, 0.05032717064023018, -0.04785098135471344, -0.06378204375505447, 0.05316725745797157, -0.026503918692469597]], "rec.bias_ih_l0": [-0.13443969190120697, -0.09835394471883774, 0.062342140823602676, -0.09453710913658142, 0.08721628785133362, 0.0724102258682251, -0.043735403567552567, 0.042390815913677216, -0.03307395800948143, 0.048281680792570114, -0.04583168402314186, -0.14254392683506012, -0.1514943391084671, 0.09456989914178848, -0.15435586869716644, 0.025318391621112823, -0.05301852151751518, 0.02800476737320423, -0.049508173018693924, -0.048021528869867325, -0.047102686017751694, -0.1322207748889923, -0.08208568394184113, 0.11843909323215485, 0.05661784112453461, -0.131504088640213, -0.03755703568458557, -0.03609407693147659, 0.08223256468772888, -0.057024918496608734, 0.14260384440422058, 0.10930079221725464, -0.03352585807442665, 0.17297671735286713, 0.06730061024427414, -0.1653910130262375, -0.07681252807378769, 0.11302106827497482, 0.029805555939674377, -0.12117031216621399, 0.16599616408348083, 0.050272002816200256, 0.09550829976797104, 0.07604008167982101, 0.11633720993995667, 0.13927379250526428, 0.1660844385623932, 0.09687630087137222, 0.1287287026643753, 0.06428905576467514, 0.16626717150211334, -0.1441238820552826, -0.1412188857793808, -0.07455231249332428, 0.08059126138687134, 0.0448673851788044, 0.16598893702030182, -0.043167371302843094, 0.09583495557308197, -0.004384093917906284, -0.11590376496315002, 0.12062883377075195, -0.0864231213927269, -0.0595502071082592, -0.02951526828110218, -0.16238775849342346, 0.12220891565084457, 0.13964909315109253, -0.007101090624928474, 0.11481667309999466, -0.17097532749176025, 0.12485992908477783, 0.059767305850982666, -0.0258202962577343, 0.15223856270313263, 0.16400855779647827, -0.06885823607444763, 0.05161486193537712, -0.16622388362884521, -0.04232146218419075, -0.14214454591274261, -0.02804381772875786, -0.13031761348247528, -0.16313493251800537, 0.08437364548444748, 0.11294036358594894, 0.04806635156273842, -0.07275232672691345, 0.14497242867946625, 0.07537253201007843, 0.07324116677045822, 0.07514580339193344, 0.07766671478748322, -0.07210525125265121, 0.1466340273618698, 0.12903670966625214, 0.03137931972742081, -0.16557523608207703, 0.1351519227027893, 0.05605311691761017, 0.07320799678564072, 0.03696748614311218, -0.0033291163854300976, -0.16742365062236786, -0.171500563621521, -0.12287559360265732, -3.314849527669139e-05, 0.02663889341056347, -0.1307385116815567, -0.010877911932766438, -0.08546622097492218, 0.1657564491033554, 0.1391487866640091, -0.06576728820800781, 0.11968566477298737, -0.16544514894485474, -0.05836048722267151, 0.056323256343603134, 0.14682292938232422, 0.0887317806482315, 0.07236198335886002, -0.16383449733257294, 0.07963792234659195, -0.006122651509940624, -0.0647486224770546, -0.12611544132232666, 0.1763460338115692, 0.11747017502784729], "rec.bias_hh_l0": [0.15849615633487701, 0.14862440526485443, -0.1375960111618042, -0.17357955873012543, 0.05583106353878975, -0.06698507815599442, -0.015007691457867622, 0.1490008682012558, 0.1376374065876007, -0.024958772584795952, 0.09600581973791122, 0.14451010525226593, 0.16676485538482666, -0.07299153506755829, -0.020221678540110588, 0.10212630033493042, -0.011988396756350994, 0.10053983330726624, 0.11811280995607376, 0.1640826314687729, 0.02238195762038231, -0.06355158984661102, 0.08331422507762909, 0.09797369688749313, 0.016864050179719925, -0.1492290049791336, 0.04693266376852989, 0.0755232721567154, -0.08089324831962585, 0.10150273889303207, 0.09734577685594559, -0.025899069383740425, 0.007426316849887371, -0.17467370629310608, -0.01275898888707161, -0.06581223756074905, -0.046829868108034134, 0.008143887855112553, -0.06364576518535614, 0.010607603006064892, -0.05980370193719864, 0.08390718698501587, -0.1425071805715561, -0.11697636544704437, 0.012586228549480438, 0.12283395230770111, 0.1344396322965622, -0.11744880676269531, 0.11516410857439041, -0.09251228719949722, 0.12020965665578842, -0.04975437372922897, -0.1467190384864807, -0.09630580246448517, 0.08163110911846161, 0.019678721204400063, 0.08112231642007828, 0.10571866482496262, 0.11826951056718826, 0.041548553854227066, 0.13981041312217712, -0.16072238981723785, -0.16351847350597382, 0.01363777182996273, -0.12116999924182892, 0.061736345291137695, -0.13068963587284088, -0.10099609196186066, -0.07567131519317627, -0.15969760715961456, -0.05843331664800644, -0.12113355845212936, -0.07132125645875931, 0.051652077585458755, 0.006565783638507128, 0.1694488525390625, 0.042409949004650116, 0.1716621369123459, 0.00015659660857636482, 0.06299681216478348, 0.014136536978185177, 0.07618200778961182, -0.05597280338406563, -0.14110581576824188, 0.14433644711971283, 0.06036471575498581, -0.09597197920084, -0.137827068567276, -0.04652247205376625, 0.01633588597178459, -0.10028216242790222, 0.04883747175335884, -0.11514782160520554, -0.06110972538590431, -0.1627219170331955, 0.1322370171546936, 0.14764000475406647, -0.08635001629590988, 0.1036582738161087, 0.13769018650054932, 0.13809819519519806, -0.1209467425942421, 0.10642939060926437, -0.10767535120248795, 0.011999460868537426, -0.05078990012407303, 0.09465143084526062, 0.12393906712532043, 0.03032168559730053, 0.16581076383590698, 0.1751946657896042, -0.16875344514846802, -0.045129094272851944, -0.06410392373800278, -0.15229569375514984, -0.12434331327676773, 0.11440359055995941, 0.14633086323738098, -0.07861366868019104, -0.06915368139743805, -0.12874631583690643, -0.02837987430393696, 0.007080754730850458, 0.10579118132591248, 0.0042656403966248035, 0.13442544639110565, 0.010637948289513588, -0.12196570634841919], "lin.weight": [[0.08661219477653503, 0.17553670704364777, 0.008618292398750782, 0.17364507913589478, 0.0434061735868454, -0.000507848453707993, 0.14248289167881012, -0.06872119754552841, 0.05207083001732826, 0.07327181100845337, -0.08705151081085205, 0.06853591650724411, -0.1188383474946022, 0.11966031789779663, 0.13042528927326202, 0.15626630187034607, 0.11358952522277832, 0.1246267780661583, -0.0676572173833847, -0.026157386600971222, -0.02480580098927021, 0.15633656084537506, 0.10835804790258408, -0.09234614670276642, 0.012276006862521172, 0.12845543026924133, 0.17619939148426056, 0.1428162008523941, -0.13278663158416748, 0.0392574705183506, 0.0746857076883316, -0.010740786790847778]], "lin.bias": [-0.12766402959823608]}}